{"learner":{"attributes":{"scikit_learn":"{\"_estimator_type\": \"classifier\"}"},"feature_names":[],"feature_types":[],"gradient_booster":{"model":{"cats":{"enc":[],"feature_segments":[],"sorted_idx":[]},"gbtree_model_param":{"num_parallel_tree":"1","num_trees":"200"},"iteration_indptr":[0,1,2,3,4,5,6,7,8,9,10,11,12,13,14,15,16,17,18,19,20,21,22,23,24,25,26,27,28,29,30,31,32,33,34,35,36,37,38,39,40,41,42,43,44,45,46,47,48,49,50,51,52,53,54,55,56,57,58,59,60,61,62,63,64,65,66,67,68,69,70,71,72,73,74,75,76,77,78,79,80,81,82,83,84,85,86,87,88,89,90,91,92,93,94,95,96,97,98,99,100,101,102,103,104,105,106,107,108,109,110,111,112,113,114,115,116,117,118,119,120,121,122,123,124,125,126,127,128,129,130,131,132,133,134,135,136,137,138,139,140,141,142,143,144,145,146,147,148,149,150,151,152,153,154,155,156,157,158,159,160,161,162,163,164,165,166,167,168,169,170,171,172,173,174,175,176,177,178,179,180,181,182,183,184,185,186,187,188,189,190,191,192,193,194,195,196,197,198,199,200],"tree_info":[0,0,0,0,0,0,0,0,0,0,0,0,0,0,0,0,0,0,0,0,0,0,0,0,0,0,0,0,0,0,0,0,0,0,0,0,0,0,0,0,0,0,0,0,0,0,0,0,0,0,0,0,0,0,0,0,0,0,0,0,0,0,0,0,0,0,0,0,0,0,0,0,0,0,0,0,0,0,0,0,0,0,0,0,0,0,0,0,0,0,0,0,0,0,0,0,0,0,0,0,0,0,0,0,0,0,0,0,0,0,0,0,0,0,0,0,0,0,0,0,0,0,0,0,0,0,0,0,0,0,0,0,0,0,0,0,0,0,0,0,0,0,0,0,0,0,0,0,0,0,0,0,0,0,0,0,0,0,0,0,0,0,0,0,0,0,0,0,0,0,0,0,0,0,0,0,0,0,0,0,0,0,0,0,0,0,0,0,0,0,0,0,0,0,0,0,0,0,0,0],"trees":[{"base_weights":[-3.7529578E-3,1.027727E0,-7.604023E-1,7.265589E-1,7.105892E-2,-7.708775E-2,-4.5994094E-1,4.2676634E-1,5.4492082E-2,1.5458638E-2,-6.796377E-1,3.247265E-2,1.4033266E-4,-5.0830513E-2,-1.4791824E-2],"categories":[],"categories_nodes":[],"categories_segments":[],"categories_sizes":[],"default_left":[0,0,0,0,0,0,0,0,0,0,0,0,0,0,0],"id":0,"left_children":[1,3,5,7,-1,-1,9,11,-1,-1,13,-1,-1,-1,-1],"loss_changes":[7.384617E1,3.4921875E0,1.1921385E1,2.0891685E0,0E0,0E0,7.173546E0,1.3875105E0,0E0,0E0,3.7450628E0,0E0,0E0,0E0,0E0],"parents":[2147483647,0,0,1,1,2,2,3,3,6,6,7,7,10,10],"right_children":[2,4,6,8,-1,-1,10,12,-1,-1,14,-1,-1,-1,-1],"split_conditions":[0E0,7.5E-1,2.78E-1,3.583992E1,7.105892E-2,-7.708775E-2,3.56E1,3.68E1,5.4492082E-2,1.5458638E-2,1E0,3.247265E-2,1.4033266E-4,-5.0830513E-2,-1.4791824E-2],"split_indices":[12,33,33,45,0,0,19,19,0,0,25,0,0,0,0],"split_type":[0,0,0,0,0,0,0,0,0,0,0,0,0,0,0],"sum_hessian":[9.265068E1,3.8997738E1,5.365294E1,2.384575E1,1.5151987E1,1.3661628E1,3.999131E1,1.4406808E1,9.438943E0,8.693764E0,3.1297548E1,8.942157E0,5.464651E0,1.5648774E1,1.5648774E1],"tree_param":{"num_deleted":"0","num_feature":"46","num_nodes":"15","size_leaf_vector":"1"}},{"base_weights":[-8.944679E-3,9.897447E-1,-7.4778414E-1,6.1779E-1,1.2626327E0,-5.309689E-1,-7.403175E-2,1.0832634E-2,4.6935644E-2,7.5258665E-2,4.0184136E-2,-9.4349074E-1,-3.1211093E-1,-7.0847034E-2,-1.8380031E-2,-4.4578068E-2,-7.167741E-3],"categories":[],"categories_nodes":[],"categories_segments":[],"categories_sizes":[],"default_left":[0,0,0,0,0,0,0,0,0,0,0,0,0,0,0,0,0],"id":1,"left_children":[1,3,5,7,9,11,-1,-1,-1,-1,-1,13,15,-1,-1,-1,-1],"loss_changes":[6.9590416E1,3.0985107E0,7.6370735E0,2.1357522E0,1.007946E0,3.5118551E0,0E0,0E0,0E0,0E0,0E0,3.2387285E0,2.7127383E0,0E0,0E0,0E0,0E0],"parents":[2147483647,0,0,1,1,2,2,3,3,4,4,5,5,11,11,12,12],"right_children":[2,4,6,8,10,12,-1,-1,-1,-1,-1,14,16,-1,-1,-1,-1],"split_conditions":[0E0,5.7735026E-1,3.7760562E-1,1E0,2E0,2.2017369E-1,-7.403175E-2,1.0832634E-2,4.6935644E-2,7.5258665E-2,4.0184136E-2,1E0,1.8E0,-7.0847034E-2,-1.8380031E-2,-4.4578068E-2,-7.167741E-3],"split_indices":[12,34,10,25,26,35,0,0,0,0,0,25,44,0,0,0,0],"split_type":[0,0,0,0,0,0,0,0,0,0,0,0,0,0,0,0,0],"sum_hessian":[9.234217E1,3.9064175E1,5.3277996E1,1.8067696E1,2.099648E1,4.255037E1,1.0727624E1,8.913262E0,9.154432E0,1.2102958E1,8.893524E0,1.3443344E1,2.9107027E1,6.481063E0,6.962281E0,5.4653134E0,2.3641714E1],"tree_param":{"num_deleted":"0","num_feature":"46","num_nodes":"17","size_leaf_vector":"1"}},{"base_weights":[3.8003735E-2,1.0144209E0,-6.2326753E-1,7.281605E-1,7.099961E-2,-7.5029895E-2,-3.724263E-1,4.5130852E-1,5.9615918E-2,-5.2070016E-1,1.4503543E-2,3.9641026E-2,6.5233223E-3,6.7704837E-3,-3.4011614E-2],"categories":[],"categories_nodes":[],"categories_segments":[],"categories_sizes":[],"default_left":[0,0,0,0,0,0,0,0,0,0,0,0,0,0,0],"id":2,"left_children":[1,3,5,7,-1,-1,9,11,-1,13,-1,-1,-1,-1,-1],"loss_changes":[6.055285E1,3.1501236E0,1.1545399E1,2.4341497E0,0E0,0E0,4.5800653E0,1.6706057E0,0E0,4.033164E0,0E0,0E0,0E0,0E0,0E0],"parents":[2147483647,0,0,1,1,2,2,3,3,6,6,7,7,9,9],"right_children":[2,4,6,8,-1,-1,10,12,-1,14,-1,-1,-1,-1,-1],"split_conditions":[0E0,7.5E-1,2.38E-1,-2.59736E-1,7.099961E-2,-7.5029895E-2,2.3E0,-2.8257766E-1,5.9615918E-2,3.33642E1,1.4503543E-2,3.9641026E-2,6.5233223E-3,6.7704837E-3,-3.4011614E-2],"split_indices":[12,33,33,11,0,0,18,10,0,45,0,0,0,0,0],"split_type":[0,0,0,0,0,0,0,0,0,0,0,0,0,0,0],"sum_hessian":[9.174222E1,3.6889404E1,5.4852818E1,2.3408895E1,1.3480507E1,1.099974E1,4.385308E1,1.6033375E1,7.3755207E0,3.613146E1,7.721622E0,6.9029593E0,9.130416E0,6.973956E0,2.9157501E1],"tree_param":{"num_deleted":"0","num_feature":"46","num_nodes":"15","size_leaf_vector":"1"}},{"base_weights":[-0E0,9.116871E-1,-6.3935953E-1,9.9115133E-1,1.5008974E-2,-7.48638E-2,-3.5233536E-1,7.10918E-2,7.799232E-1,-1.5994069E-1,-7.3181313E-1,7.4537024E-3,4.635701E-2,1.0894172E-2,-2.4960268E-2,-2.3323214E-2,-4.6292078E-2],"categories":[],"categories_nodes":[],"categories_segments":[],"categories_sizes":[],"default_left":[0,0,0,0,0,0,0,0,0,0,0,0,0,0,0,0,0],"id":3,"left_children":[1,3,5,7,-1,-1,9,-1,11,13,15,-1,-1,-1,-1,-1,-1],"loss_changes":[5.594678E1,1.4969864E0,1.31683235E1,1.8053818E0,0E0,0E0,2.9794817E0,0E0,2.1212893E0,4.0347795E0,1.6128778E-1,0E0,0E0,0E0,0E0,0E0,0E0],"parents":[2147483647,0,0,1,1,2,2,3,3,6,6,8,8,9,9,10,10],"right_children":[2,4,6,8,-1,-1,10,-1,12,14,16,-1,-1,-1,-1,-1,-1],"split_conditions":[-1.6666667E-1,3E0,2.38E-1,-4.5759165E-1,1.5008974E-2,-7.48638E-2,1.4142135E0,7.10918E-2,-3.8380656E-1,8.4E-2,5E-1,7.4537024E-3,4.635701E-2,1.0894172E-2,-2.4960268E-2,-2.3323214E-2,-4.6292078E-2],"split_indices":[11,26,33,11,0,0,22,0,11,23,36,0,0,0,0,0,0],"split_type":[0,0,0,0,0,0,0,0,0,0,0,0,0,0,0,0,0],"sum_hessian":[9.3957436E1,3.8586937E1,5.5370502E1,3.3455143E1,5.131793E0,1.27364E1,4.26341E1,8.967042E0,2.4488102E1,2.9408852E1,1.3225251E1,5.1426935E0,1.9345407E1,1.3943553E1,1.5465299E1,7.241471E0,5.98378E0],"tree_param":{"num_deleted":"0","num_feature":"46","num_nodes":"17","size_leaf_vector":"1"}},{"base_weights":[4.312664E-2,9.393598E-1,-5.7069397E-1,6.958E-2,6.7430466E-1,-6.889363E-2,-3.0229726E-1,-8.616398E-3,9.059076E-1,-6.265911E-1,1.3738257E-2,2.2931764E-2,5.052653E-2,-6.84953E-2,-1.4952674E-2,1.603244E-2,-2.3443842E-2],"categories":[],"categories_nodes":[],"categories_segments":[],"categories_sizes":[],"default_left":[0,0,0,0,0,0,0,0,0,0,0,0,0,0,0,0,0],"id":4,"left_children":[1,3,5,-1,7,-1,9,-1,11,13,15,-1,-1,-1,-1,-1,-1],"loss_changes":[5.4137226E1,3.6525345E0,1.2055412E1,0E0,5.5850935E0,0E0,4.6981907E0,0E0,4.0501595E-1,4.893091E0,3.6449516E0,0E0,0E0,0E0,0E0,0E0,0E0],"parents":[2147483647,0,0,1,1,2,2,4,4,6,6,8,8,9,9,10,10],"right_children":[2,4,6,-1,8,-1,10,-1,12,14,16,-1,-1,-1,-1,-1,-1],"split_conditions":[0E0,-4.529956E-1,2.38E-1,6.958E-2,-3.3597484E-1,-6.889363E-2,1E0,-8.616398E-3,3.45E1,2.1650635E-1,1.4142135E0,2.2931764E-2,5.052653E-2,-6.84953E-2,-1.4952674E-2,1.603244E-2,-2.3443842E-2],"split_indices":[12,11,33,0,10,0,25,0,45,35,22,0,0,0,0,0,0],"split_type":[0,0,0,0,0,0,0,0,0,0,0,0,0,0,0,0,0],"sum_hessian":[9.636721E1,3.9022877E1,5.7344337E1,1.27097845E1,2.6313093E1,1.318509E1,4.4159245E1,5.614232E0,2.0698862E1,2.1466038E1,2.2693207E1,5.1256733E0,1.5573189E1,5.498952E0,1.5967087E1,1.4203529E1,8.489677E0],"tree_param":{"num_deleted":"0","num_feature":"46","num_nodes":"17","size_leaf_vector":"1"}},{"base_weights":[-1.6480263E-2,8.595481E-1,-6.1849314E-1,8.72838E-3,1.0223967E0,-6.8851545E-2,-3.7657282E-1,2.712133E-2,5.582605E-2,-1.7064553E-1,-6.5161026E-1,-1.5423521E-2,1.6801314E-2,-5.0400086E-2,4.455479E-3],"categories":[],"categories_nodes":[],"categories_segments":[],"categories_sizes":[],"default_left":[0,0,0,0,0,0,0,0,0,0,0,0,0,0,0],"id":5,"left_children":[1,3,5,-1,7,-1,9,-1,-1,11,13,-1,-1,-1,-1],"loss_changes":[5.177023E1,4.157261E0,9.997257E0,0E0,6.716995E-1,0E0,2.3920379E0,0E0,0E0,2.0329344E0,5.1927366E0,0E0,0E0,0E0,0E0],"parents":[2147483647,0,0,1,1,2,2,4,4,6,6,9,9,10,10],"right_children":[2,4,6,-1,8,-1,10,-1,-1,12,14,-1,-1,-1,-1],"split_conditions":[0E0,3.4290134E1,2.38E-1,8.72838E-3,1.2909944E0,-6.8851545E-2,3.538559E1,2.712133E-2,5.582605E-2,3.457546E1,5.6077868E-2,-1.5423521E-2,1.6801314E-2,-5.0400086E-2,4.455479E-3],"split_indices":[12,45,33,0,22,0,45,0,0,45,11,0,0,0,0],"split_type":[0,0,0,0,0,0,0,0,0,0,0,0,0,0,0],"sum_hessian":[9.620254E1,3.894183E1,5.7260704E1,7.9957604E0,3.094607E1,1.2611642E1,4.4649063E1,6.3566713E0,2.45894E1,2.6666918E1,1.7982145E1,2.1426916E1,5.240001E0,1.19882555E1,5.9938903E0],"tree_param":{"num_deleted":"0","num_feature":"46","num_nodes":"15","size_leaf_vector":"1"}},{"base_weights":[-1.3942845E-3,8.925965E-1,-6.0601306E-1,1.31856715E-2,1.0124838E0,2.3687021E-1,-8.358848E-1,1.7185902E-2,5.907662E-2,3.9172895E-2,-1.982382E-2,-5.6144595E-1,-1.1859592E0,-6.6040486E-2,-1.3285232E-2,-3.9885934E-2,-7.306368E-2],"categories":[],"categories_nodes":[],"categories_segments":[],"categories_sizes":[],"default_left":[0,0,0,0,0,0,0,0,0,0,0,0,0,0,0,0,0],"id":6,"left_children":[1,3,5,-1,7,9,11,-1,-1,-1,-1,13,15,-1,-1,-1,-1],"loss_changes":[5.0589176E1,2.4489536E0,1.1094528E1,0E0,2.9676456E0,4.73564E0,3.411539E0,0E0,0E0,0E0,0E0,5.5244484E0,5.741062E-1,0E0,0E0,0E0,0E0],"parents":[2147483647,0,0,1,1,2,2,4,4,5,5,6,6,11,11,12,12],"right_children":[2,4,6,-1,8,10,12,-1,-1,-1,-1,14,16,-1,-1,-1,-1],"split_conditions":[0E0,3.4290134E1,3.3563934E1,1.31856715E-2,1.2909944E0,2.5E-1,8.4E-2,1.7185902E-2,5.907662E-2,3.9172895E-2,-1.982382E-2,1.7E0,1.3468128E-1,-6.6040486E-2,-1.3285232E-2,-3.9885934E-2,-7.306368E-2],"split_indices":[12,45,45,0,22,10,23,0,0,0,0,44,10,0,0,0,0],"split_type":[0,0,0,0,0,0,0,0,0,0,0,0,0,0,0,0,0],"sum_hessian":[9.164519E1,3.671565E1,5.492954E1,6.5244884E0,3.0191162E1,1.1670652E1,4.3258884E1,6.8231554E0,2.3368006E1,6.2219205E0,5.4487324E0,2.5868704E1,1.739018E1,6.1845746E0,1.9684128E1,8.9831295E0,8.407052E0],"tree_param":{"num_deleted":"0","num_feature":"46","num_nodes":"17","size_leaf_vector":"1"}},{"base_weights":[-2.0636726E-2,7.730944E-1,-5.955508E-1,4.1100338E-1,9.7023153E-1,-7.4009305E-1,1.3785842E-2,4.0830046E-2,-5.119184E-3,5.733942E-2,3.0934377E-2,-4.7443846E-1,-1.1478364E0,-5.1142152E-2,-4.8074295E-4,-6.6222094E-2,-2.9073257E-2],"categories":[],"categories_nodes":[],"categories_segments":[],"categories_sizes":[],"default_left":[0,0,0,0,0,0,0,0,0,0,0,0,0,0,0,0,0],"id":7,"left_children":[1,3,5,7,9,11,-1,-1,-1,-1,-1,13,15,-1,-1,-1,-1],"loss_changes":[4.3268612E1,2.3029861E0,7.1850777E0,3.473865E0,6.5608025E-1,4.4491005E0,0E0,0E0,0E0,0E0,0E0,7.706198E0,8.3221054E-1,0E0,0E0,0E0,0E0],"parents":[2147483647,0,0,1,1,2,2,3,3,4,4,5,5,11,11,12,12],"right_children":[2,4,6,8,10,12,-1,-1,-1,-1,-1,14,16,-1,-1,-1,-1],"split_conditions":[-9.264219E-2,2.5E0,2.3E0,-3.7019116E-1,2E0,1.3636364E-1,1.3785842E-2,4.0830046E-2,-5.119184E-3,5.733942E-2,3.0934377E-2,1E0,3.6490685E1,-5.1142152E-2,-4.8074295E-4,-6.6222094E-2,-2.9073257E-2],"split_indices":[10,44,18,10,26,11,0,0,0,0,0,25,45,0,0,0,0],"split_type":[0,0,0,0,0,0,0,0,0,0,0,0,0,0,0,0,0],"sum_hessian":[9.284921E1,3.8784443E1,5.4064774E1,1.4938436E1,2.3846006E1,4.659933E1,7.4654436E0,8.124168E0,6.814267E0,1.4178498E1,9.667508E0,2.96745E1,1.6924831E1,1.2963901E1,1.67106E1,1.1746892E1,5.1779394E0],"tree_param":{"num_deleted":"0","num_feature":"46","num_nodes":"17","size_leaf_vector":"1"}},{"base_weights":[-1.6855363E-2,7.7162695E-1,-5.1883656E-1,3.8263252E-1,1.0512055E0,-6.1483253E-2,-3.0916664E-1,3.0240223E-2,9.758086E-4,6.1822828E-2,3.605633E-2,-5.232397E-1,-6.312923E-2,-0E0,-4.278598E-2,8.489487E-3,-2.3659168E-2],"categories":[],"categories_nodes":[],"categories_segments":[],"categories_sizes":[],"default_left":[0,0,0,0,0,0,0,0,0,0,0,0,0,0,0,0,0],"id":8,"left_children":[1,3,5,7,9,-1,11,-1,-1,-1,-1,13,15,-1,-1,-1,-1],"loss_changes":[3.7617317E1,3.4702606E0,8.13509E0,1.3104019E0,1.8218613E-1,0E0,2.350226E0,0E0,0E0,0E0,0E0,4.2638183E0,2.3002539E0,0E0,0E0,0E0,0E0],"parents":[2147483647,0,0,1,1,2,2,3,3,4,4,6,6,11,11,12,12],"right_children":[2,4,6,8,10,-1,12,-1,-1,-1,-1,14,16,-1,-1,-1,-1],"split_conditions":[0E0,5.7735026E-1,2.38E-1,8E-2,-3.6523914E-1,-6.1483253E-2,5.7735026E-1,3.0240223E-2,9.758086E-4,6.1822828E-2,3.605633E-2,4.52E-1,1.4E-1,-0E0,-4.278598E-2,8.489487E-3,-2.3659168E-2],"split_indices":[12,34,33,23,11,0,34,0,0,0,0,33,23,0,0,0,0],"split_type":[0,0,0,0,0,0,0,0,0,0,0,0,0,0,0,0,0],"sum_hessian":[9.309283E1,3.592601E1,5.716682E1,1.616331E1,1.97627E1,1.1804656E1,4.5362164E1,9.444019E0,6.7192903E0,1.0705513E1,9.057185E0,2.343695E1,2.1925213E1,9.477482E0,1.3959469E1,1.4200887E1,7.7243257E0],"tree_param":{"num_deleted":"0","num_feature":"46","num_nodes":"17","size_leaf_vector":"1"}},{"base_weights":[4.644798E-2,-3.62491E-1,8.0207014E-1,-1.5313213E-1,-5.4702725E-2,1.21496E-2,9.1066736E-1,1.1617607E-1,-5.005461E-1,4.9540684E-2,2.2922924E-2,1.4458473E-2,-2.6411263E-2,-3.706829E-2,-3.1431504E-3],"categories":[],"categories_nodes":[],"categories_segments":[],"categories_sizes":[],"default_left":[0,0,0,0,0,0,0,0,0,0,0,0,0,0,0],"id":9,"left_children":[1,3,5,7,-1,-1,9,11,13,-1,-1,-1,-1,-1,-1],"loss_changes":[2.9375454E1,9.139726E0,1.6911583E0,4.695078E0,0E0,0E0,3.9580345E-1,3.2877128E0,2.1721148E0,0E0,0E0,0E0,0E0,0E0,0E0],"parents":[2147483647,0,0,1,1,2,2,3,3,6,6,7,7,8,8],"right_children":[2,4,6,8,-1,-1,10,12,14,-1,-1,-1,-1,-1,-1],"split_conditions":[7.5E-1,3.7760562E-1,3.406723E1,3.571351E1,-5.4702725E-2,1.21496E-2,3.8047375E1,2.0359643E-1,3.7126965E1,4.9540684E-2,2.2922924E-2,1.4458473E-2,-2.6411263E-2,-3.706829E-2,-3.1431504E-3],"split_indices":[36,10,45,45,0,0,45,10,45,0,0,0,0,0,0],"split_type":[0,0,0,0,0,0,0,0,0,0,0,0,0,0,0],"sum_hessian":[9.2981995E1,6.058281E1,3.2399185E1,4.814942E1,1.2433391E1,5.946079E0,2.6453106E1,2.7336489E1,2.0812931E1,2.1270996E1,5.1821113E0,2.2107925E1,5.2285633E0,1.2830875E1,7.9820557E0],"tree_param":{"num_deleted":"0","num_feature":"46","num_nodes":"15","size_leaf_vector":"1"}},{"base_weights":[-4.264575E-2,5.7298654E-1,-4.997232E-1,5.5071097E-2,3.4444594E-1,-3.063017E-1,-1.0285226E0,4.7497922E-1,-1.1334449E-2,-6.235049E-1,-4.1579414E-2,-6.1080813E-2,-2.7167097E-2,8.170313E-3,4.1458007E-2,-0E0,-4.4927653E-2,-3.5489123E-2,1.3232025E-2],"categories":[],"categories_nodes":[],"categories_segments":[],"categories_sizes":[],"default_left":[0,0,0,0,0,0,0,0,0,0,0,0,0,0,0,0,0,0,0],"id":10,"left_children":[1,3,5,-1,7,9,11,13,-1,15,17,-1,-1,-1,-1,-1,-1,-1,-1],"loss_changes":[2.7098305E1,4.425583E0,5.2102737E0,0E0,2.3837738E0,3.4403293E0,4.951868E-1,2.5290709E0,0E0,3.2903695E0,5.1791887E0,0E0,0E0,0E0,0E0,0E0,0E0,0E0,0E0],"parents":[2147483647,0,0,1,1,2,2,4,4,5,5,6,6,7,7,9,9,10,10],"right_children":[2,4,6,-1,8,10,12,14,-1,16,18,-1,-1,-1,-1,-1,-1,-1,-1],"split_conditions":[0E0,-4.5759165E-1,3.7760562E-1,5.5071097E-2,3.6906013E1,1E0,3.6016678E1,-2.4825548E-1,-1.1334449E-2,3.402791E1,7.974017E-2,-6.1080813E-2,-2.7167097E-2,8.170313E-3,4.1458007E-2,-0E0,-4.4927653E-2,-3.5489123E-2,1.3232025E-2],"split_indices":[10,11,10,0,45,25,45,11,0,45,10,0,0,0,0,0,0,0,0],"split_type":[0,0,0,0,0,0,0,0,0,0,0,0,0,0,0,0,0,0,0],"sum_hessian":[9.430951E1,3.9983643E1,5.432587E1,1.0786345E1,2.9197296E1,4.1071354E1,1.3254515E1,2.40452E1,5.152097E0,1.7895285E1,2.3176071E1,8.24799E0,5.0065255E0,1.3719691E1,1.0325508E1,5.722013E0,1.2173271E1,6.9717283E0,1.6204344E1],"tree_param":{"num_deleted":"0","num_feature":"46","num_nodes":"19","size_leaf_vector":"1"}},{"base_weights":[1.3110409E-2,6.455845E-1,-3.682318E-1,5.1123958E-2,4.1316476E-1,-9.96343E-2,-9.9815464E-1,6.5337527E-1,-7.485628E-4,3.5285655E-2,-2.68448E-2,-6.6232085E-2,-1.836564E-2,1.3416401E-2,5.065505E-2,-1.0027986E-2,1.1723652E-2],"categories":[],"categories_nodes":[],"categories_segments":[],"categories_sizes":[],"default_left":[0,0,0,0,0,0,0,0,0,0,0,0,0,0,0,0,0],"id":11,"left_children":[1,3,5,-1,7,9,11,13,-1,15,-1,-1,-1,-1,-1,-1,-1],"loss_changes":[2.1468273E1,2.3710136E0,9.160982E0,0E0,2.395965E0,2.4317453E0,2.7082214E0,1.6274748E0,0E0,1.5240147E0,0E0,0E0,0E0,0E0,0E0,0E0,0E0],"parents":[2147483647,0,0,1,1,2,2,4,4,5,5,6,6,7,7,9,9],"right_children":[2,4,6,-1,8,10,12,14,-1,16,-1,-1,-1,-1,-1,-1,-1],"split_conditions":[0E0,-4.1377643E-1,1.9483277E-1,5.1123958E-2,2E0,3.8E1,3.72E1,5.7735026E-1,-7.485628E-4,1E0,-2.68448E-2,-6.6232085E-2,-1.836564E-2,1.3416401E-2,5.065505E-2,-1.0027986E-2,1.1723652E-2],"split_indices":[12,11,11,0,26,19,19,34,0,25,0,0,0,0,0,0,0],"split_type":[0,0,0,0,0,0,0,0,0,0,0,0,0,0,0,0,0],"sum_hessian":[8.6909515E1,3.25286E1,5.4380917E1,1.0947106E1,2.1581491E1,3.904791E1,1.533301E1,1.3637498E1,7.9439936E0,3.0368206E1,8.679701E0,9.274664E0,6.058346E0,7.5644693E0,6.0730286E0,1.3671594E1,1.6696613E1],"tree_param":{"num_deleted":"0","num_feature":"46","num_nodes":"17","size_leaf_vector":"1"}},{"base_weights":[-7.726254E-2,7.0810264E-1,-6.059011E-1,5.367155E-2,5.0221455E-1,-5.8755208E-2,-4.2345202E-1,2.0673601E-1,5.052448E-2,-4.8196983E-2,-3.0466178E-1,-1.7390177E-2,2.561825E-2,-3.39628E-2,3.2511994E-3],"categories":[],"categories_nodes":[],"categories_segments":[],"categories_sizes":[],"default_left":[0,0,0,0,0,0,0,0,0,0,0,0,0,0,0],"id":12,"left_children":[1,3,5,-1,7,-1,9,11,-1,-1,13,-1,-1,-1,-1],"loss_changes":[3.809833E1,2.0786247E0,5.0396576E0,0E0,3.521943E0,0E0,2.3556256E0,3.1781635E0,0E0,0E0,5.2380304E0,0E0,0E0,0E0,0E0],"parents":[2147483647,0,0,1,1,2,2,4,4,6,6,7,7,10,10],"right_children":[2,4,6,-1,8,-1,10,12,-1,-1,14,-1,-1,-1,-1],"split_conditions":[0E0,-4.529956E-1,2.38E-1,5.367155E-2,-2.6200563E-1,-5.8755208E-2,-7.8947365E-2,7.14E-1,5.052448E-2,-4.8196983E-2,1E0,-1.7390177E-2,2.561825E-2,-3.39628E-2,3.2511994E-3],"split_indices":[12,11,33,0,11,0,11,33,0,0,25,0,0,0,0],"split_type":[0,0,0,0,0,0,0,0,0,0,0,0,0,0,0],"sum_hessian":[8.975588E1,3.5897125E1,5.3858757E1,1.1244854E1,2.4652273E1,1.1619505E1,4.2239254E1,1.6603529E1,8.048744E0,6.1771545E0,3.60621E1,5.734161E0,1.0869368E1,1.7630562E1,1.8431536E1],"tree_param":{"num_deleted":"0","num_feature":"46","num_nodes":"15","size_leaf_vector":"1"}},{"base_weights":[4.35473E-2,-5.0540715E-2,2.3936142E-1,5.5101544E-2,8.646066E-2,-2.4678661E-1,3.3934972E-1,2.493889E-2,-2.6050935E-2,2.5688758E-2,-1.623599E-2],"categories":[],"categories_nodes":[],"categories_segments":[],"categories_sizes":[],"default_left":[0,0,0,0,0,0,0,0,0,0,0],"id":13,"left_children":[1,-1,3,-1,5,7,9,-1,-1,-1,-1],"loss_changes":[1.8096123E1,0E0,9.564716E0,0E0,5.4999423E0,6.0052376E0,4.4794574E0,0E0,0E0,0E0,0E0],"parents":[2147483647,0,0,2,2,4,4,5,5,6,6],"right_children":[2,-1,4,-1,6,8,10,-1,-1,-1,-1],"split_conditions":[2.78E-1,-5.0540715E-2,-4.529956E-1,5.5101544E-2,2.5E0,4.52E-1,4.3003637E-2,2.493889E-2,-2.6050935E-2,2.5688758E-2,-1.623599E-2],"split_indices":[33,0,11,0,44,33,11,0,0,0,0],"split_type":[0,0,0,0,0,0,0,0,0,0,0],"sum_hessian":[8.585176E1,1.2715002E1,7.313676E1,9.978173E0,6.3158585E1,2.7089634E1,3.606895E1,6.9663906E0,2.0123243E1,2.8864319E1,7.2046328E0],"tree_param":{"num_deleted":"0","num_feature":"46","num_nodes":"11","size_leaf_vector":"1"}},{"base_weights":[9.970186E-2,6.388023E-1,-2.9317874E-1,8.494461E-3,7.8156406E-1,-6.387435E-1,-0E0,5.8773246E-2,6.1226356E-1,-6.83799E-3,-8.515453E-1,3.4276012E-1,-3.97357E-2,2.2419369E-2,4.4442758E-2,-5.9414674E-2,-2.3138931E-2,-2.8121779E-2,4.2997014E-2],"categories":[],"categories_nodes":[],"categories_segments":[],"categories_sizes":[],"default_left":[0,0,0,0,0,0,0,0,0,0,0,0,0,0,0,0,0,0,0],"id":14,"left_children":[1,3,5,-1,7,9,11,-1,13,-1,15,17,-1,-1,-1,-1,-1,-1,-1],"loss_changes":[1.8376902E1,2.2192545E0,5.047457E0,0E0,9.409771E-1,2.2351284E0,7.984277E0,0E0,4.447937E-1,0E0,1.3506432E0,1.0049068E1,0E0,0E0,0E0,0E0,0E0,0E0,0E0],"parents":[2147483647,0,0,1,1,2,2,4,4,5,5,6,6,8,8,10,10,11,11],"right_children":[2,4,6,-1,8,10,12,-1,14,-1,16,18,-1,-1,-1,-1,-1,-1,-1],"split_conditions":[-7.391614E-2,1.2909944E0,1E0,8.494461E-3,-5.382685E-1,1.5507464E-2,1.3488044E-1,5.8773246E-2,-1.8937162E-1,-6.83799E-3,2.857143E-1,-4.9581338E-2,-3.97357E-2,2.2419369E-2,4.4442758E-2,-5.9414674E-2,-2.3138931E-2,-2.8121779E-2,4.2997014E-2],"split_indices":[10,22,25,0,11,11,11,0,10,0,12,11,0,0,0,0,0,0,0],"split_type":[0,0,0,0,0,0,0,0,0,0,0,0,0,0,0,0,0,0,0],"sum_hessian":[8.471708E1,3.5556274E1,4.9160805E1,8.973278E0,2.6582998E1,2.1939022E1,2.722178E1,6.026888E0,2.055611E1,7.160504E0,1.4778519E1,1.9368841E1,7.852939E0,1.4781163E1,5.7749467E0,6.679213E0,8.099306E0,6.940447E0,1.2428394E1],"tree_param":{"num_deleted":"0","num_feature":"46","num_nodes":"19","size_leaf_vector":"1"}},{"base_weights":[6.095408E-2,-6.151107E-2,2.3522301E-1,8.203271E-1,1.0716996E-2,2.1175228E-2,5.5820264E-2,-3.028768E-1,2.929021E-1,-3.1053653E-2,1.6882944E-4,7.713027E-3,4.0485147E-2],"categories":[],"categories_nodes":[],"categories_segments":[],"categories_sizes":[],"default_left":[0,0,0,0,0,0,0,0,0,0,0,0,0],"id":15,"left_children":[1,-1,3,5,7,-1,-1,9,11,-1,-1,-1,-1],"loss_changes":[2.0039597E1,0E0,1.0237351E1,1.9190407E0,5.217132E0,0E0,0E0,2.7708342E0,2.0132258E0,0E0,0E0,0E0,0E0],"parents":[2147483647,0,0,2,2,3,3,4,4,7,7,8,8],"right_children":[2,-1,4,6,8,-1,-1,10,12,-1,-1,-1,-1],"split_conditions":[2.38E-1,-6.151107E-2,-2.8257766E-1,1.12E-1,1E0,2.1175228E-2,5.5820264E-2,5.7735026E-1,2E0,-3.1053653E-2,1.6882944E-4,7.713027E-3,4.0485147E-2],"split_indices":[33,0,10,23,25,0,0,34,18,0,0,0,0],"split_type":[0,0,0,0,0,0,0,0,0,0,0,0,0],"sum_hessian":[8.7216354E1,9.582859E0,7.763349E1,2.0668425E1,5.696507E1,1.0014496E1,1.0653928E1,2.6778395E1,3.0186674E1,1.2789109E1,1.3989285E1,2.4977877E1,5.2087984E0],"tree_param":{"num_deleted":"0","num_feature":"46","num_nodes":"13","size_leaf_vector":"1"}},{"base_weights":[-6.7981414E-2,4.3891996E-1,-4.192784E-1,-7.528817E-3,5.780297E-1,-6.753709E-1,-3.5795696E-2,-0E0,7.3664653E-1,-4.1907087E-1,-5.7619687E-2,2.4115788E-2,-3.464062E-1,2.5308842E-2,4.8497893E-2,-4.8829626E-2,8.607296E-3,-3.5626348E-3,-2.9821133E-2],"categories":[],"categories_nodes":[],"categories_segments":[],"categories_sizes":[],"default_left":[0,0,0,0,0,0,0,0,0,0,0,0,0,0,0,0,0,0,0],"id":16,"left_children":[1,3,5,-1,7,9,11,-1,13,15,-1,-1,17,-1,-1,-1,-1,-1,-1],"loss_changes":[1.4940786E1,2.9424133E0,4.7739887E0,0E0,2.6242876E0,2.9686232E0,3.543555E0,0E0,5.515871E-1,7.140211E0,0E0,0E0,8.4507275E-1,0E0,0E0,0E0,0E0,0E0,0E0],"parents":[2147483647,0,0,1,1,2,2,4,4,5,5,6,6,8,8,9,9,12,12],"right_children":[2,4,6,-1,8,10,12,-1,14,16,-1,-1,18,-1,-1,-1,-1,-1,-1],"split_conditions":[-7.391614E-2,3.4290134E1,5.7735026E-1,-7.528817E-3,1.2909944E0,8.4E-2,2.4E-2,-0E0,1.2E-1,4.8E-2,-5.7619687E-2,2.4115788E-2,2E0,2.5308842E-2,4.8497893E-2,-4.8829626E-2,8.607296E-3,-3.5626348E-3,-2.9821133E-2],"split_indices":[10,45,34,0,22,23,23,0,23,23,0,0,26,0,0,0,0,0,0],"split_type":[0,0,0,0,0,0,0,0,0,0,0,0,0,0,0,0,0,0,0],"sum_hessian":[8.18802E1,3.3298416E1,4.8581787E1,6.204543E0,2.7093874E1,2.8516409E1,2.0065376E1,5.959886E0,2.1133987E1,1.9908112E1,8.608298E0,7.192776E0,1.2872601E1,1.2441835E1,8.692153E0,9.997606E0,9.910505E0,6.930388E0,5.9422126E0],"tree_param":{"num_deleted":"0","num_feature":"46","num_nodes":"19","size_leaf_vector":"1"}},{"base_weights":[1.008411E-1,2.8684884E-1,-4.3774094E-2,5.8338795E-2,5.9897435E-1,2.3048745E-2,-7.545804E-2,2.3198634E-1,7.986372E-1,-1.758511E-2,1.1180858E-2,5.7086814E-3,1.4489407E-2,5.433295E-2,1.479493E-2],"categories":[],"categories_nodes":[],"categories_segments":[],"categories_sizes":[],"default_left":[0,0,0,0,0,0,0,0,0,0,0,0,0,0,0],"id":17,"left_children":[1,3,-1,5,7,-1,9,11,13,-1,-1,-1,-1,-1,-1],"loss_changes":[1.5381935E1,4.9701567E0,0E0,2.354184E0,1.8920889E0,0E0,2.7725291E0,8.71855E-3,2.2459574E0,0E0,0E0,0E0,0E0,0E0,0E0],"parents":[2147483647,0,0,1,1,3,3,4,4,6,6,7,7,8,8],"right_children":[2,4,-1,6,8,-1,10,12,14,-1,-1,-1,-1,-1,-1],"split_conditions":[3.5853535E-1,7.5E-1,-4.3774094E-2,3.56E1,5.7735026E-1,2.3048745E-2,1E0,-4.0403798E-1,2E0,-1.758511E-2,1.1180858E-2,5.7086814E-3,1.4489407E-2,5.433295E-2,1.479493E-2],"split_indices":[10,36,0,19,34,0,25,11,26,0,0,0,0,0,0],"split_type":[0,0,0,0,0,0,0,0,0,0,0,0,0,0,0],"sum_hessian":[8.264187E1,7.009591E1,1.2545959E1,4.1338726E1,2.8757183E1,9.887187E0,3.145154E1,1.1070999E1,1.7686184E1,1.6432175E1,1.5019364E1,5.1926174E0,5.878382E0,1.0379385E1,7.3067985E0],"tree_param":{"num_deleted":"0","num_feature":"46","num_nodes":"15","size_leaf_vector":"1"}},{"base_weights":[-6.118267E-2,4.8957747E-1,-4.3136197E-1,5.9636426E-1,-3.106712E-3,-2.8004768E-1,-4.4202007E-2,2.9379246E-1,8.210549E-1,-5.587536E-1,-1.159591E-2,3.215501E-2,-6.6492604E-3,4.9147427E-2,1.9543445E-2,-4.6514593E-2,-2.3025202E-3,-2.4879167E-2,1.3501266E-2],"categories":[],"categories_nodes":[],"categories_segments":[],"categories_sizes":[],"default_left":[0,0,0,0,0,0,0,0,0,0,0,0,0,0,0,0,0,0,0],"id":18,"left_children":[1,3,5,7,-1,9,-1,11,13,15,17,-1,-1,-1,-1,-1,-1,-1,-1],"loss_changes":[1.810172E1,2.1904192E0,3.275632E0,1.6942787E0,0E0,3.0379703E0,0E0,2.3097477E0,6.2973976E-1,3.694861E0,3.2117844E0,0E0,0E0,0E0,0E0,0E0,0E0,0E0,0E0],"parents":[2147483647,0,0,1,1,2,2,3,3,5,5,7,7,8,8,9,9,10,10],"right_children":[2,4,6,8,-1,10,-1,12,14,16,18,-1,-1,-1,-1,-1,-1,-1,-1],"split_conditions":[0E0,3E0,3.5853535E-1,5.7735026E-1,-3.106712E-3,1E0,-4.4202007E-2,8E-2,-2.1110357E-1,3.3E0,-2.8336165E-2,3.215501E-2,-6.6492604E-3,4.9147427E-2,1.9543445E-2,-4.6514593E-2,-2.3025202E-3,-2.4879167E-2,1.3501266E-2],"split_indices":[12,26,10,34,0,25,0,23,10,44,11,0,0,0,0,0,0,0,0],"split_type":[0,0,0,0,0,0,0,0,0,0,0,0,0,0,0,0,0,0,0],"sum_hessian":[8.677888E1,3.464326E1,5.2135616E1,2.9109316E1,5.533946E0,4.045312E1,1.1682494E1,1.3577818E1,1.5531498E1,1.9134174E1,2.1318947E1,7.316704E0,6.2611146E0,1.0182195E1,5.3493032E0,1.0509079E1,8.625094E0,7.670453E0,1.3648495E1],"tree_param":{"num_deleted":"0","num_feature":"46","num_nodes":"19","size_leaf_vector":"1"}},{"base_weights":[4.5315173E-2,5.15345E-1,-2.741396E-1,2.0423472E-1,7.9893297E-1,-1.3249643E-1,-4.047397E-2,2.5204415E-2,-0E0,5.2844744E-2,1.5743883E-2,-3.1927723E-2,-7.7633774E-3,-1.8763497E-2,1.8247219E-2,1.8775005E-2,-1.1040524E-2],"categories":[],"categories_nodes":[],"categories_segments":[],"categories_sizes":[],"default_left":[0,0,0,0,0,0,0,0,0,0,0,0,0,0,0,0,0],"id":19,"left_children":[1,3,5,7,9,11,-1,-1,13,-1,-1,-1,15,-1,-1,-1,-1],"loss_changes":[1.2919061E1,2.8105965E0,3.6729274E0,1.1592586E0,1.7422009E0,2.5656238E0,0E0,0E0,1.7251146E0,0E0,0E0,0E0,2.897823E0,0E0,0E0,0E0,0E0],"parents":[2147483647,0,0,1,1,2,2,3,3,4,4,5,5,8,8,12,12],"right_children":[2,4,6,8,10,12,-1,-1,14,-1,-1,-1,16,-1,-1,-1,-1],"split_conditions":[-1.6666667E-1,5.7735026E-1,3.7760562E-1,-3.7019116E-1,2E0,-7.8947365E-2,-4.047397E-2,2.5204415E-2,-2.125152E-1,5.2844744E-2,1.5743883E-2,-3.1927723E-2,2.5668576E-2,-1.8763497E-2,1.8247219E-2,1.8775005E-2,-1.1040524E-2],"split_indices":[11,34,10,10,26,11,0,0,10,0,0,0,11,0,0,0,0],"split_type":[0,0,0,0,0,0,0,0,0,0,0,0,0,0,0,0,0],"sum_hessian":[8.393764E1,3.3842827E1,5.009481E1,1.712674E1,1.6716087E1,4.074782E1,9.34699E0,6.5376635E0,1.0589076E1,9.997977E0,6.71811E0,7.084404E0,3.3663418E1,5.3385024E0,5.2505736E0,1.1586983E1,2.2076435E1],"tree_param":{"num_deleted":"0","num_feature":"46","num_nodes":"17","size_leaf_vector":"1"}},{"base_weights":[6.0949944E-2,5.59171E-1,-2.887E-1,-0E0,6.79706E-1,-1.4754857E-1,-3.7884396E-2,5.2682483E-1,4.5722757E-2,-4.3184847E-1,8.401795E-2,4.3081336E-2,1.7368756E-2,-4.078388E-2,1.5887622E-3,-2.319335E-2,1.688183E-2],"categories":[],"categories_nodes":[],"categories_segments":[],"categories_sizes":[],"default_left":[0,0,0,0,0,0,0,0,0,0,0,0,0,0,0,0,0],"id":20,"left_children":[1,3,5,-1,7,9,-1,11,-1,13,15,-1,-1,-1,-1,-1,-1],"loss_changes":[1.5310093E1,2.4143333E0,3.2101474E0,0E0,4.4226265E-1,2.7722054E0,0E0,8.199296E-1,0E0,3.4452405E0,3.3753703E0,0E0,0E0,0E0,0E0,0E0,0E0],"parents":[2147483647,0,0,1,1,2,2,4,4,5,5,7,7,9,9,10,10],"right_children":[2,4,6,-1,8,10,-1,12,-1,14,16,-1,-1,-1,-1,-1,-1],"split_conditions":[-6.815041E-2,3.3971542E1,3.7760562E-1,-0E0,3.3E0,1E0,-3.7884396E-2,-3.9280024E-1,4.5722757E-2,3.3E0,-2.8336165E-2,4.3081336E-2,1.7368756E-2,-4.078388E-2,1.5887622E-3,-2.319335E-2,1.688183E-2],"split_indices":[10,45,10,0,44,25,0,10,0,44,11,0,0,0,0,0,0],"split_type":[0,0,0,0,0,0,0,0,0,0,0,0,0,0,0,0,0],"sum_hessian":[8.580455E1,3.52554E1,5.054915E1,6.4926615E0,2.8762741E1,4.002934E1,1.0519807E1,1.9641403E1,9.121337E0,1.7774317E1,2.2255024E1,5.33293E0,1.4308474E1,9.426533E0,8.347784E0,6.655042E0,1.5599981E1],"tree_param":{"num_deleted":"0","num_feature":"46","num_nodes":"17","size_leaf_vector":"1"}},{"base_weights":[-4.0309925E-2,4.3827498E-1,-3.8892624E-1,1.7270376E-1,6.860561E-1,-5.5853355E-1,-3.2142185E-2,2.2613604E-2,-2.7044415E-2,4.7619876E-2,1.1909458E-2,-7.846664E-1,-3.2029653E-1,2.1401709E-2,-3.1282705E-1,-1.5376868E-2,1.2515821E-2,-5.1883485E-2,-7.827301E-3,-5.114701E-2,2.2990175E-3,-2.7501816E-2,-1.0431933E-3],"categories":[],"categories_nodes":[],"categories_segments":[],"categories_sizes":[],"default_left":[0,0,0,0,0,0,0,0,0,0,0,0,0,0,0,0,0,0,0,0,0,0,0],"id":21,"left_children":[1,3,5,7,9,11,13,-1,15,-1,-1,17,19,-1,21,-1,-1,-1,-1,-1,-1,-1,-1],"loss_changes":[1.4538227E1,2.207633E0,2.9783454E0,1.128247E0,1.8526564E0,1.4683208E0,2.3852897E0,0E0,1.0121711E0,0E0,0E0,2.3439627E0,4.8925495E0,0E0,7.344477E-1,0E0,0E0,0E0,0E0,0E0,0E0,0E0,0E0],"parents":[2147483647,0,0,1,1,2,2,3,3,4,4,5,5,6,6,8,8,11,11,12,12,14,14],"right_children":[2,4,6,8,10,12,14,-1,16,-1,-1,18,20,-1,22,-1,-1,-1,-1,-1,-1,-1,-1],"split_conditions":[-6.05542E-2,5.7735026E-1,3.3E0,-3.7019116E-1,-2.0840812E-1,1E0,9.756097E-2,2.2613604E-2,-2.0231259E-1,4.7619876E-2,1.1909458E-2,3.6221786E1,1.7E0,2.1401709E-2,3.6621044E1,-1.5376868E-2,1.2515821E-2,-5.1883485E-2,-7.827301E-3,-5.114701E-2,2.2990175E-3,-2.7501816E-2,-1.0431933E-3],"split_indices":[10,34,44,10,10,25,12,0,10,0,0,45,44,0,45,0,0,0,0,0,0,0,0],"split_type":[0,0,0,0,0,0,0,0,0,0,0,0,0,0,0,0,0,0,0,0,0,0,0],"sum_hessian":[8.514535E1,3.5654446E1,4.9490906E1,1.8223318E1,1.7431126E1,3.2971317E1,1.6519588E1,7.276092E0,1.0947227E1,1.0084305E1,7.346821E0,1.5523313E1,1.7448004E1,5.9247932E0,1.0594796E1,5.5680456E0,5.379181E0,1.04877E1,5.0356126E0,5.4579706E0,1.1990033E1,5.1688576E0,5.4259386E0],"tree_param":{"num_deleted":"0","num_feature":"46","num_nodes":"23","size_leaf_vector":"1"}},{"base_weights":[2.7979854E-2,5.7193315E-1,-2.929293E-1,6.7437243E-1,4.2062043E-3,-3.781877E-2,-1.4723822E-1,1.4418303E-2,4.4688504E-2,1.4367147E-1,-3.915304E-1,2.7081463E-2,-5.935838E-3,6.52682E-3,-3.3570033E-2],"categories":[],"categories_nodes":[],"categories_segments":[],"categories_sizes":[],"default_left":[0,0,0,0,0,0,0,0,0,0,0,0,0,0,0],"id":22,"left_children":[1,3,5,7,-1,-1,9,-1,-1,11,13,-1,-1,-1,-1],"loss_changes":[1.47817745E1,1.4394875E0,3.3836527E0,1.7995329E0,0E0,0E0,3.052094E0,0E0,0E0,2.1560533E0,3.5284684E0,0E0,0E0,0E0,0E0],"parents":[2147483647,0,0,1,1,2,2,3,3,6,6,9,9,10,10],"right_children":[2,4,6,8,-1,-1,10,-1,-1,12,14,-1,-1,-1,-1],"split_conditions":[0E0,3E0,2.78E-1,2.1650635E-1,4.2062043E-3,-3.781877E-2,3.4748795E1,1.4418303E-2,4.4688504E-2,3.56E1,4.4E-1,2.7081463E-2,-5.935838E-3,6.52682E-3,-3.3570033E-2],"split_indices":[12,26,33,35,0,0,45,0,0,20,33,0,0,0,0],"split_type":[0,0,0,0,0,0,0,0,0,0,0,0,0,0,0],"sum_hessian":[8.25608E1,3.0459745E1,5.210105E1,2.4687876E1,5.77187E0,1.1294619E1,4.080643E1,9.950753E0,1.4737122E1,1.8627201E1,2.2179232E1,7.130076E0,1.1497125E1,7.8019104E0,1.4377321E1],"tree_param":{"num_deleted":"0","num_feature":"46","num_nodes":"15","size_leaf_vector":"1"}},{"base_weights":[2.7691176E-2,1.5811823E-1,-4.4316154E-2,5.539463E-1,-2.4305115E-2,1.4496992E-2,3.1872176E-2,1.8022609E-1,-2.8581378E-1,-5.8381576E-3,2.217989E-2,-2.7861133E-2,-7.645268E-3],"categories":[],"categories_nodes":[],"categories_segments":[],"categories_sizes":[],"default_left":[0,0,0,0,0,0,0,0,0,0,0,0,0],"id":23,"left_children":[1,3,-1,5,7,-1,-1,9,11,-1,-1,-1,-1],"loss_changes":[1.0327724E1,5.5733747E0,0E0,2.5754404E-1,2.8963416E0,0E0,0E0,2.4414458E0,7.043725E-1,0E0,0E0,0E0,0E0],"parents":[2147483647,0,0,1,1,3,3,4,4,7,7,8,8],"right_children":[2,4,-1,6,8,-1,-1,10,12,-1,-1,-1,-1],"split_conditions":[3.7760562E-1,-2.7744278E-1,-4.4316154E-2,3.5666668E1,8.4E-2,1.4496992E-2,3.1872176E-2,1E0,1.2E-1,-5.8381576E-3,2.217989E-2,-2.7861133E-2,-7.645268E-3],"split_indices":[10,11,0,19,23,0,0,25,23,0,0,0,0],"split_type":[0,0,0,0,0,0,0,0,0,0,0,0,0],"sum_hessian":[8.506839E1,7.5264755E1,9.8036375E0,2.327452E1,5.1990234E1,6.954728E0,1.6319792E1,2.9133085E1,2.285715E1,1.3775833E1,1.5357252E1,6.2168827E0,1.6640266E1],"tree_param":{"num_deleted":"0","num_feature":"46","num_nodes":"13","size_leaf_vector":"1"}},{"base_weights":[-4.6494375E-3,4.6625838E-1,-2.9950368E-1,9.2660415E-4,5.8996385E-1,-4.134779E-1,1.689587E-2,2.7974433E-1,3.932114E-2,-5.149568E-1,9.450604E-3,-1.6201886E-3,2.6700938E-2,-4.9045106E-4,-3.308816E-2],"categories":[],"categories_nodes":[],"categories_segments":[],"categories_sizes":[],"default_left":[0,0,0,0,0,0,0,0,0,0,0,0,0,0,0],"id":24,"left_children":[1,3,5,-1,7,9,-1,11,-1,13,-1,-1,-1,-1,-1],"loss_changes":[1.2077396E1,1.7787647E0,4.047454E0,0E0,1.2562122E0,2.9499784E0,0E0,1.0055963E0,0E0,2.8842592E0,0E0,0E0,0E0,0E0,0E0],"parents":[2147483647,0,0,1,1,2,2,4,4,5,5,7,7,9,9],"right_children":[2,4,6,-1,8,10,-1,12,-1,14,-1,-1,-1,-1,-1],"split_conditions":[0E0,3.4290134E1,2.3E0,9.2660415E-4,3E0,3.72E1,1.689587E-2,2.7216554E-1,3.932114E-2,3.35E1,9.450604E-3,-1.6201886E-3,2.6700938E-2,-4.9045106E-4,-3.308816E-2],"split_indices":[12,45,18,0,44,45,0,35,0,45,0,0,0,0,0],"split_type":[0,0,0,0,0,0,0,0,0,0,0,0,0,0,0],"sum_hessian":[8.509649E1,3.241171E1,5.268478E1,7.4405084E0,2.4971199E1,4.5124493E1,7.5602865E0,1.0819523E1,1.4151677E1,3.8886078E1,6.238413E0,5.0721827E0,5.7473397E0,9.149939E0,2.9736141E1],"tree_param":{"num_deleted":"0","num_feature":"46","num_nodes":"15","size_leaf_vector":"1"}},{"base_weights":[-9.750013E-3,4.7613525E-1,-2.0880075E-1,3.730581E-2,2.7432317E-1,-4.324185E-2,-5.7316244E-1,-8.907177E-3,2.7560934E-2,2.5861705E-2,-1.567897E-1,-8.5793984E-1,8.091583E-3,-2.2975814E-2,8.351781E-3,-1.5595182E-2,-5.662292E-2],"categories":[],"categories_nodes":[],"categories_segments":[],"categories_sizes":[],"default_left":[0,0,0,0,0,0,0,0,0,0,0,0,0,0,0,0,0],"id":25,"left_children":[1,3,5,-1,7,9,11,-1,-1,-1,13,15,-1,-1,-1,-1,-1],"loss_changes":[8.305219E0,1.0497484E0,3.606862E0,0E0,2.1450922E0,2.8049755E0,4.1555505E0,0E0,0E0,0E0,3.7308955E0,1.578167E0,0E0,0E0,0E0,0E0,0E0],"parents":[2147483647,0,0,1,1,2,2,4,4,5,5,6,6,10,10,11,11],"right_children":[2,4,6,-1,8,10,12,-1,-1,-1,14,16,-1,-1,-1,-1,-1],"split_conditions":[-2.7744278E-1,-4.529956E-1,2.5E-1,3.730581E-2,-3.8274074E-1,3.4E1,3.6490685E1,-8.907177E-3,2.7560934E-2,2.5861705E-2,1E0,3.349842E1,8.091583E-3,-2.2975814E-2,8.351781E-3,-1.5595182E-2,-5.662292E-2],"split_indices":[11,11,10,0,11,21,45,0,0,0,25,45,0,0,0,0,0],"split_type":[0,0,0,0,0,0,0,0,0,0,0,0,0,0,0,0,0],"sum_hessian":[8.412088E1,2.3896011E1,6.0224865E1,8.856002E0,1.50400095E1,4.2367172E1,1.7857693E1,5.7080874E0,9.331923E0,6.390004E0,3.597717E1,1.2848323E1,5.0093703E0,1.8537374E1,1.7439793E1,5.1349707E0,7.7133517E0],"tree_param":{"num_deleted":"0","num_feature":"46","num_nodes":"17","size_leaf_vector":"1"}},{"base_weights":[-5.8575287E-2,3.6776415E-1,-2.5719714E-1,9.0106376E-2,3.233839E-2,-3.6122944E-2,-1.6112758E-1,2.199136E-2,-6.8341154E-3,7.8752125E-3,-2.526019E-1,-3.760936E-2,-4.9764025E-3],"categories":[],"categories_nodes":[],"categories_segments":[],"categories_sizes":[],"default_left":[0,0,0,0,0,0,0,0,0,0,0,0,0],"id":26,"left_children":[1,3,5,7,-1,-1,9,-1,-1,-1,11,-1,-1],"loss_changes":[6.9528775E0,1.884743E0,2.302225E0,1.231698E0,0E0,0E0,1.4469912E0,0E0,0E0,0E0,2.737214E0,0E0,0E0],"parents":[2147483647,0,0,1,1,2,2,3,3,6,6,10,10],"right_children":[2,4,6,8,-1,-1,10,-1,-1,-1,12,-1,-1],"split_conditions":[-1.0714286E-1,5.7735026E-1,2.38E-1,3.4851322E1,3.233839E-2,-3.6122944E-2,3.5333332E1,2.199136E-2,-6.8341154E-3,7.8752125E-3,3.4446278E1,-3.760936E-2,-4.9764025E-3],"split_indices":[12,34,33,45,0,0,20,0,0,0,45,0,0],"split_type":[0,0,0,0,0,0,0,0,0,0,0,0,0],"sum_hessian":[8.012092E1,2.503295E1,5.508797E1,1.3389456E1,1.1643493E1,8.134036E0,4.6953938E1,5.0711026E0,8.318354E0,1.0068245E1,3.6885693E1,7.5799465E0,2.9305744E1],"tree_param":{"num_deleted":"0","num_feature":"46","num_nodes":"13","size_leaf_vector":"1"}},{"base_weights":[-3.6684908E-2,3.4628874E-1,-5.0859904E-1,6.2831706E-1,1.4225444E-1,-7.2338593E-1,-1.2441533E-1,1.9200303E-2,4.1068897E-2,-1.779276E-2,3.5817024E-1,-1.6421525E-2,-8.923299E-1,2.5428052E-3,-1.6456401E-2,2.7021287E-2,-1.7901248E-3,-5.4746836E-2,-2.496758E-2],"categories":[],"categories_nodes":[],"categories_segments":[],"categories_sizes":[],"default_left":[0,0,0,0,0,0,0,0,0,0,0,0,0,0,0,0,0,0,0],"id":27,"left_children":[1,3,5,7,9,11,13,-1,-1,-1,15,-1,17,-1,-1,-1,-1,-1,-1],"loss_changes":[1.529772E1,2.5159712E0,2.957924E0,4.6348763E-1,3.1978092E0,1.1846437E0,5.8235097E-1,0E0,0E0,0E0,1.5455475E0,0E0,5.703497E-1,0E0,0E0,0E0,0E0,0E0,0E0],"parents":[2147483647,0,0,1,1,2,2,3,3,4,4,5,5,6,6,10,10,12,12],"right_children":[2,4,6,8,10,12,14,-1,-1,-1,16,-1,18,-1,-1,-1,-1,-1,-1],"split_conditions":[9.756097E-2,-2.798932E-1,3.72E1,1.12E-1,-1.7322442E-1,4.3003637E-2,4.39E-1,1.9200303E-2,4.1068897E-2,-1.779276E-2,3E-1,-1.6421525E-2,1.2E-1,2.5428052E-3,-1.6456401E-2,2.7021287E-2,-1.7901248E-3,-5.4746836E-2,-2.496758E-2],"split_indices":[12,10,19,23,10,11,33,0,0,0,35,0,23,0,0,0,0,0,0],"split_type":[0,0,0,0,0,0,0,0,0,0,0,0,0,0,0,0,0,0,0],"sum_hessian":[8.257943E1,4.561537E1,3.6964058E1,1.8069315E1,2.7546059E1,2.2975729E1,1.3988329E1,9.524034E0,8.545281E0,7.9936786E0,1.955238E1,7.9428787E0,1.503285E1,7.677808E0,6.3105206E0,1.3287534E1,6.2648454E0,8.572452E0,6.460399E0],"tree_param":{"num_deleted":"0","num_feature":"46","num_nodes":"19","size_leaf_vector":"1"}},{"base_weights":[-2.7499516E-2,3.6925587E-1,-3.1448936E-1,4.8171842E-1,-7.439647E-3,-4.7838378E-1,2.3361314E-2,1.9364046E-1,7.603108E-1,-7.6105374E-1,-2.0888638E-1,1.7656712E-2,-2.3291733E-2,2.5926402E-2,-3.0166184E-4,2.2006495E-2,4.8783343E-2,-6.1842192E-2,-2.7185776E-3,1.4128794E-2,-3.366417E-2],"categories":[],"categories_nodes":[],"categories_segments":[],"categories_sizes":[],"default_left":[0,0,0,0,0,0,0,0,0,0,0,0,0,0,0,0,0,0,0,0,0],"id":28,"left_children":[1,3,5,7,-1,9,11,13,15,17,19,-1,-1,-1,-1,-1,-1,-1,-1,-1,-1],"loss_changes":[9.247889E0,2.0855951E0,2.673037E0,2.0307631E0,0E0,2.186491E0,2.7648222E0,1.0562785E0,3.8621616E-1,4.877123E0,4.331353E0,0E0,0E0,0E0,0E0,0E0,0E0,0E0,0E0,0E0,0E0],"parents":[2147483647,0,0,1,1,2,2,3,3,5,5,6,6,7,7,8,8,9,9,10,10],"right_children":[2,4,6,8,-1,10,12,14,16,18,20,-1,-1,-1,-1,-1,-1,-1,-1,-1,-1],"split_conditions":[-6.05542E-2,3E0,3.3E0,3.5812702E1,-7.439647E-3,1E0,1.4E-1,-2.5E-1,3E0,3.7E1,3.533904E1,1.7656712E-2,-2.3291733E-2,2.5926402E-2,-3.0166184E-4,2.2006495E-2,4.8783343E-2,-6.1842192E-2,-2.7185776E-3,1.4128794E-2,-3.366417E-2],"split_indices":[10,26,44,45,0,25,23,12,44,19,45,0,0,0,0,0,0,0,0,0,0],"split_type":[0,0,0,0,0,0,0,0,0,0,0,0,0,0,0,0,0,0,0,0,0],"sum_hessian":[7.92464E1,3.299569E1,4.625071E1,2.7326563E1,5.6691265E0,3.1062187E1,1.5188521E1,1.4444387E1,1.2882176E1,1.4089248E1,1.697294E1,9.3608265E0,5.827696E0,5.081026E0,9.363361E0,6.591029E0,6.291147E0,7.8872533E0,6.2019944E0,8.331775E0,8.641166E0],"tree_param":{"num_deleted":"0","num_feature":"46","num_nodes":"21","size_leaf_vector":"1"}},{"base_weights":[-2.607127E-2,1.2502427E-1,-5.6391305E-1,-1.082588E-1,3.5856947E-1,-8.992922E-1,8.824174E-3,6.6184014E-2,-2.6954968E-2,5.5452883E-1,-2.123432E-2,-2.5893793E-2,-5.3307343E-2,-2.2199398E-2,2.1472467E-2,3.8043264E-2,4.4589005E-3],"categories":[],"categories_nodes":[],"categories_segments":[],"categories_sizes":[],"default_left":[0,0,0,0,0,0,0,0,0,0,0,0,0,0,0,0,0],"id":29,"left_children":[1,3,5,7,9,11,-1,13,-1,15,-1,-1,-1,-1,-1,-1,-1],"loss_changes":[6.7990675E0,3.5992074E0,4.791771E0,2.564447E0,5.2940426E0,1.1030865E-1,0E0,4.6791687E0,0E0,2.423359E0,0E0,0E0,0E0,0E0,0E0,0E0,0E0],"parents":[2147483647,0,0,1,1,2,2,3,3,4,4,5,5,7,7,9,9],"right_children":[2,4,6,8,10,12,-1,14,-1,16,-1,-1,-1,-1,-1,-1,-1],"split_conditions":[2.134265E-1,5.7735026E-1,3.6490685E1,3.6845745E1,2.3113215E-2,3.387292E1,8.824174E-3,3.457546E1,-2.6954968E-2,2E0,-2.123432E-2,-2.5893793E-2,-5.3307343E-2,-2.2199398E-2,2.1472467E-2,3.8043264E-2,4.4589005E-3],"split_indices":[10,34,45,45,11,45,0,45,0,26,0,0,0,0,0,0,0],"split_type":[0,0,0,0,0,0,0,0,0,0,0,0,0,0,0,0,0],"sum_hessian":[8.125724E1,6.3890217E1,1.736702E1,3.2017212E1,3.1873005E1,1.1898006E1,5.469013E0,2.3227087E1,8.790125E0,2.5830322E1,6.0426826E0,5.052188E0,6.845819E0,9.453309E0,1.3773778E1,1.7306637E1,8.523685E0],"tree_param":{"num_deleted":"0","num_feature":"46","num_nodes":"17","size_leaf_vector":"1"}},{"base_weights":[-9.396849E-3,-4.0384214E-2,1.1579258E-1,4.946628E-1,-4.707863E-2,3.6919717E-4,6.34582E-1,-1.352012E-1,2.4071943E-2,1.4293248E-2,4.4777956E-2,-1.3158415E-2,1.3769313E-2],"categories":[],"categories_nodes":[],"categories_segments":[],"categories_sizes":[],"default_left":[0,0,0,0,0,0,0,0,0,0,0,0,0],"id":30,"left_children":[1,-1,3,5,7,-1,9,11,-1,-1,-1,-1,-1],"loss_changes":[8.340773E0,0E0,4.4804068E0,1.4153214E0,2.3934593E0,0E0,1.1494393E0,2.4055886E0,0E0,0E0,0E0,0E0,0E0],"parents":[2147483647,0,0,2,2,3,3,4,4,6,6,7,7],"right_children":[2,-1,4,6,8,-1,10,12,-1,-1,-1,-1,-1],"split_conditions":[2.78E-1,-4.0384214E-2,-2.7744278E-1,3.4373516E1,3.727436E1,3.6919717E-4,2.5E0,2.3E0,2.4071943E-2,1.4293248E-2,4.4777956E-2,-1.3158415E-2,1.3769313E-2],"split_indices":[33,0,11,45,45,0,44,18,0,0,0,0,0],"split_type":[0,0,0,0,0,0,0,0,0,0,0,0,0],"sum_hessian":[8.083204E1,1.0327084E1,7.050495E1,2.0769014E1,4.973594E1,5.0275774E0,1.5741438E1,4.34283E1,6.3076386E0,7.7989883E0,7.942449E0,3.3568623E1,9.859677E0],"tree_param":{"num_deleted":"0","num_feature":"46","num_nodes":"13","size_leaf_vector":"1"}},{"base_weights":[4.737463E-2,2.8281832E-1,-2.3755938E-1,3.876275E-2,1.8689296E-1,-4.0740874E-1,-1.986419E-2,2.882904E-1,-5.873795E-3,-1.5847084E-1,-3.9022844E-2,-1.9954715E-2,2.084693E-2,6.0439636E-3,3.3782233E-2,7.815483E-3,-1.9194607E-2],"categories":[],"categories_nodes":[],"categories_segments":[],"categories_sizes":[],"default_left":[0,0,0,0,0,0,0,0,0,0,0,0,0,0,0,0,0],"id":31,"left_children":[1,3,5,-1,7,9,11,13,-1,15,-1,-1,-1,-1,-1,-1,-1],"loss_changes":[5.564828E0,1.9073958E0,1.3320062E0,0E0,1.2717158E0,1.7046185E0,3.0965924E0,1.7975092E0,0E0,1.0641118E0,0E0,0E0,0E0,0E0,0E0,0E0,0E0],"parents":[2147483647,0,0,1,1,2,2,4,4,5,5,6,6,7,7,9,9],"right_children":[2,4,6,-1,8,10,12,14,-1,16,-1,-1,-1,-1,-1,-1,-1],"split_conditions":[9.756097E-2,-5.382685E-1,2.5E0,3.876275E-2,3.72E1,4.52E-1,1E0,7E-1,-5.873795E-3,1E0,-3.9022844E-2,-1.9954715E-2,2.084693E-2,6.0439636E-3,3.3782233E-2,7.815483E-3,-1.9194607E-2],"split_indices":[12,11,44,0,19,33,25,18,0,25,0,0,0,0,0,0,0],"split_type":[0,0,0,0,0,0,0,0,0,0,0,0,0,0,0,0,0],"sum_hessian":[8.088182E1,4.4483265E1,3.639856E1,5.927886E0,3.8555378E1,1.9698582E1,1.6699978E1,2.9206799E1,9.348579E0,1.2829932E1,6.8686495E0,9.10785E0,7.5921273E0,2.1489464E1,7.7173343E0,5.296634E0,7.5332975E0],"tree_param":{"num_deleted":"0","num_feature":"46","num_nodes":"17","size_leaf_vector":"1"}},{"base_weights":[1.28600225E-2,3.08583E-1,-1.8631156E-1,-7.6783E-3,4.4624183E-1,4.925333E-3,-4.4056278E-1,-5.521452E-3,6.0106605E-1,-2.303776E-2,2.0679739E-1,-8.211171E-3,-3.345796E-2,2.0535713E-2,4.1727703E-2,-9.376722E-3,1.810923E-2],"categories":[],"categories_nodes":[],"categories_segments":[],"categories_sizes":[],"default_left":[0,0,0,0,0,0,0,0,0,0,0,0,0,0,0,0,0],"id":32,"left_children":[1,3,5,-1,7,9,11,-1,13,-1,15,-1,-1,-1,-1,-1,-1],"loss_changes":[4.75421E0,2.170943E0,2.3769982E0,0E0,2.3158436E0,2.71421E0,1.1218314E0,0E0,4.3365192E-1,0E0,1.3392054E0,0E0,0E0,0E0,0E0,0E0,0E0],"parents":[2147483647,0,0,1,1,2,2,4,4,5,5,6,6,8,8,10,10],"right_children":[2,4,6,-1,8,10,12,-1,14,-1,16,-1,-1,-1,-1,-1,-1],"split_conditions":[-9.264219E-2,3.4290134E1,8.4E-2,-7.6783E-3,1.2909944E0,1.7E0,3.4716393E1,-5.521452E-3,3.3E0,-2.303776E-2,2.2017369E-1,-8.211171E-3,-3.345796E-2,2.0535713E-2,4.1727703E-2,-9.376722E-3,1.810923E-2],"split_indices":[10,45,23,0,22,44,45,0,44,0,35,0,0,0,0,0,0],"split_type":[0,0,0,0,0,0,0,0,0,0,0,0,0,0,0,0,0],"sum_hessian":[7.853346E1,3.1586977E1,4.6946487E1,7.0561256E0,2.4530851E1,2.712873E1,1.9817755E1,5.2598605E0,1.9270992E1,7.666287E0,1.9462444E1,9.947974E0,9.8697815E0,1.2372005E1,6.898986E0,5.2609925E0,1.4201452E1],"tree_param":{"num_deleted":"0","num_feature":"46","num_nodes":"17","size_leaf_vector":"1"}},{"base_weights":[-2.2079486E-2,3.7710324E-1,-2.1304214E-1,1.5068263E-1,3.360488E-2,-2.1316862E-2,-4.4582435E-1,2.2783637E-2,-4.244849E-3,-4.3187997E-1,3.5047328E-1,5.472747E-3,-6.336072E-1,-3.7431564E-2,-3.0865006E-3,1.21699086E-4,2.868262E-2,-1.9957075E-2,-4.432974E-2],"categories":[],"categories_nodes":[],"categories_segments":[],"categories_sizes":[],"default_left":[0,0,0,0,0,0,0,0,0,0,0,0,0,0,0,0,0,0,0],"id":33,"left_children":[1,3,5,7,-1,9,11,-1,-1,13,15,-1,17,-1,-1,-1,-1,-1,-1],"loss_changes":[6.104958E0,1.5420544E0,2.3722558E0,1.2323399E0,0E0,4.910329E0,2.654478E0,0E0,0E0,1.6743932E0,1.24262E0,0E0,6.1094093E-1,0E0,0E0,0E0,0E0,0E0,0E0],"parents":[2147483647,0,0,1,1,2,2,3,3,5,5,6,6,9,9,10,10,12,12],"right_children":[2,4,6,8,-1,10,12,-1,-1,14,16,-1,18,-1,-1,-1,-1,-1,-1],"split_conditions":[-1.0714286E-1,5.7735026E-1,8.4E-2,3.5227764E1,3.360488E-2,2.1E0,3.3466217E1,2.2783637E-2,-4.244849E-3,4.8E-2,1E0,5.472747E-3,1.14308104E-1,-3.7431564E-2,-3.0865006E-3,1.21699086E-4,2.868262E-2,-1.9957075E-2,-4.432974E-2],"split_indices":[12,34,23,45,0,44,45,0,0,23,25,0,10,0,0,0,0,0,0],"split_type":[0,0,0,0,0,0,0,0,0,0,0,0,0,0,0,0,0,0,0],"sum_hessian":[7.824839E1,2.4835203E1,5.341319E1,1.509723E1,9.737973E0,3.0123707E1,2.3289482E1,6.357194E0,8.740036E0,1.4366409E1,1.57572975E1,5.8564334E0,1.743305E1,7.045037E0,7.321373E0,6.726521E0,9.030776E0,1.0590705E1,6.8423448E0],"tree_param":{"num_deleted":"0","num_feature":"46","num_nodes":"19","size_leaf_vector":"1"}},{"base_weights":[-6.0481865E-2,8.19968E-2,-6.3623655E-1,4.6188638E-1,-5.118526E-2,-4.3626856E-2,-5.882748E-3,3.4117907E-2,9.362832E-3,-2.9622242E-1,2.0565233E-1,-2.8367966E-2,5.838446E-3,-1.8607298E-2,2.0134753E-2],"categories":[],"categories_nodes":[],"categories_segments":[],"categories_sizes":[],"default_left":[0,0,0,0,0,0,0,0,0,0,0,0,0,0,0],"id":34,"left_children":[1,3,5,7,9,-1,-1,-1,-1,11,13,-1,-1,-1,-1],"loss_changes":[6.3244414E0,3.176161E0,1.6716256E0,7.6966214E-1,2.9800577E0,0E0,0E0,0E0,0E0,2.8292706E0,2.7677543E0,0E0,0E0,0E0,0E0],"parents":[2147483647,0,0,1,1,2,2,3,3,4,4,9,9,10,10],"right_children":[2,4,6,8,10,-1,-1,-1,-1,12,14,-1,-1,-1,-1],"split_conditions":[2.5E-1,-2.8915307E-1,3.6150932E1,1E0,1E0,-4.3626856E-2,-5.882748E-3,3.4117907E-2,9.362832E-3,3.3E0,3.4446278E1,-2.8367966E-2,5.838446E-3,-1.8607298E-2,2.0134753E-2],"split_indices":[10,10,45,25,25,0,0,0,0,44,45,0,0,0,0],"split_type":[0,0,0,0,0,0,0,0,0,0,0,0,0,0,0],"sum_hessian":[7.478494E1,6.04978E1,1.428714E1,1.5258137E1,4.5239662E1,9.213481E0,5.073659E0,7.4380903E0,7.820046E0,2.327246E1,2.1967201E1,1.3969541E1,9.30292E0,5.231234E0,1.6735968E1],"tree_param":{"num_deleted":"0","num_feature":"46","num_nodes":"15","size_leaf_vector":"1"}},{"base_weights":[-1.1786302E-2,4.0589243E-1,-1.6567096E-1,3.5484314E-2,2.6154175E-1,-3.7045665E-2,-6.841754E-2,-7.3738284E-3,2.4685133E-2,1.657198E-2,-1.4877671E-1,-1.0936598E-2,1.5786543E-2],"categories":[],"categories_nodes":[],"categories_segments":[],"categories_sizes":[],"default_left":[0,0,0,0,0,0,0,0,0,0,0,0,0],"id":35,"left_children":[1,3,5,-1,7,-1,9,-1,-1,-1,11,-1,-1],"loss_changes":[5.2885003E0,6.858208E-1,3.2541866E0,0E0,1.700736E0,0E0,1.7346692E0,0E0,0E0,0E0,1.5231017E0,0E0,0E0],"parents":[2147483647,0,0,1,1,2,2,4,4,6,6,10,10],"right_children":[2,4,6,-1,8,-1,10,-1,-1,-1,12,-1,-1],"split_conditions":[-2.8600907E-1,-5.382685E-1,2.38E-1,3.5484314E-2,-4.0403798E-1,-3.7045665E-2,4E-1,-7.3738284E-3,2.4685133E-2,1.657198E-2,3.3E0,-1.0936598E-2,1.5786543E-2],"split_indices":[11,11,33,0,11,0,36,0,0,0,18,0,0],"split_type":[0,0,0,0,0,0,0,0,0,0,0,0,0],"sum_hessian":[8.0607635E1,2.1086498E1,5.9521137E1,5.3074718E0,1.5779027E1,7.5018682E0,5.2019268E1,5.6894503E0,1.0089577E1,7.973792E0,4.4045475E1,3.8927372E1,5.118105E0],"tree_param":{"num_deleted":"0","num_feature":"46","num_nodes":"13","size_leaf_vector":"1"}},{"base_weights":[4.256929E-3,2.0240922E-1,-3.2214904E-1,-0E0,4.8609456E-1,-5.8596295E-1,-6.606186E-2,-1.3371252E-1,2.683636E-2,3.6716048E-2,-0E0,-1.5555555E-2,-3.6001053E-2,-3.0060396E-2,2.2692779E-1,1.979673E-2,-1.9671043E-2,-0E0,2.1782394E-2],"categories":[],"categories_nodes":[],"categories_segments":[],"categories_sizes":[],"default_left":[0,0,0,0,0,0,0,0,0,0,0,0,0,0,0,0,0,0,0],"id":36,"left_children":[1,3,5,7,9,11,13,15,-1,-1,-1,-1,-1,-1,17,-1,-1,-1,-1],"loss_changes":[5.1284904E0,2.8292754E0,1.9118671E0,2.2456884E0,2.5032334E0,2.0263338E-1,2.7546136E0,3.566348E0,0E0,0E0,0E0,0E0,0E0,0E0,5.7027054E-1,0E0,0E0,0E0,0E0],"parents":[2147483647,0,0,1,1,2,2,3,3,4,4,5,5,6,6,7,7,14,14],"right_children":[2,4,6,8,10,12,14,16,-1,-1,-1,-1,-1,-1,18,-1,-1,-1,-1],"split_conditions":[9.7489014E-2,3.3E0,2.2821774E-1,-1.3362695E-2,2E0,3.5666668E1,1.8E0,-3.7019116E-1,2.683636E-2,3.6716048E-2,-0E0,-1.5555555E-2,-3.6001053E-2,-3.0060396E-2,2.309401E-1,1.979673E-2,-1.9671043E-2,-0E0,2.1782394E-2],"split_indices":[10,44,35,11,26,19,44,10,0,0,0,0,0,0,35,0,0,0,0],"split_type":[0,0,0,0,0,0,0,0,0,0,0,0,0,0,0,0,0,0,0],"sum_hessian":[7.746952E1,4.8632366E1,2.8837154E1,2.905286E1,1.9579506E1,1.3377446E1,1.5459708E1,2.379634E1,5.25652E0,1.2660146E1,6.91936E0,5.7189207E0,7.658525E0,5.2181253E0,1.0241582E1,7.5300455E0,1.6266296E1,5.1865993E0,5.054983E0],"tree_param":{"num_deleted":"0","num_feature":"46","num_nodes":"19","size_leaf_vector":"1"}},{"base_weights":[-5.1906057E-2,1.8687165E-1,-1.9125792E-1,4.1644937E-1,-1.8704489E-1,1.1470399E-2,-3.0047446E-1,2.051198E-3,3.3208065E-2,1.0404469E-3,-1.9092953E-2,-4.0157107E-1,1.5848376E-2,-5.201226E-2,-1.2725398E-2],"categories":[],"categories_nodes":[],"categories_segments":[],"categories_sizes":[],"default_left":[0,0,0,0,0,0,0,0,0,0,0,0,0,0,0],"id":37,"left_children":[1,3,5,7,9,-1,11,-1,-1,-1,-1,13,-1,-1,-1],"loss_changes":[2.609934E0,2.5685706E0,2.3549795E0,1.6028719E0,5.081061E-1,0E0,2.6326416E0,0E0,0E0,0E0,0E0,2.8887486E0,0E0,0E0,0E0],"parents":[2147483647,0,0,1,1,2,2,3,3,4,4,6,6,11,11],"right_children":[2,4,6,8,10,-1,12,-1,-1,-1,-1,14,-1,-1,-1],"split_conditions":[0E0,2E0,3.3563934E1,2.1650635E-1,2.2821774E-1,1.1470399E-2,3.7435802E1,2.051198E-3,3.3208065E-2,1.0404469E-3,-1.9092953E-2,1.7E0,1.5848376E-2,-5.201226E-2,-1.2725398E-2],"split_indices":[12,26,45,35,35,0,45,0,0,0,0,44,0,0,0],"split_type":[0,0,0,0,0,0,0,0,0,0,0,0,0,0,0],"sum_hessian":[7.635005E1,2.7747108E1,4.8602947E1,1.7286942E1,1.0460167E1,9.602233E0,3.9000713E1,7.4958067E0,9.791135E0,5.2445035E0,5.2156634E0,3.395301E1,5.047701E0,5.0908275E0,2.8862185E1],"tree_param":{"num_deleted":"0","num_feature":"46","num_nodes":"15","size_leaf_vector":"1"}},{"base_weights":[-1.8052092E-2,-2.1492386E-1,3.909987E-1,1.1932669E-2,-2.966368E-1,-4.254815E-3,5.192077E-1,-3.615212E-2,-1.9866471E-1,9.994429E-3,3.5942115E-2,3.913808E-3,-1.673224E-2],"categories":[],"categories_nodes":[],"categories_segments":[],"categories_sizes":[],"default_left":[0,0,0,0,0,0,0,0,0,0,0,0,0],"id":38,"left_children":[1,3,5,-1,7,-1,9,-1,11,-1,-1,-1,-1],"loss_changes":[6.309773E0,2.0464337E0,1.6367419E0,0E0,1.6719956E0,0E0,1.0585814E0,0E0,1.5094014E0,0E0,0E0,0E0,0E0],"parents":[2147483647,0,0,1,1,2,2,4,4,6,6,8,8],"right_children":[2,4,6,-1,8,-1,10,-1,12,-1,-1,-1,-1],"split_conditions":[7.5E-1,3.33642E1,3.3971542E1,1.1932669E-2,2.78E-1,-4.254815E-3,5.7735026E-1,-3.615212E-2,3.4748795E1,9.994429E-3,3.5942115E-2,3.913808E-3,-1.673224E-2],"split_indices":[36,45,45,0,33,0,34,0,45,0,0,0,0],"split_type":[0,0,0,0,0,0,0,0,0,0,0,0,0],"sum_hessian":[7.652767E1,5.21483E1,2.437937E1,7.4805217E0,4.4667778E1,5.0781846E0,1.9301186E1,6.962776E0,3.7705E1,8.387467E0,1.0913718E1,1.2314301E1,2.5390701E1],"tree_param":{"num_deleted":"0","num_feature":"46","num_nodes":"13","size_leaf_vector":"1"}},{"base_weights":[1.1225973E-1,4.282666E-1,-8.471775E-2,-5.5984925E-3,5.524368E-1,1.4795223E-1,-3.7238222E-1,7.053296E-1,7.930728E-3,3.8141474E-1,-2.8801233E-2,-4.841572E-2,-4.243664E-2,2.1085085E-2,4.5334853E-2,6.0588154E-3,3.9083958E-2,-2.935958E-2,2.965572E-2],"categories":[],"categories_nodes":[],"categories_segments":[],"categories_sizes":[],"default_left":[0,0,0,0,0,0,0,0,0,0,0,0,0,0,0,0,0,0,0],"id":39,"left_children":[1,3,5,-1,7,9,11,13,-1,15,-1,-1,17,-1,-1,-1,-1,-1,-1],"loss_changes":[4.647699E0,2.0240912E0,3.1521127E0,0E0,1.2209358E0,4.5811596E0,3.9903586E0,4.2748547E-1,0E0,1.9300673E0,0E0,0E0,5.430669E0,0E0,0E0,0E0,0E0,0E0,0E0],"parents":[2147483647,0,0,1,1,2,2,4,4,5,5,6,6,7,7,9,9,12,12],"right_children":[2,4,6,-1,8,10,12,14,-1,16,-1,-1,18,-1,-1,-1,-1,-1,-1],"split_conditions":[-9.264219E-2,3.4258175E1,3.5175198E1,-5.5984925E-3,3.7121147E1,1.3636364E-1,3.65E1,-3.6523914E-1,7.930728E-3,3.4446278E1,-2.8801233E-2,-4.841572E-2,1.24564365E-1,2.1085085E-2,4.5334853E-2,6.0588154E-3,3.9083958E-2,-2.935958E-2,2.965572E-2],"split_indices":[10,45,45,0,45,11,45,11,0,45,0,0,10,0,0,0,0,0,0],"split_type":[0,0,0,0,0,0,0,0,0,0,0,0,0,0,0,0,0,0,0],"sum_hessian":[7.253155E1,2.7594978E1,4.493657E1,5.0250473E0,2.2569931E1,2.4919292E1,2.0017277E1,1.5505399E1,7.0645323E0,1.9305195E1,5.614098E0,6.3358717E0,1.3681404E1,7.9286366E0,7.5767627E0,1.2639799E1,6.6653953E0,7.492625E0,6.1887794E0],"tree_param":{"num_deleted":"0","num_feature":"46","num_nodes":"19","size_leaf_vector":"1"}},{"base_weights":[1.5304372E-2,-1.5985957E-1,2.4579605E-1,-3.216527E-1,-7.321246E-3,4.238876E-1,-1.2260738E-2,-3.533546E-2,5.4853167E-2,-2.1997524E-2,1.9103625E-1,3.469152E-2,2.2841708E-1,-1.11258915E-2,1.6600614E-2,2.3213422E-2,-5.8832774E-3,-7.3980303E-3,2.9495755E-2],"categories":[],"categories_nodes":[],"categories_segments":[],"categories_sizes":[],"default_left":[0,0,0,0,0,0,0,0,0,0,0,0,0,0,0,0,0,0,0],"id":40,"left_children":[1,3,5,7,9,11,-1,-1,13,-1,15,-1,17,-1,-1,-1,-1,-1,-1],"loss_changes":[3.0972676E0,1.032746E0,3.029721E0,3.098972E0,2.1355264E0,1.064167E0,0E0,0E0,9.4906735E-1,0E0,1.5004706E0,0E0,2.33005E0,0E0,0E0,0E0,0E0,0E0,0E0],"parents":[2147483647,0,0,1,1,2,2,3,3,4,4,5,5,8,8,10,10,12,12],"right_children":[2,4,6,8,10,12,-1,-1,14,-1,16,-1,18,-1,-1,-1,-1,-1,-1],"split_conditions":[5.7735026E-1,3.6E1,2.3113215E-2,1E0,1.7E0,-1.0714286E-1,-1.2260738E-2,-3.533546E-2,-2.8336165E-2,-2.1997524E-2,8.809345E-2,3.469152E-2,9.375E-2,-1.11258915E-2,1.6600614E-2,2.3213422E-2,-5.8832774E-3,-7.3980303E-3,2.9495755E-2],"split_indices":[34,19,11,25,44,12,0,0,11,0,11,0,12,0,0,0,0,0,0],"split_type":[0,0,0,0,0,0,0,0,0,0,0,0,0,0,0,0,0,0,0],"sum_hessian":[7.4528656E1,4.227445E1,3.2254208E1,1.9658735E1,2.2615715E1,2.3919043E1,8.335166E0,9.416729E0,1.0242006E1,6.885095E0,1.5730619E1,8.760188E0,1.51588545E1,5.0372496E0,5.2047567E0,8.249225E0,7.481395E0,7.5804543E0,7.5784006E0],"tree_param":{"num_deleted":"0","num_feature":"46","num_nodes":"19","size_leaf_vector":"1"}},{"base_weights":[-1.6972529E-2,4.3959925E-1,-1.3330513E-1,1.4437084E-2,2.9002413E-2,-3.854352E-1,1.0263162E-1,-4.6177372E-2,-1.1493872E-1,3.211306E-1,-2.6092205E-2,-1.815704E-2,2.4344271E-2,1.1484202E-3,3.208634E-2],"categories":[],"categories_nodes":[],"categories_segments":[],"categories_sizes":[],"default_left":[0,0,0,0,0,0,0,0,0,0,0,0,0,0,0],"id":41,"left_children":[1,3,5,-1,-1,7,9,-1,11,13,-1,-1,-1,-1,-1],"loss_changes":[4.1750994E0,8.2793236E-2,3.8254197E0,0E0,0E0,4.295096E0,4.679752E0,0E0,3.4301703E0,2.3414288E0,0E0,0E0,0E0,0E0,0E0],"parents":[2147483647,0,0,1,1,2,2,5,5,6,6,8,8,9,9],"right_children":[2,4,6,-1,-1,8,10,-1,12,14,-1,-1,-1,-1,-1],"split_conditions":[-2.8915307E-1,2.5E0,1E0,1.4437084E-2,2.9002413E-2,2.1650635E-1,1.3488044E-1,-4.6177372E-2,1.158033E-1,-2.1614254E-2,-2.6092205E-2,-1.815704E-2,2.4344271E-2,1.1484202E-3,3.208634E-2],"split_indices":[10,44,25,0,0,35,11,0,11,11,0,0,0,0,0],"split_type":[0,0,0,0,0,0,0,0,0,0,0,0,0,0,0],"sum_hessian":[7.7079475E1,1.4912766E1,6.2166706E1,9.006572E0,5.9061947E0,2.995064E1,3.221607E1,9.087821E0,2.0862818E1,2.4344143E1,7.8719234E0,1.5169452E1,5.6933675E0,1.333025E1,1.1013894E1],"tree_param":{"num_deleted":"0","num_feature":"46","num_nodes":"15","size_leaf_vector":"1"}},{"base_weights":[4.0117227E-2,-1.6588219E-1,3.119686E-1,2.4265474E-1,-2.9479977E-1,4.7215414E-1,-5.4162955E-3,-1.4371107E-3,2.4620494E-2,-3.899833E-1,9.377412E-3,7.6880026E-1,-4.334274E-3,-3.836815E-2,-1.0889307E-2,4.6027433E-2,2.4360985E-2],"categories":[],"categories_nodes":[],"categories_segments":[],"categories_sizes":[],"default_left":[0,0,0,0,0,0,0,0,0,0,0,0,0,0,0,0,0],"id":42,"left_children":[1,3,5,7,9,11,-1,-1,-1,13,-1,15,-1,-1,-1,-1,-1],"loss_changes":[4.447763E0,2.4443326E0,2.3957248E0,8.15977E-1,1.6914773E0,4.3095217E0,0E0,0E0,0E0,1.6558805E0,0E0,1.2294483E-1,0E0,0E0,0E0,0E0,0E0],"parents":[2147483647,0,0,1,1,2,2,3,3,4,4,5,5,9,9,11,11],"right_children":[2,4,6,8,10,12,-1,-1,-1,14,-1,16,-1,-1,-1,-1,-1],"split_conditions":[5.7735026E-1,-2.9426476E-1,9.241141E-4,2.309401E-1,1.7E0,2E0,-5.4162955E-3,-1.4371107E-3,2.4620494E-2,-2.1614254E-2,9.377412E-3,-1.601694E-1,-4.334274E-3,-3.836815E-2,-1.0889307E-2,4.6027433E-2,2.4360985E-2],"split_indices":[34,11,11,35,18,26,0,0,0,11,0,11,0,0,0,0,0],"split_type":[0,0,0,0,0,0,0,0,0,0,0,0,0,0,0,0,0],"sum_hessian":[7.7237656E1,4.3953327E1,3.328433E1,1.0145267E1,3.380806E1,2.4182331E1,9.101997E0,5.0941854E0,5.0510807E0,2.8569202E1,5.2388573E0,1.5668389E1,8.513943E0,7.6865854E0,2.0882616E1,8.476116E0,7.1922736E0],"tree_param":{"num_deleted":"0","num_feature":"46","num_nodes":"17","size_leaf_vector":"1"}},{"base_weights":[-4.196701E-2,-2.7584812E-2,1.744001E-2,-1.8214893E-1,2.0357332E-1,1.6013289E-2,-3.4081003E-1,3.414617E-2,7.317257E-2,-2.3149105E-2,-4.4462757E-4,-2.6160679E-3,2.8129866E-2],"categories":[],"categories_nodes":[],"categories_segments":[],"categories_sizes":[],"default_left":[0,0,0,0,0,0,0,0,0,0,0,0,0],"id":43,"left_children":[1,-1,3,5,7,-1,9,-1,11,-1,-1,-1,-1],"loss_changes":[2.323771E0,0E0,2.552722E0,2.7351656E0,2.1084723E0,0E0,9.889419E-1,0E0,1.8850443E0,0E0,0E0,0E0,0E0],"parents":[2147483647,0,0,2,2,3,3,4,4,6,6,8,8],"right_children":[2,-1,4,6,8,-1,10,-1,12,-1,-1,-1,-1],"split_conditions":[2.38E-1,-2.7584812E-2,1E0,-2.8915307E-1,4.4E-1,1.6013289E-2,1.28E-1,3.414617E-2,1.3E0,-2.3149105E-2,-4.4462757E-4,-2.6160679E-3,2.8129866E-2],"split_indices":[33,0,25,10,33,0,23,0,18,0,0,0,0],"split_type":[0,0,0,0,0,0,0,0,0,0,0,0,0],"sum_hessian":[7.365695E1,6.999116E0,6.665784E1,3.1917337E1,3.4740498E1,7.2645745E0,2.4652763E1,6.3594236E0,2.8381073E1,1.7511124E1,7.1416388E0,2.313721E1,5.2438617E0],"tree_param":{"num_deleted":"0","num_feature":"46","num_nodes":"13","size_leaf_vector":"1"}},{"base_weights":[3.0275786E-2,-1.4217007E-1,4.3092707E-1,1.0787219E-2,-2.3376057E-1,-2.5938142E-3,5.8341545E-1,-3.6453247E-2,-9.449118E-2,3.6746304E-2,1.1704563E-2,-1.7111767E-2,3.7419815E-3],"categories":[],"categories_nodes":[],"categories_segments":[],"categories_sizes":[],"default_left":[0,0,0,0,0,0,0,0,0,0,0,0,0],"id":44,"left_children":[1,3,5,-1,7,-1,9,-1,11,-1,-1,-1,-1],"loss_changes":[5.078898E0,1.725946E0,1.7141047E0,0E0,2.7015035E0,0E0,6.3461685E-1,0E0,1.4613054E0,0E0,0E0,0E0,0E0],"parents":[2147483647,0,0,1,1,2,2,4,4,6,6,8,8],"right_children":[2,4,6,-1,8,-1,10,-1,12,-1,-1,-1,-1],"split_conditions":[7.5E-1,3.3563934E1,3.4290134E1,1.0787219E-2,2.86E-1,-2.5938142E-3,3.6906013E1,-3.6453247E-2,2.1E0,3.6746304E-2,1.1704563E-2,-1.7111767E-2,3.7419815E-3],"split_indices":[36,45,45,0,33,0,45,0,44,0,0,0,0],"split_type":[0,0,0,0,0,0,0,0,0,0,0,0,0],"sum_hessian":[7.120596E1,5.0056507E1,2.1149456E1,9.700775E0,4.0355732E1,5.0774446E0,1.6072012E1,7.769818E0,3.2585915E1,1.0240384E1,5.8316274E0,1.3054955E1,1.953096E1],"tree_param":{"num_deleted":"0","num_feature":"46","num_nodes":"13","size_leaf_vector":"1"}},{"base_weights":[8.721503E-2,4.2955723E-1,-1.6234806E-1,4.6638254E-2,2.8187412E-1,-3.2934736E-2,-4.5872726E-2,3.2279298E-2,8.513726E-2,4.767109E-2,-2.4478117E-2,-1.2200314E-2,1.409498E-2,-9.96631E-3,1.3751606E-2],"categories":[],"categories_nodes":[],"categories_segments":[],"categories_sizes":[],"default_left":[0,0,0,0,0,0,0,0,0,0,0,0,0,0,0],"id":45,"left_children":[1,3,5,-1,7,-1,9,-1,11,13,-1,-1,-1,-1,-1],"loss_changes":[6.338267E0,1.9377108E0,2.3743658E0,0E0,1.7140608E0,0E0,1.5580676E0,0E0,1.2407087E0,1.7687254E0,0E0,0E0,0E0,0E0,0E0],"parents":[2147483647,0,0,1,1,2,2,4,4,6,6,8,8,9,9],"right_children":[2,4,6,-1,8,-1,10,-1,12,14,-1,-1,-1,-1,-1],"split_conditions":[0E0,5.24E-1,2.38E-1,4.6638254E-2,-3.9280024E-1,-3.2934736E-2,1.5275252E0,3.2279298E-2,6.83E-1,1E0,-2.4478117E-2,-1.2200314E-2,1.409498E-2,-9.96631E-3,1.3751606E-2],"split_indices":[10,33,33,0,10,0,22,0,33,25,0,0,0,0,0],"split_type":[0,0,0,0,0,0,0,0,0,0,0,0,0,0,0],"sum_hessian":[7.2058304E1,3.024656E1,4.1811745E1,5.5029564E0,2.4743603E1,6.8989325E0,3.491281E1,7.706557E0,1.7037046E1,2.938475E1,5.528061E0,6.094256E0,1.094279E1,1.3932468E1,1.5452282E1],"tree_param":{"num_deleted":"0","num_feature":"46","num_nodes":"15","size_leaf_vector":"1"}},{"base_weights":[7.1389936E-3,4.728809E-1,-1.0691398E-1,7.045244E-3,3.109552E-2,-4.495338E-3,-4.0853956E-1,-2.1852948E-1,2.2734848E-1,-5.404269E-4,-3.0393777E-2,-1.9887941E-2,8.113066E-3,4.165783E-2,-1.7212647E-3],"categories":[],"categories_nodes":[],"categories_segments":[],"categories_sizes":[],"default_left":[0,0,0,0,0,0,0,0,0,0,0,0,0,0,0],"id":46,"left_children":[1,3,5,-1,-1,7,9,11,13,-1,-1,-1,-1,-1,-1],"loss_changes":[4.208607E0,6.0885334E-1,1.9021082E0,0E0,0E0,2.443885E0,1.1765304E0,1.8510389E0,3.8249779E0,0E0,0E0,0E0,0E0,0E0,0E0],"parents":[2147483647,0,0,1,1,2,2,5,5,6,6,7,7,8,8],"right_children":[2,4,6,-1,-1,8,10,12,14,-1,-1,-1,-1,-1,-1],"split_conditions":[-2.8257766E-1,1.2909944E0,1.4142135E0,7.045244E-3,3.109552E-2,1E0,4.76E-1,3.3E0,4E-2,-5.404269E-4,-3.0393777E-2,-1.9887941E-2,8.113066E-3,4.165783E-2,-1.7212647E-3],"split_indices":[10,22,22,0,0,25,33,44,24,0,0,0,0,0,0],"split_type":[0,0,0,0,0,0,0,0,0,0,0,0,0,0,0],"sum_hessian":[7.658869E1,1.4619551E1,6.1969143E1,5.340227E0,9.279324E0,4.7266113E1,1.470303E1,2.4831167E1,2.2434946E1,5.42818E0,9.27485E0,1.7032444E1,7.798723E0,6.2259216E0,1.6209024E1],"tree_param":{"num_deleted":"0","num_feature":"46","num_nodes":"15","size_leaf_vector":"1"}},{"base_weights":[-2.7881399E-2,2.0341808E-1,-1.7782202E-1,3.0097434E-1,-8.641134E-3,-3.1010872E-2,-8.021492E-2,1.2638749E-1,4.9217418E-1,4.1103708E-3,-2.331139E-2,-2.043677E-3,1.899585E-2,3.26845E-2,1.1339368E-2,1.3875297E-2,-1.1285554E-2],"categories":[],"categories_nodes":[],"categories_segments":[],"categories_sizes":[],"default_left":[0,0,0,0,0,0,0,0,0,0,0,0,0,0,0,0,0],"id":47,"left_children":[1,3,5,7,-1,-1,9,11,13,15,-1,-1,-1,-1,-1,-1,-1],"loss_changes":[2.7031043E0,1.183482E0,1.9310938E0,7.030401E-1,0E0,0E0,1.3580976E0,6.672983E-1,2.4409246E-1,2.1920118E0,0E0,0E0,0E0,0E0,0E0,0E0,0E0],"parents":[2147483647,0,0,1,1,2,2,3,3,6,6,7,7,8,8,9,9],"right_children":[2,4,6,8,-1,-1,10,12,14,16,-1,-1,-1,-1,-1,-1,-1],"split_conditions":[-9.264219E-2,3E0,1.7E0,5.7735026E-1,-8.641134E-3,-3.1010872E-2,1.5811388E0,-1.9594724E-1,-3.3486205E-1,8.4E-2,-2.331139E-2,-2.043677E-3,1.899585E-2,3.26845E-2,1.1339368E-2,1.3875297E-2,-1.1285554E-2],"split_indices":[10,26,44,34,0,0,22,10,11,23,0,0,0,0,0,0,0],"split_type":[0,0,0,0,0,0,0,0,0,0,0,0,0,0,0,0,0],"sum_hessian":[7.597233E1,2.947712E1,4.6495205E1,2.3777609E1,5.699511E0,7.251173E0,3.924403E1,1.35703745E1,1.0207234E1,3.280747E1,6.436564E0,8.443978E0,5.126396E0,5.2015667E0,5.005668E0,1.5087278E1,1.772019E1],"tree_param":{"num_deleted":"0","num_feature":"46","num_nodes":"17","size_leaf_vector":"1"}},{"base_weights":[1.801366E-2,5.229301E-1,-1.0031501E-1,4.5298588E-2,1.0665377E-3,-3.1206098E-1,3.0876026E-2,2.0713659E-2,-3.5390317E-2,1.4460444E-1,-1.6813671E-2,-9.290804E-3,1.6424775E-2,-1.4766146E-3,1.7569112E-2],"categories":[],"categories_nodes":[],"categories_segments":[],"categories_sizes":[],"default_left":[0,0,0,0,0,0,0,0,0,0,0,0,0,0,0],"id":48,"left_children":[1,3,5,-1,-1,7,9,11,-1,13,-1,-1,-1,-1,-1],"loss_changes":[4.4868145E0,2.6313114E0,1.7110107E0,0E0,0E0,3.1682146E0,1.6082246E0,9.371894E-1,0E0,1.1146902E0,0E0,0E0,0E0,0E0,0E0],"parents":[2147483647,0,0,1,1,2,2,5,5,6,6,7,7,9,9],"right_children":[2,4,6,-1,-1,8,10,12,-1,14,-1,-1,-1,-1,-1],"split_conditions":[-2.8915307E-1,3.58E1,3.457546E1,4.5298588E-2,1.0665377E-3,3.3708492E1,1E0,3.3250923E1,-3.5390317E-2,3.72E1,-1.6813671E-2,-9.290804E-3,1.6424775E-2,-1.4766146E-3,1.7569112E-2],"split_indices":[10,45,45,0,0,45,18,45,0,19,0,0,0,0,0],"split_type":[0,0,0,0,0,0,0,0,0,0,0,0,0,0,0],"sum_hessian":[7.251268E1,1.3278448E1,5.9234234E1,6.9588556E0,6.3195925E0,2.2424326E1,3.6809906E1,1.2558825E1,9.8655E0,2.8775043E1,8.034863E0,7.5583444E0,5.00048E0,1.5823196E1,1.2951848E1],"tree_param":{"num_deleted":"0","num_feature":"46","num_nodes":"15","size_leaf_vector":"1"}},{"base_weights":[-1.2739508E-2,2.253494E-1,-1.8176606E-1,2.4693668E-2,1.1832447E-1,-4.252488E-1,1.4083524E-1,-8.3415825E-3,3.118118E-1,-5.0358184E-2,-1.4331293E-1,2.064832E-2,-8.089642E-3,8.11335E-3,2.3016987E-2,1.8297946E-2,-1.8266821E-2],"categories":[],"categories_nodes":[],"categories_segments":[],"categories_sizes":[],"default_left":[0,0,0,0,0,0,0,0,0,0,0,0,0,0,0,0,0],"id":49,"left_children":[1,3,5,-1,7,9,11,-1,13,-1,15,-1,-1,-1,-1,-1,-1],"loss_changes":[3.0803795E0,7.885666E-1,3.6254616E0,0E0,1.4005098E0,4.0207E0,1.7343628E0,0E0,1.9536352E-1,0E0,2.2656188E0,0E0,0E0,0E0,0E0,0E0,0E0],"parents":[2147483647,0,0,1,1,2,2,4,4,5,5,6,6,8,8,10,10],"right_children":[2,4,6,-1,8,10,12,-1,14,-1,16,-1,-1,-1,-1,-1,-1],"split_conditions":[-7.391614E-2,-3.9280024E-1,3.2E0,2.4693668E-2,-3.5788843E-1,1.0297003E-1,9.7489014E-2,-8.3415825E-3,-1.8016914E-1,-5.0358184E-2,6.205238E-2,2.064832E-2,-8.089642E-3,8.11335E-3,2.3016987E-2,1.8297946E-2,-1.8266821E-2],"split_indices":[10,10,44,0,11,10,10,0,10,0,11,0,0,0,0,0,0],"split_type":[0,0,0,0,0,0,0,0,0,0,0,0,0,0,0,0,0],"sum_hessian":[7.463429E1,3.0602755E1,4.4031536E1,7.424889E0,2.3177866E1,2.508812E1,1.8943419E1,9.21621E0,1.3961655E1,7.2327466E0,1.7855373E1,9.956295E0,8.9871235E0,8.335182E0,5.626472E0,5.0873795E0,1.2767993E1],"tree_param":{"num_deleted":"0","num_feature":"46","num_nodes":"17","size_leaf_vector":"1"}},{"base_weights":[-2.7686372E-2,4.3035153E-2,-3.0635972E-2,-2.9324934E-2,3.503261E-1,1.7051388E-1,-2.5389194E-1,3.1982932E-2,-3.4336315E-3,-1.5553159E-2,1.4637847E-2,3.524353E-3,-3.0103175E-2],"categories":[],"categories_nodes":[],"categories_segments":[],"categories_sizes":[],"default_left":[0,0,0,0,0,0,0,0,0,0,0,0,0],"id":50,"left_children":[1,3,-1,5,7,9,11,-1,-1,-1,-1,-1,-1],"loss_changes":[3.1552062E0,1.5326093E0,0E0,2.5156496E0,1.6908909E0,1.8208845E0,3.087448E0,0E0,0E0,0E0,0E0,0E0,0E0],"parents":[2147483647,0,0,1,1,3,3,4,4,5,5,6,6],"right_children":[2,4,-1,6,8,10,12,-1,-1,-1,-1,-1,-1],"split_conditions":[3.7760562E-1,1.8037611E-1,-3.0635972E-2,-7.391614E-2,3E-1,3.406723E1,3.5175198E1,3.1982932E-2,-3.4336315E-3,-1.5553159E-2,1.4637847E-2,3.524353E-3,-3.0103175E-2],"split_indices":[10,10,0,10,18,45,45,0,0,0,0,0,0],"split_type":[0,0,0,0,0,0,0,0,0,0,0,0,0],"sum_hessian":[7.324561E1,6.602028E1,7.22533E0,5.390582E1,1.211446E1,2.8415071E1,2.5490747E1,6.9957147E0,5.1187453E0,5.2742953E0,2.3140776E1,1.3460457E1,1.2030292E1],"tree_param":{"num_deleted":"0","num_feature":"46","num_nodes":"13","size_leaf_vector":"1"}},{"base_weights":[-6.4799143E-3,-1.5340512E-1,2.830642E-1,-5.690356E-1,-3.9975774E-3,3.5358235E-2,8.093469E-2,-5.741606E-3,-5.1670182E-2,1.9091254E-2,-1.0449179E-1,2.1106733E-2,-9.2384905E-2,6.060386E-3,-1.8074734E-2,-1.7133854E-2,1.0797081E-2],"categories":[],"categories_nodes":[],"categories_segments":[],"categories_sizes":[],"default_left":[0,0,0,0,0,0,0,0,0,0,0,0,0,0,0,0,0],"id":51,"left_children":[1,3,5,7,9,-1,11,-1,-1,-1,13,-1,15,-1,-1,-1,-1],"loss_changes":[3.235372E0,3.098384E0,2.04838E0,2.5638733E0,1.5084659E0,0E0,1.1687366E0,0E0,0E0,0E0,1.9012507E0,0E0,1.0841084E0,0E0,0E0,0E0,0E0],"parents":[2147483647,0,0,1,1,2,2,3,3,4,4,6,6,10,10,12,12],"right_children":[2,4,6,8,10,-1,12,-1,-1,-1,14,-1,16,-1,-1,-1,-1],"split_conditions":[3.3E0,3.4446278E1,3.7E0,3.3708492E1,3.5021103E1,3.5358235E-2,-7.391614E-2,-5.741606E-3,-5.1670182E-2,1.9091254E-2,-9.264219E-2,2.1106733E-2,4E0,6.060386E-3,-1.8074734E-2,-1.7133854E-2,1.0797081E-2],"split_indices":[44,45,44,45,45,0,10,0,0,0,10,0,44,0,0,0,0],"split_type":[0,0,0,0,0,0,0,0,0,0,0,0,0,0,0,0,0],"sum_hessian":[7.433651E1,4.9854218E1,2.4482288E1,1.2262835E1,3.7591385E1,6.936041E0,1.7546247E1,6.9386744E0,5.32416E0,6.9838943E0,3.060749E1,5.621348E0,1.1924899E1,1.6370354E1,1.4237137E1,6.699404E0,5.225496E0],"tree_param":{"num_deleted":"0","num_feature":"46","num_nodes":"17","size_leaf_vector":"1"}},{"base_weights":[-1.8902212E-2,1.6801347E-1,-1.0791698E-1,-3.567185E-2,2.3370495E-2,8.320154E-2,-3.438985E-1,1.8173639E-2,-1.5751094E-2,2.3997514E-1,-1.5709914E-1,-3.4857072E-2,-1.3535678E-1,2.3500115E-2,-1.0816416E-2,-1.0619528E-2,-3.0669214E-3,-2.1493345E-2,7.419903E-3],"categories":[],"categories_nodes":[],"categories_segments":[],"categories_sizes":[],"default_left":[0,0,0,0,0,0,0,0,0,0,0,0,0,0,0,0,0,0,0],"id":52,"left_children":[1,3,5,7,-1,9,11,-1,-1,13,15,-1,17,-1,-1,-1,-1,-1,-1],"loss_changes":[1.22547E0,1.4962482E0,2.3264344E0,1.7540789E0,0E0,1.1159718E0,1.5144129E0,0E0,0E0,1.9991239E0,2.083981E-2,0E0,1.4174627E0,0E0,0E0,0E0,0E0,0E0,0E0],"parents":[2147483647,0,0,1,1,2,2,3,3,5,5,6,6,9,9,10,10,12,12],"right_children":[2,4,6,8,-1,10,12,-1,-1,14,16,-1,18,-1,-1,-1,-1,-1,-1],"split_conditions":[-1.0714286E-1,-3.5788843E-1,8.4E-2,-4.529956E-1,2.3370495E-2,1.4142135E0,3.69556E-2,1.8173639E-2,-1.5751094E-2,8.809345E-2,9.619781E-2,-3.4857072E-2,1.28E-1,2.3500115E-2,-1.0816416E-2,-1.0619528E-2,-3.0669214E-3,-2.1493345E-2,7.419903E-3],"split_indices":[12,11,23,11,0,22,10,0,0,11,10,0,23,0,0,0,0,0,0],"split_type":[0,0,0,0,0,0,0,0,0,0,0,0,0,0,0,0,0,0,0],"sum_hessian":[7.19252E1,2.2554256E1,4.937094E1,1.3748041E1,8.806215E0,2.7402035E1,2.1968908E1,5.3889785E0,8.359062E0,1.6835775E1,1.056626E1,7.1074104E0,1.4861497E1,1.1318923E1,5.5168514E0,5.2644267E0,5.301833E0,7.2128E0,7.648697E0],"tree_param":{"num_deleted":"0","num_feature":"46","num_nodes":"19","size_leaf_vector":"1"}},{"base_weights":[4.6239804E-2,4.4384873E-1,-5.842852E-2,3.4721624E-2,-1.04817E-3,-2.2176503E-1,9.4102435E-2,-3.8684588E-2,3.8108725E-2,2.5888374E-1,-1.4131385E-2,-5.649372E-3,1.8937668E-2,-5.239859E-5,3.0083006E-2],"categories":[],"categories_nodes":[],"categories_segments":[],"categories_sizes":[],"default_left":[0,0,0,0,0,0,0,0,0,0,0,0,0,0,0],"id":53,"left_children":[1,3,5,-1,-1,7,9,-1,11,13,-1,-1,-1,-1,-1],"loss_changes":[3.0744913E0,1.8741369E0,1.4771229E0,0E0,0E0,4.2041793E0,1.9546202E0,0E0,1.1126547E0,2.004677E0,0E0,0E0,0E0,0E0,0E0],"parents":[2147483647,0,0,1,1,2,2,5,5,6,6,8,8,9,9],"right_children":[2,4,6,-1,-1,8,10,-1,12,14,-1,-1,-1,-1,-1],"split_conditions":[-2.8257766E-1,3.6577682E1,1E0,3.4721624E-2,-1.04817E-3,2.1650635E-1,1.929745E-1,-3.8684588E-2,3.6150932E1,7.578186E-2,-1.4131385E-2,-5.649372E-3,1.8937668E-2,-5.239859E-5,3.0083006E-2],"split_indices":[10,45,25,0,0,35,10,0,45,10,0,0,0,0,0],"split_type":[0,0,0,0,0,0,0,0,0,0,0,0,0,0,0],"sum_hessian":[7.1326485E1,1.4387359E1,5.6939125E1,9.166672E0,5.2206874E0,2.7593046E1,2.934608E1,8.3233385E0,1.9269707E1,2.0818396E1,8.527685E0,1.3608347E1,5.6613607E0,1.2241055E1,8.577341E0],"tree_param":{"num_deleted":"0","num_feature":"46","num_nodes":"15","size_leaf_vector":"1"}},{"base_weights":[5.8017943E-2,-0E0,2.1461457E-2,7.020269E-2,-2.8381992E-2,1.6509584E-1,-1.8401667E-2,3.6991579E-3,3.0307114E-2],"categories":[],"categories_nodes":[],"categories_segments":[],"categories_sizes":[],"default_left":[0,0,0,0,0,0,0,0,0],"id":54,"left_children":[1,3,-1,5,-1,7,-1,-1,-1],"loss_changes":[1.6104908E0,2.6410942E0,0E0,2.4638982E0,0E0,1.8474026E0,0E0,0E0,0E0],"parents":[2147483647,0,0,1,1,3,3,5,5],"right_children":[2,4,-1,6,-1,8,-1,-1,-1],"split_conditions":[3.7435802E1,3.1189638E-1,2.1461457E-2,3.6772915E1,-2.8381992E-2,2.3E0,-1.8401667E-2,3.6991579E-3,3.0307114E-2],"split_indices":[45,11,0,45,0,18,0,0,0],"split_type":[0,0,0,0,0,0,0,0,0],"sum_hessian":[7.266838E1,6.358106E1,9.087321E0,5.727573E1,6.3053317E0,4.7780968E1,9.4947605E0,4.075596E1,7.0250087E0],"tree_param":{"num_deleted":"0","num_feature":"46","num_nodes":"9","size_leaf_vector":"1"}},{"base_weights":[4.8580016E-3,3.9255884E-1,-8.288648E-2,-0E0,3.07304E-2,5.287191E-2,-2.2440806E-1,-6.4204164E-2,2.4155634E-2,5.648384E-3,-3.8588598E-1,-9.432579E-3,1.669602E-2,-3.062951E-2,-5.2722148E-3],"categories":[],"categories_nodes":[],"categories_segments":[],"categories_sizes":[],"default_left":[0,0,0,0,0,0,0,0,0,0,0,0,0,0,0],"id":55,"left_children":[1,3,5,-1,-1,7,9,11,-1,-1,13,-1,-1,-1,-1],"loss_changes":[2.554596E0,1.1973178E0,1.188092E0,0E0,0E0,1.6464863E0,1.7100711E0,1.2998558E0,0E0,0E0,1.1844766E0,0E0,0E0,0E0,0E0],"parents":[2147483647,0,0,1,1,2,2,5,5,6,6,7,7,10,10],"right_children":[2,4,6,-1,-1,8,10,12,-1,-1,14,-1,-1,-1,-1],"split_conditions":[3.5333332E1,5.7735026E-1,8.4E-2,-0E0,3.07304E-2,5.7735026E-1,-2.7744278E-1,1.401359E-1,2.4155634E-2,5.648384E-3,-1.3362695E-2,-9.432579E-3,1.669602E-2,-3.062951E-2,-5.2722148E-3],"split_indices":[20,34,23,0,0,34,11,11,0,0,11,0,0,0,0],"split_type":[0,0,0,0,0,0,0,0,0,0,0,0,0,0,0],"sum_hessian":[7.2227295E1,1.2898922E1,5.9328373E1,5.0591125E0,7.839809E0,3.0239815E1,2.9088558E1,2.4257317E1,5.982499E0,9.312692E0,1.9775867E1,1.907279E1,5.184526E0,1.0083546E1,9.692321E0],"tree_param":{"num_deleted":"0","num_feature":"46","num_nodes":"15","size_leaf_vector":"1"}},{"base_weights":[8.5872784E-2,-2.9396761E-2,1.8406501E-1,2.9421756E-1,-5.3251088E-2,6.416713E-2,5.936115E-1,-2.4671055E-1,1.6746553E-2,2.9915212E-2,-5.4861107E-3,4.5525055E-2,1.5896076E-2,-0E0,-2.3112874E-2],"categories":[],"categories_nodes":[],"categories_segments":[],"categories_sizes":[],"default_left":[0,0,0,0,0,0,0,0,0,0,0,0,0,0,0],"id":56,"left_children":[1,-1,3,5,7,9,11,13,-1,-1,-1,-1,-1,-1,-1],"loss_changes":[4.5870414E0,0E0,1.6214967E0,2.7728648E0,1.5562935E0,2.4299095E0,1.1460967E0,7.7977693E-1,0E0,0E0,0E0,0E0,0E0,0E0,0E0],"parents":[2147483647,0,0,2,2,3,3,4,4,5,5,6,6,7,7],"right_children":[2,-1,4,6,8,10,12,14,-1,-1,-1,-1,-1,-1,-1],"split_conditions":[2.78E-1,-2.9396761E-2,2E0,5.7735026E-1,3.7333332E1,4.52E-1,-1.601694E-1,-1.8630275E-1,1.6746553E-2,2.9915212E-2,-5.4861107E-3,4.5525055E-2,1.5896076E-2,-0E0,-2.3112874E-2],"split_indices":[33,0,26,34,20,33,11,10,0,0,0,0,0,0,0],"split_type":[0,0,0,0,0,0,0,0,0,0,0,0,0,0,0],"sum_hessian":[6.730449E1,7.7966757E0,5.9507816E1,4.076702E1,1.8740793E1,2.3928785E1,1.6838236E1,1.2922585E1,5.8182087E0,5.418648E0,1.8510138E1,6.593749E0,1.0244487E1,6.3075747E0,6.61501E0],"tree_param":{"num_deleted":"0","num_feature":"46","num_nodes":"15","size_leaf_vector":"1"}},{"base_weights":[-7.239787E-3,3.1186944E-1,-8.4539756E-2,1.7575709E-3,2.4018964E-2,-2.2261998E-2,-2.3909904E-2,2.2917463E-2,-1.0606023E-1,-2.014861E-2,-1.0623647E-3],"categories":[],"categories_nodes":[],"categories_segments":[],"categories_sizes":[],"default_left":[0,0,0,0,0,0,0,0,0,0,0],"id":57,"left_children":[1,3,5,-1,-1,-1,7,-1,9,-1,-1],"loss_changes":[1.8293664E0,6.027452E-1,1.2681702E0,0E0,0E0,0E0,2.1207144E0,0E0,1.1184359E0,0E0,0E0],"parents":[2147483647,0,0,1,1,2,2,6,6,8,8],"right_children":[2,4,6,-1,-1,-1,8,-1,10,-1,-1],"split_conditions":[-2.8915307E-1,1.2909944E0,-2.59736E-1,1.7575709E-3,2.4018964E-2,-2.2261998E-2,-9.264219E-2,2.2917463E-2,2.78E-1,-2.014861E-2,-1.0623647E-3],"split_indices":[10,22,11,0,0,0,10,0,33,0,0],"split_type":[0,0,0,0,0,0,0,0,0,0,0],"sum_hessian":[7.301484E1,1.3393926E1,5.962091E1,5.751368E0,7.642558E0,7.4293237E0,5.219159E1,6.7528224E0,4.5438766E1,9.000293E0,3.6438473E1],"tree_param":{"num_deleted":"0","num_feature":"46","num_nodes":"11","size_leaf_vector":"1"}},{"base_weights":[3.2795202E-2,2.2499296E-1,-8.344441E-2,1.4067336E-2,5.002061E-1,1.9965298E-2,-1.9325136E-1,1.6221564E-2,-1.0836498E-2,3.223715E-2,1.2752137E-2,1.1092033E-2,-5.2003413E-1,-7.7976147E-3,1.7146144E-2,-3.1420887E-3,-4.5165434E-2],"categories":[],"categories_nodes":[],"categories_segments":[],"categories_sizes":[],"default_left":[0,0,0,0,0,0,0,0,0,0,0,0,0,0,0,0,0],"id":58,"left_children":[1,3,5,7,9,-1,11,-1,-1,-1,-1,13,15,-1,-1,-1,-1],"loss_changes":[1.5696468E0,1.480856E0,2.3501318E0,1.2448515E0,1.4496326E-1,0E0,2.4667416E0,0E0,0E0,0E0,0E0,1.3469093E0,2.316502E0,0E0,0E0,0E0,0E0],"parents":[2147483647,0,0,1,1,2,2,3,3,4,4,6,6,11,11,12,12],"right_children":[2,4,6,8,10,-1,12,-1,-1,-1,-1,14,16,-1,-1,-1,-1],"split_conditions":[0E0,5.7735026E-1,3.35E1,3.5227764E1,-3.677532E-1,1.9965298E-2,8.4E-2,1.6221564E-2,-1.0836498E-2,3.223715E-2,1.2752137E-2,6E-2,3.5175198E1,-7.7976147E-3,1.7146144E-2,-3.1420887E-3,-4.5165434E-2],"split_indices":[12,34,45,45,11,0,23,0,0,0,0,23,45,0,0,0,0],"split_type":[0,0,0,0,0,0,0,0,0,0,0,0,0,0,0,0,0],"sum_hessian":[6.778466E1,2.5517365E1,4.2267292E1,1.5246665E1,1.02707E1,7.1752443E0,3.509205E1,6.514241E0,8.732423E0,5.1794167E0,5.0912833E0,2.1996975E1,1.3095076E1,1.4783565E1,7.21341E0,6.6214685E0,6.473607E0],"tree_param":{"num_deleted":"0","num_feature":"46","num_nodes":"17","size_leaf_vector":"1"}},{"base_weights":[4.7822393E-2,-7.74405E-3,2.7361736E-2,1.748867E-1,-1.1176658E-1,1.4231383E-2,3.1358726E-2,-2.656855E-2,-8.066619E-3,-1.0191499E-2,1.3323418E-2,2.1364892E-2,-7.4388394E-3],"categories":[],"categories_nodes":[],"categories_segments":[],"categories_sizes":[],"default_left":[0,0,0,0,0,0,0,0,0,0,0,0,0],"id":59,"left_children":[1,3,-1,5,7,9,-1,-1,11,-1,-1,-1,-1],"loss_changes":[2.0833485E0,1.2761343E0,0E0,1.68278E0,1.8264031E0,1.1065828E0,0E0,0E0,2.2371442E0,0E0,0E0,0E0,0E0],"parents":[2147483647,0,0,1,1,3,3,4,4,5,5,8,8],"right_children":[2,4,-1,6,8,10,-1,-1,12,-1,-1,-1,-1],"split_conditions":[4E0,-1.6666667E-1,2.7361736E-2,-2.4825548E-1,-7.681183E-2,1E0,3.1358726E-2,-2.656855E-2,2.5668576E-2,-1.0191499E-2,1.3323418E-2,2.1364892E-2,-7.4388394E-3],"split_indices":[44,11,0,11,11,25,0,0,11,0,0,0,0],"split_type":[0,0,0,0,0,0,0,0,0,0,0,0,0],"sum_hessian":[7.197731E1,6.547642E1,6.500888E0,2.3164425E1,4.2311993E1,1.801718E1,5.147246E0,7.376359E0,3.4935635E1,9.553522E0,8.463656E0,7.862196E0,2.707344E1],"tree_param":{"num_deleted":"0","num_feature":"46","num_nodes":"13","size_leaf_vector":"1"}},{"base_weights":[-2.4673594E-2,1.5759535E-1,-1.5492311E-1,2.8537309E-2,2.31476E-2,-5.7133306E-2,-3.204726E-2,1.8513728E-2,-1.23786524E-1,-1.6875555E-1,1.8418659E-2,9.441269E-3,-2.4478838E-2,3.7012768E-3,-2.86943E-2],"categories":[],"categories_nodes":[],"categories_segments":[],"categories_sizes":[],"default_left":[0,0,0,0,0,0,0,0,0,0,0,0,0,0,0],"id":60,"left_children":[1,3,5,7,-1,9,-1,-1,11,13,-1,-1,-1,-1,-1],"loss_changes":[1.734856E0,1.1280973E0,1.9301876E0,1.243252E0,0E0,1.7968179E0,0E0,0E0,1.9670484E0,3.0567102E0,0E0,0E0,0E0,0E0,0E0],"parents":[2147483647,0,0,1,1,2,2,3,3,5,5,8,8,9,9],"right_children":[2,4,6,8,-1,10,-1,-1,12,14,-1,-1,-1,-1,-1],"split_conditions":[-6.05542E-2,-1.7245722E-1,1.5811388E0,-3.9280024E-1,2.31476E-2,3.6502815E1,-3.204726E-2,1.8513728E-2,3.6E1,2.5E-1,1.8418659E-2,9.441269E-3,-2.4478838E-2,3.7012768E-3,-2.86943E-2],"split_indices":[10,10,22,10,0,45,0,0,19,10,0,0,0,0,0],"split_type":[0,0,0,0,0,0,0,0,0,0,0,0,0,0,0],"sum_hessian":[7.105881E1,2.920797E1,4.185084E1,2.1529524E1,7.678446E0,3.594238E1,5.9084616E0,6.3990245E0,1.51305E1,2.9137272E1,6.805106E0,8.271723E0,6.8587775E0,1.8575842E1,1.0561432E1],"tree_param":{"num_deleted":"0","num_feature":"46","num_nodes":"15","size_leaf_vector":"1"}},{"base_weights":[-3.4503836E-2,-1.3390192E-1,1.5379319E-1,-5.124997E-2,-2.249633E-2,3.2521585E-1,-9.744002E-3,1.423878E-1,-2.9983982E-1,3.071799E-2,-9.616056E-3,-3.948265E-3,1.5548154E-2,-0E0,-2.196695E-2],"categories":[],"categories_nodes":[],"categories_segments":[],"categories_sizes":[],"default_left":[0,0,0,0,0,0,0,0,0,0,0,0,0,0,0],"id":61,"left_children":[1,3,5,7,-1,9,-1,11,13,-1,-1,-1,-1,-1,-1],"loss_changes":[1.3850609E0,1.1979948E0,1.5911267E0,1.9818017E0,0E0,2.7875485E0,0E0,9.0273464E-1,7.468612E-1,0E0,0E0,0E0,0E0,0E0,0E0],"parents":[2147483647,0,0,1,1,2,2,3,3,5,5,7,7,8,8],"right_children":[2,4,6,8,-1,10,-1,12,14,-1,-1,-1,-1,-1,-1],"split_conditions":[3.3E0,1E0,2E0,2.3E0,-2.249633E-2,9.241141E-4,-9.744002E-3,-6.502961E-2,1.7430417E-1,3.071799E-2,-9.616056E-3,-3.948265E-3,1.5548154E-2,-0E0,-2.196695E-2],"split_indices":[44,18,26,44,0,11,0,11,35,0,0,0,0,0,0],"split_type":[0,0,0,0,0,0,0,0,0,0,0,0,0,0,0],"sum_hessian":[7.2008675E1,4.7666485E1,2.434219E1,3.8956535E1,8.7099495E0,1.6556423E1,7.785767E0,2.1912699E1,1.7043837E1,1.0625934E1,5.9304886E0,9.4467325E0,1.2465967E1,5.77004E0,1.1273796E1],"tree_param":{"num_deleted":"0","num_feature":"46","num_nodes":"15","size_leaf_vector":"1"}},{"base_weights":[-6.0587764E-2,-1.3603184E-1,1.8897852E-2,-3.0664095E-1,2.3990858E-2,-5.1965857E-1,-0E0,1.7968763E-2,-5.4137856E-2,-3.8745802E-2,-1.2739308E-2,1.6674742E-2,-1.6929222E-2,1.4499651E-2,-1.2352884E-2],"categories":[],"categories_nodes":[],"categories_segments":[],"categories_sizes":[],"default_left":[0,0,0,0,0,0,0,0,0,0,0,0,0,0,0],"id":62,"left_children":[1,3,-1,5,7,9,11,-1,13,-1,-1,-1,-1,-1,-1],"loss_changes":[2.3671973E0,1.7084748E0,0E0,1.96295E0,8.94842E-1,8.9803314E-1,1.615284E0,0E0,1.8451415E0,0E0,0E0,0E0,0E0,0E0,0E0],"parents":[2147483647,0,0,1,1,3,3,4,4,5,5,6,6,8,8],"right_children":[2,4,-1,6,8,10,12,-1,14,-1,-1,-1,-1,-1,-1],"split_conditions":[2.3E0,3.65E1,1.8897852E-2,5.7735026E-1,1.3038405E0,1E0,3.58E1,1.7968763E-2,4.39E-1,-3.8745802E-2,-1.2739308E-2,1.6674742E-2,-1.6929222E-2,1.4499651E-2,-1.2352884E-2],"split_indices":[18,19,0,34,22,25,19,0,33,0,0,0,0,0,0],"split_type":[0,0,0,0,0,0,0,0,0,0,0,0,0,0,0],"sum_hessian":[6.9724884E1,6.0273678E1,9.451209E0,2.9030897E1,3.1242783E1,1.6725618E1,1.2305278E1,5.4646683E0,2.5778114E1,7.344534E0,9.381085E0,6.2106247E0,6.094653E0,8.893082E0,1.6885033E1],"tree_param":{"num_deleted":"0","num_feature":"46","num_nodes":"15","size_leaf_vector":"1"}},{"base_weights":[7.435871E-2,2.4945755E-2,8.571524E-3,-3.3556053E-1,1.114984E-1,-3.0918676E-2,-1.9904485E-3,2.0114113E-2,3.5322495E-2,-2.7749935E-2,8.137177E-3],"categories":[],"categories_nodes":[],"categories_segments":[],"categories_sizes":[],"default_left":[0,0,0,0,0,0,0,0,0,0,0],"id":63,"left_children":[1,-1,3,5,7,-1,-1,-1,9,-1,-1],"loss_changes":[1.923623E0,0E0,2.230876E0,1.1164198E0,1.0303007E0,0E0,0E0,0E0,3.0824552E0,0E0,0E0],"parents":[2147483647,0,0,2,2,3,3,4,4,8,8],"right_children":[2,-1,4,6,8,-1,-1,-1,10,-1,-1],"split_conditions":[-3.7019116E-1,2.4945755E-2,1.2909944E0,1E0,3.3563934E1,-3.0918676E-2,-1.9904485E-3,2.0114113E-2,3.4446278E1,-2.7749935E-2,8.137177E-3],"split_indices":[10,0,22,25,45,0,0,0,45,0,0],"split_type":[0,0,0,0,0,0,0,0,0,0,0],"sum_hessian":[6.984217E1,8.283155E0,6.1559017E1,1.3428752E1,4.8130264E1,6.134065E0,7.294687E0,8.830015E0,3.9300247E1,6.2419357E0,3.305831E1],"tree_param":{"num_deleted":"0","num_feature":"46","num_nodes":"11","size_leaf_vector":"1"}},{"base_weights":[4.51025E-3,-1.9350853E-2,4.5228764E-2,3.0013535E-2,-9.476054E-3,-1.9704439E-1,1.6483332E-1,1.216899E-2,-1.8844618E-2,1.623839E-2,-1.2221969E-2],"categories":[],"categories_nodes":[],"categories_segments":[],"categories_sizes":[],"default_left":[0,0,0,0,0,0,0,0,0,0,0],"id":64,"left_children":[1,-1,3,-1,5,7,9,-1,-1,-1,-1],"loss_changes":[1.1421301E0,0E0,2.0980992E0,0E0,2.055553E0,2.5201302E0,2.200975E0,0E0,0E0,0E0,0E0],"parents":[2147483647,0,0,2,2,4,4,5,5,6,6],"right_children":[2,-1,4,-1,6,8,10,-1,-1,-1,-1],"split_conditions":[2.38E-1,-1.9350853E-2,1E0,3.0013535E-2,1E0,5E-1,3.8E1,1.216899E-2,-1.8844618E-2,1.623839E-2,-1.2221969E-2],"split_indices":[33,0,26,0,25,33,19,0,0,0,0],"split_type":[0,0,0,0,0,0,0,0,0,0,0],"sum_hessian":[7.168693E1,5.7205567E0,6.596637E1,5.187584E0,6.077879E1,2.9489458E1,3.128933E1,8.286825E0,2.1202633E1,2.2821873E1,8.467457E0],"tree_param":{"num_deleted":"0","num_feature":"46","num_nodes":"11","size_leaf_vector":"1"}},{"base_weights":[-3.2039907E-2,-2.8294388E-2,3.998483E-2,3.3408985E-2,-2.9238027E-2,5.3884525E-2,-2.2588384E-1,9.130939E-3,-1.6725672E-2,-2.542602E-2,8.545221E-3],"categories":[],"categories_nodes":[],"categories_segments":[],"categories_sizes":[],"default_left":[0,0,0,0,0,0,0,0,0,0,0],"id":65,"left_children":[1,-1,3,-1,5,7,9,-1,-1,-1,-1],"loss_changes":[2.8053665E0,0E0,2.837485E0,0E0,9.7515565E-1,2.1019034E0,2.110306E0,0E0,0E0,0E0,0E0],"parents":[2147483647,0,0,2,2,4,4,5,5,6,6],"right_children":[2,-1,4,-1,6,8,10,-1,-1,-1,-1],"split_conditions":[2.78E-1,-2.8294388E-2,4E-1,3.3408985E-2,2E0,1.4142135E0,6.83E-1,9.130939E-3,-1.6725672E-2,-2.542602E-2,8.545221E-3],"split_indices":[33,0,36,0,26,22,33,0,0,0,0],"split_type":[0,0,0,0,0,0,0,0,0,0,0],"sum_hessian":[7.000472E1,7.671925E0,6.2332798E1,5.4714665E0,5.6861332E1,4.011999E1,1.6741343E1,3.072387E1,9.396121E0,9.759778E0,6.9815636E0],"tree_param":{"num_deleted":"0","num_feature":"46","num_nodes":"11","size_leaf_vector":"1"}},{"base_weights":[9.801063E-3,7.2691485E-2,-2.2791357E-1,1.8042164E-1,-1.7968458E-1,-2.4623578E-2,1.0438151E-2,3.0445335E-2,4.4343956E-2,-2.630311E-2,4.1583743E-2,1.5429203E-2,-7.7863815E-3,-4.0577976E-3,8.943109E-3],"categories":[],"categories_nodes":[],"categories_segments":[],"categories_sizes":[],"default_left":[0,0,0,0,0,0,0,0,0,0,0,0,0,0,0],"id":66,"left_children":[1,3,5,7,9,-1,-1,-1,11,-1,13,-1,-1,-1,-1],"loss_changes":[1.0751201E0,1.6068337E0,1.8571392E0,2.3191707E0,1.4151068E0,0E0,0E0,0E0,1.7892034E0,0E0,2.173358E-1,0E0,0E0,0E0,0E0],"parents":[2147483647,0,0,1,1,2,2,3,3,4,4,8,8,10,10],"right_children":[2,4,6,8,10,-1,-1,-1,12,-1,14,-1,-1,-1,-1],"split_conditions":[2.5E-1,3.6772915E1,3.643001E1,6E-1,1E0,-2.4623578E-2,1.0438151E-2,3.0445335E-2,-2.0840812E-1,-2.630311E-2,-1.656122E-1,1.5429203E-2,-7.7863815E-3,-4.0577976E-3,8.943109E-3],"split_indices":[10,45,45,36,25,0,0,0,10,0,11,0,0,0,0],"split_type":[0,0,0,0,0,0,0,0,0,0,0,0,0,0,0],"sum_hessian":[7.0844604E1,5.6904644E1,1.3939965E1,4.0358437E1,1.6546204E1,8.743809E0,5.1961555E0,8.713032E0,3.1645407E1,6.088931E0,1.04572735E1,1.3617649E1,1.8027758E1,5.3522444E0,5.105029E0],"tree_param":{"num_deleted":"0","num_feature":"46","num_nodes":"15","size_leaf_vector":"1"}},{"base_weights":[-0E0,2.6346692E-1,-1.1907283E-1,8.335131E-2,2.7072597E-2,-5.1986925E-2,-2.7112732E-2,2.657837E-2,-1.1043813E-2,-2.0295563E-1,1.1432661E-1,-2.7224883E-2,-3.6969655E-3,1.710455E-2,-6.747833E-3],"categories":[],"categories_nodes":[],"categories_segments":[],"categories_sizes":[],"default_left":[0,0,0,0,0,0,0,0,0,0,0,0,0,0,0],"id":67,"left_children":[1,3,5,7,-1,9,-1,-1,-1,11,13,-1,-1,-1,-1],"loss_changes":[2.3232253E0,1.0450054E0,1.3646096E0,2.2442565E0,0E0,1.17358E0,0E0,0E0,0E0,9.7777855E-1,1.3135549E0,0E0,0E0,0E0,0E0],"parents":[2147483647,0,0,1,1,2,2,3,3,5,5,9,9,10,10],"right_children":[2,4,6,8,-1,10,-1,-1,-1,12,14,-1,-1,-1,-1],"split_conditions":[-1.0714286E-1,-3.636123E-1,5.24E-1,-4.529956E-1,2.7072597E-2,5.7735026E-1,-2.7112732E-2,2.657837E-2,-1.1043813E-2,-1.3362695E-2,2.3113215E-2,-2.7224883E-2,-3.6969655E-3,1.710455E-2,-6.747833E-3],"split_indices":[12,11,33,11,0,34,0,0,0,11,11,0,0,0,0],"split_type":[0,0,0,0,0,0,0,0,0,0,0,0,0,0,0],"sum_hessian":[7.217385E1,2.2020355E1,5.0153496E1,1.4369473E1,7.650881E0,4.44639E1,5.689594E0,5.640622E0,8.728851E0,2.3506851E1,2.0957048E1,5.3495727E0,1.815728E1,1.0966272E1,9.990777E0],"tree_param":{"num_deleted":"0","num_feature":"46","num_nodes":"15","size_leaf_vector":"1"}},{"base_weights":[-2.0224435E-2,3.7965026E-2,-2.627067E-1,1.586233E-1,-2.021707E-1,-2.8387127E-2,2.3229157E-3,2.5411743E-1,-1.3890763E-2,-5.362131E-2,-2.3595832E-2,5.0603966E-3,2.6814267E-2,-1.679421E-2,1.20417215E-2],"categories":[],"categories_nodes":[],"categories_segments":[],"categories_sizes":[],"default_left":[0,0,0,0,0,0,0,0,0,0,0,0,0,0,0],"id":68,"left_children":[1,3,5,7,9,-1,-1,11,-1,13,-1,-1,-1,-1,-1],"loss_changes":[1.031524E0,1.6979269E0,1.4140894E0,1.7021585E0,7.011219E-1,0E0,0E0,1.3004687E0,0E0,1.2459848E0,0E0,0E0,0E0,0E0,0E0],"parents":[2147483647,0,0,1,1,2,2,3,3,4,4,7,7,9,9],"right_children":[2,4,6,8,10,-1,-1,12,-1,14,-1,-1,-1,-1,-1],"split_conditions":[2.134265E-1,2E0,6.666667E-1,1.5811388E0,3.6598167E1,-2.8387127E-2,2.3229157E-3,3.3E0,-1.3890763E-2,3.454033E1,-2.3595832E-2,5.0603966E-3,2.6814267E-2,-1.679421E-2,1.20417215E-2],"split_indices":[10,26,12,22,45,0,0,44,0,45,0,0,0,0,0],"split_type":[0,0,0,0,0,0,0,0,0,0,0,0,0,0,0],"sum_hessian":[6.980669E1,5.6644505E1,1.3162183E1,3.82043E1,1.8440207E1,6.36715E0,6.7950325E0,3.1876495E1,6.327804E0,1.2903654E1,5.5365524E0,2.1784399E1,1.0092097E1,6.68979E0,6.213864E0],"tree_param":{"num_deleted":"0","num_feature":"46","num_nodes":"15","size_leaf_vector":"1"}},{"base_weights":[2.259014E-2,-1.3125005E-1,3.9533556E-1,-7.607281E-3,-2.9656684E-2,4.0217724E-2,1.5380874E-1,-1.3662122E-2,7.880878E-2,2.3322225E-2,-1.1938393E-2,2.4202427E-2,-1.278161E-3],"categories":[],"categories_nodes":[],"categories_segments":[],"categories_sizes":[],"default_left":[0,0,0,0,0,0,0,0,0,0,0,0,0],"id":69,"left_children":[1,3,5,7,-1,-1,9,-1,11,-1,-1,-1,-1],"loss_changes":[4.0076456E0,2.7374647E0,1.8014939E0,9.5661706E-1,0E0,0E0,1.8834295E0,0E0,1.3520123E0,0E0,0E0,0E0,0E0],"parents":[2147483647,0,0,1,1,2,2,3,3,6,6,8,8],"right_children":[2,4,6,8,-1,-1,10,-1,12,-1,-1,-1,-1],"split_conditions":[3.6502815E1,2.857143E-1,0E0,2.1E0,-2.9656684E-2,4.0217724E-2,4.76E-1,-1.3662122E-2,-3.636123E-1,2.3322225E-2,-1.1938393E-2,2.4202427E-2,-1.278161E-3],"split_indices":[45,12,12,44,0,0,33,0,11,0,0,0,0],"split_type":[0,0,0,0,0,0,0,0,0,0,0,0,0],"sum_hessian":[6.752334E1,4.806533E1,1.9458012E1,3.888822E1,9.177109E0,6.205258E0,1.3252753E1,9.2990465E0,2.9589176E1,7.4145794E0,5.838174E0,5.5112643E0,2.4077911E1],"tree_param":{"num_deleted":"0","num_feature":"46","num_nodes":"13","size_leaf_vector":"1"}},{"base_weights":[-1.8048408E-2,-2.1361705E-2,5.2781824E-2,-1.6911711E-1,1.8497042E-1,4.4749416E-3,-2.7426186E-1,-1.9780992E-2,2.8949562E-1,-1.1389387E-3,-3.0472854E-2,3.224291E-2,8.060489E-3],"categories":[],"categories_nodes":[],"categories_segments":[],"categories_sizes":[],"default_left":[0,0,0,0,0,0,0,0,0,0,0,0,0],"id":70,"left_children":[1,-1,3,5,7,-1,9,-1,11,-1,-1,-1,-1],"loss_changes":[2.118863E0,0E0,1.8291107E0,6.7119235E-1,2.4789433E0,0E0,1.3512672E0,0E0,1.3603525E0,0E0,0E0,0E0,0E0],"parents":[2147483647,0,0,2,2,3,3,4,4,6,6,8,8],"right_children":[2,-1,4,6,8,-1,10,-1,12,-1,-1,-1,-1],"split_conditions":[2.86E-1,-2.1361705E-2,3.457546E1,-2.125152E-1,-4.0796128E-1,4.4749416E-3,6E-2,-1.9780992E-2,4.52E-1,-1.1389387E-3,-3.0472854E-2,3.224291E-2,8.060489E-3],"split_indices":[33,0,45,10,11,0,23,0,33,0,0,0,0],"split_type":[0,0,0,0,0,0,0,0,0,0,0,0,0],"sum_hessian":[7.003777E1,9.800484E0,6.0237293E1,2.2101187E1,3.8136105E1,6.1564364E0,1.5944752E1,5.247421E0,3.2888683E1,9.890563E0,6.0541887E0,7.448758E0,2.5439926E1],"tree_param":{"num_deleted":"0","num_feature":"46","num_nodes":"13","size_leaf_vector":"1"}},{"base_weights":[-4.3185618E-2,3.624695E-2,-3.3122595E-2,-2.4247907E-2,2.8284287E-2,-8.311712E-2,2.1497278E-2,-1.3538345E-2,4.467184E-3],"categories":[],"categories_nodes":[],"categories_segments":[],"categories_sizes":[],"default_left":[0,0,0,0,0,0,0,0,0],"id":71,"left_children":[1,3,-1,5,-1,7,-1,-1,-1],"loss_changes":[3.4818778E0,2.0530148E0,0E0,1.5094703E0,0E0,1.6919839E0,0E0,0E0,0E0],"parents":[2147483647,0,0,1,1,3,3,5,5],"right_children":[2,4,-1,6,-1,8,-1,-1,-1],"split_conditions":[3.584309E-1,1E0,-3.3122595E-2,9.772618E-2,2.8284287E-2,1E0,2.1497278E-2,-1.3538345E-2,4.467184E-3],"split_indices":[10,27,0,11,0,25,0,0,0],"split_type":[0,0,0,0,0,0,0,0,0],"sum_hessian":[6.802322E1,6.098121E1,7.0420027E0,5.5414722E1,5.5664883E0,4.997456E1,5.4401636E0,2.3938055E1,2.6036503E1],"tree_param":{"num_deleted":"0","num_feature":"46","num_nodes":"9","size_leaf_vector":"1"}},{"base_weights":[-1.4822135E-2,2.6611177E-2,-7.286627E-2,1.9856231E-1,-1.4730921E-1,2.5485465E-2,-1.2036619E-2,-4.1816336E-1,-5.8202237E-2,-4.7836704E-3,-3.1911954E-2,4.271786E-3,-1.2749727E-2],"categories":[],"categories_nodes":[],"categories_segments":[],"categories_sizes":[],"default_left":[0,0,0,0,0,0,0,0,0,0,0,0,0],"id":72,"left_children":[1,-1,3,5,7,-1,-1,9,11,-1,-1,-1,-1],"loss_changes":[2.2125142E0,0E0,1.3222317E0,2.0582967E0,1.1656592E0,0E0,0E0,7.3528075E-1,1.1701237E0,0E0,0E0,0E0,0E0],"parents":[2147483647,0,0,2,2,3,3,4,4,7,7,8,8],"right_children":[2,-1,4,6,8,-1,-1,10,12,-1,-1,-1,-1],"split_conditions":[-4.529956E-1,2.6611177E-2,3.55E1,2.0359643E-1,3.4373516E1,2.5485465E-2,-1.2036619E-2,1.12E-1,3.6672623E1,-4.7836704E-3,-3.1911954E-2,4.271786E-3,-1.2749727E-2],"split_indices":[11,0,19,10,45,0,0,23,45,0,0,0,0],"split_type":[0,0,0,0,0,0,0,0,0,0,0,0,0],"sum_hessian":[6.890468E1,5.660867E0,6.3243813E1,1.2964168E1,5.0279644E1,7.6284084E0,5.3357596E0,1.1254579E1,3.9025066E1,5.331352E0,5.923227E0,2.2592554E1,1.6432512E1],"tree_param":{"num_deleted":"0","num_feature":"46","num_nodes":"13","size_leaf_vector":"1"}},{"base_weights":[5.0741177E-2,2.882085E-1,-1.3807674E-1,1.6250087E-1,2.728485E-2,-2.5122738E-2,-2.0923445E-2,-2.1679766E-2,2.8485283E-2,1.0282177E-1,-2.5839826E-2,-7.122487E-3,9.828984E-3,-0E0,1.3554762E-2],"categories":[],"categories_nodes":[],"categories_segments":[],"categories_sizes":[],"default_left":[0,0,0,0,0,0,0,0,0,0,0,0,0,0,0],"id":73,"left_children":[1,3,5,7,-1,-1,9,11,-1,13,-1,-1,-1,-1,-1],"loss_changes":[3.1938734E0,8.62308E-1,1.6208016E0,1.784426E0,0E0,0E0,2.0026612E0,4.5910725E-1,0E0,4.4871253E-1,0E0,0E0,0E0,0E0,0E0],"parents":[2147483647,0,0,1,1,2,2,3,3,6,6,7,7,9,9],"right_children":[2,4,6,8,-1,-1,10,12,-1,14,-1,-1,-1,-1,-1],"split_conditions":[0E0,1.28E-1,1.2909944E0,-2.4825548E-1,2.728485E-2,-2.5122738E-2,1.5811388E0,3.4641016E-1,2.8485283E-2,3.3E0,-2.5839826E-2,-7.122487E-3,9.828984E-3,-0E0,1.3554762E-2],"split_indices":[10,23,22,11,0,0,22,35,0,44,0,0,0,0,0],"split_type":[0,0,0,0,0,0,0,0,0,0,0,0,0,0,0],"sum_hessian":[6.90089E1,3.056809E1,3.844081E1,2.1897196E1,8.670896E0,8.344559E0,3.0096252E1,1.5560356E1,6.336839E0,2.4558624E1,5.537628E0,1.0535972E1,5.024384E0,1.5776332E1,8.782292E0],"tree_param":{"num_deleted":"0","num_feature":"46","num_nodes":"15","size_leaf_vector":"1"}},{"base_weights":[2.1822276E-2,-3.1632394E-2,1.7652383E-2,-1.6645385E-1,1.2936176E-1,-2.8922936E-1,1.0609749E-2,2.2856586E-2,-1.7051158E-2,-5.496973E-4,-2.6259363E-2,-2.0372732E-2,9.426719E-3],"categories":[],"categories_nodes":[],"categories_segments":[],"categories_sizes":[],"default_left":[0,0,0,0,0,0,0,0,0,0,0,0,0],"id":74,"left_children":[1,3,-1,5,7,9,-1,-1,11,-1,-1,-1,-1],"loss_changes":[1.2523283E0,1.315715E0,0E0,1.6093619E0,1.3629513E0,1.6240807E0,0E0,0E0,1.6749285E0,0E0,0E0,0E0,0E0],"parents":[2147483647,0,0,1,1,3,3,4,4,5,5,8,8],"right_children":[2,4,-1,6,8,10,-1,-1,12,-1,-1,-1,-1],"split_conditions":[3.7366383E1,5.7735026E-1,1.7652383E-2,7E-1,6E-1,3.5109875E1,1.0609749E-2,2.2856586E-2,3.3858818E1,-5.496973E-4,-2.6259363E-2,-2.0372732E-2,9.426719E-3],"split_indices":[45,34,0,18,36,45,0,0,45,0,0,0,0],"split_type":[0,0,0,0,0,0,0,0,0,0,0,0,0],"sum_hessian":[6.7284775E1,5.8453823E1,8.8309555E0,3.2132397E1,2.6321426E1,2.4642427E1,7.4899673E0,7.6828556E0,1.8638573E1,1.19829E1,1.2659528E1,6.2584233E0,1.2380149E1],"tree_param":{"num_deleted":"0","num_feature":"46","num_nodes":"13","size_leaf_vector":"1"}},{"base_weights":[2.6932564E-2,2.1989975E-2,-2.9437179E-2,1.7952949E-2,-2.0982325E-2,-4.7257386E-2,2.2834389E-2,-8.402081E-3,7.5659486E-3],"categories":[],"categories_nodes":[],"categories_segments":[],"categories_sizes":[],"default_left":[0,0,0,0,0,0,0,0,0],"id":75,"left_children":[1,-1,3,5,-1,7,-1,-1,-1],"loss_changes":[1.7261305E0,0E0,1.230115E0,1.7146808E0,0E0,1.249915E0,0E0,0E0,0E0],"parents":[2147483647,0,0,2,2,3,3,5,5],"right_children":[2,-1,4,6,-1,8,-1,-1,-1],"split_conditions":[-3.7019116E-1,2.1989975E-2,1.5811388E0,2.3E0,-2.0982325E-2,5.7735026E-1,2.2834389E-2,-8.402081E-3,7.5659486E-3],"split_indices":[10,0,22,18,0,34,0,0,0],"split_type":[0,0,0,0,0,0,0,0,0],"sum_hessian":[7.084863E1,7.9070745E0,6.2941555E1,5.6747417E1,6.194139E0,4.998271E1,6.764706E0,3.1487665E1,1.8495045E1],"tree_param":{"num_deleted":"0","num_feature":"46","num_nodes":"9","size_leaf_vector":"1"}},{"base_weights":[-1.287023E-1,6.788414E-3,-3.3730525E-1,-1.954213E-2,7.733469E-2,1.0575312E-2,-4.9271908E-1,-1.0255104E-1,2.7753973E-1,-2.64763E-1,-4.6991315E-2,4.8516016E-4,-1.5581563E-2,2.4821034E-2,-2.5298872E-3,-3.5001603E-3,-2.3590079E-2],"categories":[],"categories_nodes":[],"categories_segments":[],"categories_sizes":[],"default_left":[0,0,0,0,0,0,0,0,0,0,0,0,0,0,0,0,0],"id":76,"left_children":[1,3,5,-1,7,-1,9,11,13,15,-1,-1,-1,-1,-1,-1,-1],"loss_changes":[2.0046184E0,1.203102E0,2.4988406E0,0E0,1.396812E0,0E0,1.8795776E0,5.078817E-1,1.382971E0,5.641787E-1,0E0,0E0,0E0,0E0,0E0,0E0,0E0],"parents":[2147483647,0,0,1,1,2,2,4,4,6,6,7,7,8,8,9,9],"right_children":[2,4,6,-1,8,-1,10,12,14,16,-1,-1,-1,-1,-1,-1,-1],"split_conditions":[1.5507464E-2,3.32986E1,3.3466217E1,-1.954213E-2,5.7735026E-1,1.0575312E-2,8.4E-2,-1.5494812E-1,-9.283644E-2,1.929745E-1,-4.6991315E-2,4.8516016E-4,-1.5581563E-2,2.4821034E-2,-2.5298872E-3,-3.5001603E-3,-2.3590079E-2],"split_indices":[11,45,45,0,34,0,23,10,11,10,0,0,0,0,0,0,0],"split_type":[0,0,0,0,0,0,0,0,0,0,0,0,0,0,0,0,0],"sum_hessian":[6.8674965E1,4.1929325E1,2.674564E1,5.4203E0,3.6509026E1,5.680781E0,2.106486E1,1.922421E1,1.7284815E1,1.5154313E1,5.9105463E0,1.2817732E1,6.406478E0,1.0243735E1,7.0410786E0,8.747096E0,6.4072165E0],"tree_param":{"num_deleted":"0","num_feature":"46","num_nodes":"17","size_leaf_vector":"1"}},{"base_weights":[-2.8894398E-2,-8.07316E-2,1.72929E-2,-1.9630764E-2,-3.0402562E-1,-1.1347622E-1,1.4123176E-1,7.4396E-4,-3.41838E-2,5.989784E-3,-1.115745E-2,1.787323E-2,-3.9231144E-3],"categories":[],"categories_nodes":[],"categories_segments":[],"categories_sizes":[],"default_left":[0,0,0,0,0,0,0,0,0,0,0,0,0],"id":77,"left_children":[1,3,-1,5,7,9,11,-1,-1,-1,-1,-1,-1],"loss_changes":[1.3712025E0,8.210635E-1,0E0,7.8130645E-1,1.6645997E0,8.833474E-1,9.489635E-1,0E0,0E0,0E0,0E0,0E0,0E0],"parents":[2147483647,0,0,1,1,3,3,4,4,5,5,6,6],"right_children":[2,4,-1,6,8,10,12,-1,-1,-1,-1,-1,-1],"split_conditions":[4E0,1E0,1.72929E-2,3.6E1,3.6E1,-2.0840812E-1,1E0,7.4396E-4,-3.41838E-2,5.989784E-3,-1.115745E-2,1.787323E-2,-3.9231144E-3],"split_indices":[44,18,0,21,19,10,25,0,0,0,0,0,0],"split_type":[0,0,0,0,0,0,0,0,0,0,0,0,0],"sum_hessian":[6.9512985E1,6.1989742E1,7.5232444E0,4.9877357E1,1.2112387E1,3.2079025E1,1.7798332E1,6.9618597E0,5.1505265E0,9.937676E0,2.214135E1,8.883181E0,8.915152E0],"tree_param":{"num_deleted":"0","num_feature":"46","num_nodes":"13","size_leaf_vector":"1"}},{"base_weights":[-3.1971242E-2,2.9555984E-2,-3.3657514E-2,2.539811E-2,-3.9451435E-2,-1.7258348E-2,2.34452E-2,1.4802937E-2,-4.761342E-3],"categories":[],"categories_nodes":[],"categories_segments":[],"categories_sizes":[],"default_left":[0,0,0,0,0,0,0,0,0],"id":78,"left_children":[1,3,-1,-1,5,-1,7,-1,-1],"loss_changes":[2.7638733E0,2.139906E0,0E0,0E0,1.1097976E0,0E0,1.5622199E0,0E0,0E0],"parents":[2147483647,0,0,1,1,4,4,6,6],"right_children":[2,4,-1,-1,6,-1,8,-1,-1],"split_conditions":[3.7760562E-1,1.7430417E-1,-3.3657514E-2,2.539811E-2,3.32986E1,-1.7258348E-2,3.4748795E1,1.4802937E-2,-4.761342E-3],"split_indices":[10,35,0,0,45,0,45,0,0],"split_type":[0,0,0,0,0,0,0,0,0],"sum_hessian":[6.692447E1,6.1792805E1,5.131666E0,7.1704597E0,5.4622345E1,8.825785E0,4.5796562E1,1.3691751E1,3.2104813E1],"tree_param":{"num_deleted":"0","num_feature":"46","num_nodes":"9","size_leaf_vector":"1"}},{"base_weights":[-1.3400498E-1,1.6595729E-2,-1.8066373E-1,-4.871238E-1,-6.0827915E-2,-9.118824E-3,-4.0728837E-2,2.1512153E-2,-1.6883855E-1,1.9479583E-3,-1.8471241E-2],"categories":[],"categories_nodes":[],"categories_segments":[],"categories_sizes":[],