{"learner":{"attributes":{"scikit_learn":"{\"_estimator_type\": \"classifier\"}"},"feature_names":[],"feature_types":[],"gradient_booster":{"model":{"cats":{"enc":[],"feature_segments":[],"sorted_idx":[]},"gbtree_model_param":{"num_parallel_tree":"1","num_trees":"200"},"iteration_indptr":[0,1,2,3,4,5,6,7,8,9,10,11,12,13,14,15,16,17,18,19,20,21,22,23,24,25,26,27,28,29,30,31,32,33,34,35,36,37,38,39,40,41,42,43,44,45,46,47,48,49,50,51,52,53,54,55,56,57,58,59,60,61,62,63,64,65,66,67,68,69,70,71,72,73,74,75,76,77,78,79,80,81,82,83,84,85,86,87,88,89,90,91,92,93,94,95,96,97,98,99,100,101,102,103,104,105,106,107,108,109,110,111,112,113,114,115,116,117,118,119,120,121,122,123,124,125,126,127,128,129,130,131,132,133,134,135,136,137,138,139,140,141,142,143,144,145,146,147,148,149,150,151,152,153,154,155,156,157,158,159,160,161,162,163,164,165,166,167,168,169,170,171,172,173,174,175,176,177,178,179,180,181,182,183,184,185,186,187,188,189,190,191,192,193,194,195,196,197,198,199,200],"tree_info":[0,0,0,0,0,0,0,0,0,0,0,0,0,0,0,0,0,0,0,0,0,0,0,0,0,0,0,0,0,0,0,0,0,0,0,0,0,0,0,0,0,0,0,0,0,0,0,0,0,0,0,0,0,0,0,0,0,0,0,0,0,0,0,0,0,0,0,0,0,0,0,0,0,0,0,0,0,0,0,0,0,0,0,0,0,0,0,0,0,0,0,0,0,0,0,0,0,0,0,0,0,0,0,0,0,0,0,0,0,0,0,0,0,0,0,0,0,0,0,0,0,0,0,0,0,0,0,0,0,0,0,0,0,0,0,0,0,0,0,0,0,0,0,0,0,0,0,0,0,0,0,0,0,0,0,0,0,0,0,0,0,0,0,0,0,0,0,0,0,0,0,0,0,0,0,0,0,0,0,0,0,0,0,0,0,0,0,0,0,0,0,0,0,0,0,0,0,0,0,0],"trees":[{"base_weights":[4.8883546E-2,4.254488E-1,-8.310088E-2,1.1615316E0,-2.6721822E-2,6.3454896E-2,3.7114404E-2,-5.225718E-1,1.756252E-1,-5.32065E-2,7.5631053E-3,4.1079093E-2,-3.185292E-3],"categories":[],"categories_nodes":[],"categories_segments":[],"categories_sizes":[],"default_left":[0,0,0,0,0,0,0,0,0,0,0,0,0],"id":0,"left_children":[1,3,-1,5,7,-1,-1,9,11,-1,-1,-1,-1],"loss_changes":[5.7353527E1,2.4462933E1,0E0,1.154747E-1,4.757309E0,0E0,0E0,5.2775373E0,5.289117E0,0E0,0E0,0E0,0E0],"parents":[2147483647,0,0,1,1,3,3,4,4,7,7,8,8],"right_children":[2,4,-1,6,8,-1,-1,10,12,-1,-1,-1,-1],"split_conditions":[1.2698413E-1,-1.4006409E-1,-8.310088E-2,8.888889E-2,8.3333336E-2,6.3454896E-2,3.7114404E-2,-1.7426338E-2,3.68E1,-5.32065E-2,7.5631053E-3,4.1079093E-2,-3.185292E-3],"split_indices":[12,10,0,24,35,0,0,10,19,0,0,0,0],"split_type":[0,0,0,0,0,0,0,0,0,0,0,0,0],"sum_hessian":[8.711592E1,7.2064476E1,1.5051441E1,2.6910152E1,4.5154324E1,1.9612484E1,7.2976685E0,1.277092E1,3.2383404E1,6.841564E0,5.9293556E0,8.209877E0,2.4173527E1],"tree_param":{"num_deleted":"0","num_feature":"46","num_nodes":"13","size_leaf_vector":"1"}},{"base_weights":[3.0492974E-2,1.031115E0,-5.3321975E-1,2.2451479E-2,1.1229244E0,-1.8382381E-1,-7.8623876E-2,6.4170085E-2,8.26655E-1,-5.5306214E-1,9.968274E-2,5.643608E-2,1.8843194E-2,-5.0933845E-2,-4.0990524E-3,-2.5407165E-2,1.9452265E-2],"categories":[],"categories_nodes":[],"categories_segments":[],"categories_sizes":[],"default_left":[0,0,0,0,0,0,0,0,0,0,0,0,0,0,0,0,0],"id":1,"left_children":[1,3,5,-1,7,9,-1,-1,11,13,15,-1,-1,-1,-1,-1,-1],"loss_changes":[5.0098427E1,1.0501404E0,2.013352E1,0E0,4.5928955E-3,4.670684E0,0E0,0E0,1.1172724E0,4.032712E0,4.651477E0,0E0,0E0,0E0,0E0,0E0,0E0],"parents":[2147483647,0,0,1,1,2,2,4,4,5,5,8,8,9,9,10,10],"right_children":[2,4,6,-1,8,10,-1,-1,12,14,16,-1,-1,-1,-1,-1,-1],"split_conditions":[-1.4281754E-1,3.4E1,1.3057324E-1,2.2451479E-2,2E0,1.0300591E-1,-7.8623876E-2,6.4170085E-2,-1.7279412E-1,-1.119403E-2,3.571174E1,5.643608E-2,1.8843194E-2,-5.0933845E-2,-4.0990524E-3,-2.5407165E-2,1.9452265E-2],"split_indices":[11,45,12,0,26,35,0,0,12,10,45,0,0,0,0,0,0],"split_type":[0,0,0,0,0,0,0,0,0,0,0,0,0,0,0,0,0],"sum_hessian":[8.6754005E1,3.1027205E1,5.5726803E1,5.1779995E0,2.5849205E1,4.265829E1,1.3068512E1,1.4386966E1,1.1462239E1,1.826801E1,2.4390282E1,5.821158E0,5.641081E0,8.495947E0,9.772063E0,7.511078E0,1.6879204E1],"tree_param":{"num_deleted":"0","num_feature":"46","num_nodes":"17","size_leaf_vector":"1"}},{"base_weights":[9.105008E-3,9.5876086E-1,-4.5860502E-1,1.5782962E-2,5.580152E-2,-1.6231927E-1,-6.916098E-2,7.2040022E-3,-3.656392E-2,1.0089779E-2,-2.5946373E-2],"categories":[],"categories_nodes":[],"categories_segments":[],"categories_sizes":[],"default_left":[0,0,0,0,0,0,0,0,0,0,0],"id":2,"left_children":[1,3,5,-1,-1,7,-1,9,-1,-1,-1],"loss_changes":[3.9134426E1,2.4482021E0,1.5756834E1,0E0,0E0,4.4972715E0,0E0,3.7748826E0,0E0,0E0,0E0],"parents":[2147483647,0,0,1,1,2,2,5,5,7,7],"right_children":[2,4,6,-1,-1,8,-1,10,-1,-1,-1],"split_conditions":[-1.2131363E-1,3.435787E1,1.3057324E-1,1.5782962E-2,5.580152E-2,5.85E-1,-6.916098E-2,3.8E1,-3.656392E-2,1.0089779E-2,-2.5946373E-2],"split_indices":[10,45,12,0,0,33,0,19,0,0,0],"split_type":[0,0,0,0,0,0,0,0,0,0,0],"sum_hessian":[8.60056E1,2.810469E1,5.7900906E1,6.238279E0,2.1866411E1,4.4821804E1,1.3079102E1,3.515795E1,9.663851E0,2.6254248E1,8.903706E0],"tree_param":{"num_deleted":"0","num_feature":"46","num_nodes":"11","size_leaf_vector":"1"}},{"base_weights":[-1.0229757E-1,9.333029E-1,-5.8571076E-1,6.246791E-2,6.537559E-1,-2.1781787E-1,-1.279896E0,5.2317064E-3,8.722355E-1,-6.5313864E-1,3.9777488E-2,-3.2520737E-2,-7.282147E-2,5.4814976E-2,2.3932368E-2,-9.630919E-3,-5.8515877E-2,-1.7533215E-2,1.2376635E-2],"categories":[],"categories_nodes":[],"categories_segments":[],"categories_sizes":[],"default_left":[0,0,0,0,0,0,0,0,0,0,0,0,0,0,0,0,0,0,0],"id":3,"left_children":[1,3,5,-1,7,9,11,-1,13,15,17,-1,-1,-1,-1,-1,-1,-1,-1],"loss_changes":[4.5169098E1,1.5293236E0,1.5276484E1,0E0,1.9104786E0,4.740226E0,1.1758804E0,0E0,3.982544E-1,3.3602E0,2.2557726E0,0E0,0E0,0E0,0E0,0E0,0E0,0E0,0E0],"parents":[2147483647,0,0,1,1,2,2,4,4,5,5,6,6,8,8,9,9,10,10],"right_children":[2,4,6,-1,8,10,12,-1,14,16,18,-1,-1,-1,-1,-1,-1,-1,-1],"split_conditions":[-1.4281754E-1,-2.3739953E-1,-5.0810515E-3,6.246791E-2,-2.157488E-1,0E0,1.3057324E-1,5.2317064E-3,-1.4006409E-1,2E0,-1.7426338E-2,-3.2520737E-2,-7.282147E-2,5.4814976E-2,2.3932368E-2,-9.630919E-3,-5.8515877E-2,-1.7533215E-2,1.2376635E-2],"split_indices":[11,10,11,0,10,12,12,0,10,23,10,0,0,0,0,0,0,0,0],"split_type":[0,0,0,0,0,0,0,0,0,0,0,0,0,0,0,0,0,0,0],"sum_hessian":[8.820328E1,2.770794E1,6.0495335E1,1.1208588E1,1.6499353E1,4.049323E1,2.0002108E1,5.247366E0,1.12519865E1,1.4627058E1,2.586617E1,5.5309E0,1.4471208E1,5.870516E0,5.381471E0,8.565624E0,6.0614343E0,8.577313E0,1.7288857E1],"tree_param":{"num_deleted":"0","num_feature":"46","num_nodes":"19","size_leaf_vector":"1"}},{"base_weights":[2.1261595E-2,9.436148E-1,-4.2641747E-1,6.2612E-2,6.329736E-1,-1.3775249E-1,-7.0902154E-2,2.2639562E-3,8.60008E-1,9.608629E-2,-8.119978E-1,5.5039752E-2,2.2702096E-2,-3.3143453E-2,1.5809624E-2,-6.859952E-2,-1.253551E-2],"categories":[],"categories_nodes":[],"categories_segments":[],"categories_sizes":[],"default_left":[0,0,0,0,0,0,0,0,0,0,0,0,0,0,0,0,0],"id":4,"left_children":[1,3,5,-1,7,9,-1,-1,11,13,15,-1,-1,-1,-1,-1,-1],"loss_changes":[3.8369705E1,1.9322891E0,1.752082E1,0E0,2.1826377E0,7.960833E0,0E0,0E0,5.491514E-1,6.450945E0,3.5716133E0,0E0,0E0,0E0,0E0,0E0,0E0],"parents":[2147483647,0,0,1,1,2,2,4,4,5,5,8,8,9,9,10,10],"right_children":[2,4,6,-1,8,10,-1,-1,12,14,16,-1,-1,-1,-1,-1,-1],"split_conditions":[-1.4281754E-1,-2.3739953E-1,7.620646E-2,6.2612E-2,-2.129888E-1,2.6E0,-7.0902154E-2,2.2639562E-3,1E0,8.3333336E-2,1E0,5.5039752E-2,2.2702096E-2,-3.3143453E-2,1.5809624E-2,-6.859952E-2,-1.253551E-2],"split_indices":[11,10,10,0,10,23,0,0,25,35,25,0,0,0,0,0,0],"split_type":[0,0,0,0,0,0,0,0,0,0,0,0,0,0,0,0,0],"sum_hessian":[9.082354E1,2.9388988E1,6.143455E1,1.3060344E1,1.6328644E1,4.854324E1,1.2891313E1,5.007159E0,1.13214855E1,3.656953E1,1.1973707E1,5.877529E0,5.443956E0,7.666952E0,2.890258E1,5.1815686E0,6.7921386E0],"tree_param":{"num_deleted":"0","num_feature":"46","num_nodes":"17","size_leaf_vector":"1"}},{"base_weights":[1.6283663E-2,4.7232002E-2,-4.6068987E-1,-1.7527431E-1,-1.1611917E0,2.0787064E-2,-3.4611964E-1,-7.254145E-2,-2.067775E-2,-4.5252237E-2,1.0728048E-3],"categories":[],"categories_nodes":[],"categories_segments":[],"categories_sizes":[],"default_left":[0,0,0,0,0,0,0,0,0,0,0],"id":5,"left_children":[1,-1,3,5,7,-1,9,-1,-1,-1,-1],"loss_changes":[4.0957695E1,0E0,1.1855338E1,4.6410885E0,2.9759655E0,0E0,7.3562865E0,0E0,0E0,0E0,0E0],"parents":[2147483647,0,0,2,2,3,3,4,4,6,6],"right_children":[2,-1,4,6,8,-1,10,-1,-1,-1,-1],"split_conditions":[-1.011624E-1,4.7232002E-2,1.2698413E-1,3E0,3.560037E1,2.0787064E-2,1.0300591E-1,-7.254145E-2,-2.067775E-2,-4.5252237E-2,1.0728048E-3],"split_indices":[10,0,12,37,45,0,35,0,0,0,0],"split_type":[0,0,0,0,0,0,0,0,0,0,0],"sum_hessian":[9.0404655E1,3.042201E1,5.9982647E1,4.360784E1,1.6374805E1,9.326243E0,3.4281597E1,1.1028149E1,5.346657E0,1.3128552E1,2.1153044E1],"tree_param":{"num_deleted":"0","num_feature":"46","num_nodes":"11","size_leaf_vector":"1"}},{"base_weights":[3.6382116E-2,9.5048755E-1,-3.6308306E-1,2.4515716E-2,5.7528563E-2,-4.7010627E-2,-1.1517229E0,-2.710817E-1,3.7229374E-1,-1.3523027E0,-3.015086E-2,1.4739938E-2,-2.1479012E-2,-5.863055E-4,3.4311872E-2,-3.8307164E-2,-8.568454E-2],"categories":[],"categories_nodes":[],"categories_segments":[],"categories_sizes":[],"default_left":[0,0,0,0,0,0,0,0,0,0,0,0,0,0,0,0,0],"id":6,"left_children":[1,3,5,-1,-1,7,9,11,13,15,-1,-1,-1,-1,-1,-1,-1],"loss_changes":[3.24084E1,1.7583427E0,1.5190919E1,0E0,0E0,4.331635E0,9.1537476E-1,2.8444214E0,2.0027905E0,9.55492E-1,0E0,0E0,0E0,0E0,0E0,0E0,0E0],"parents":[2147483647,0,0,1,1,2,2,5,5,6,6,7,7,8,8,9,9],"right_children":[2,4,6,-1,-1,8,10,12,14,16,-1,-1,-1,-1,-1,-1,-1],"split_conditions":[-1.3706902E-1,2.9E1,1.2698413E-1,2.4515716E-2,5.7528563E-2,0E0,3.560037E1,2.8E1,1E0,3.406723E1,-3.015086E-2,1.4739938E-2,-2.1479012E-2,-5.863055E-4,3.4311872E-2,-3.8307164E-2,-8.568454E-2],"split_indices":[10,44,12,0,0,10,45,44,25,45,0,0,0,0,0,0,0],"split_type":[0,0,0,0,0,0,0,0,0,0,0,0,0,0,0,0,0],"sum_hessian":[8.6646904E1,2.600652E1,6.0640385E1,9.078099E0,1.6928421E1,4.4137352E1,1.6503035E1,2.9151264E1,1.4986088E1,1.0879314E1,5.6237206E0,6.0522633E0,2.3099E1,7.0304604E0,7.9556274E0,5.4447784E0,5.434536E0],"tree_param":{"num_deleted":"0","num_feature":"46","num_nodes":"17","size_leaf_vector":"1"}},{"base_weights":[-2.4447722E-2,8.838765E-1,-3.9934096E-1,2.113436E-2,5.2071463E-2,-1.9517286E-1,-5.7983663E-2,1.9769242E-2,-7.7250606E-1,-1.6118387E-2,1.4347036E-2,-5.848779E-2,-1.3340435E-2],"categories":[],"categories_nodes":[],"categories_segments":[],"categories_sizes":[],"default_left":[0,0,0,0,0,0,0,0,0,0,0,0,0],"id":7,"left_children":[1,3,5,-1,-1,7,-1,9,11,-1,-1,-1,-1],"loss_changes":[3.0548454E1,1.315733E0,9.516572E0,0E0,0E0,6.4776826E0,0E0,3.5950065E0,2.379775E0,0E0,0E0,0E0,0E0],"parents":[2147483647,0,0,1,1,2,2,5,5,7,7,8,8],"right_children":[2,4,6,-1,-1,8,-1,10,12,-1,-1,-1,-1],"split_conditions":[-1.2131363E-1,2.9E1,7.620646E-2,2.113436E-2,5.2071463E-2,2.6E0,-5.7983663E-2,-1.675451E-2,1E0,-1.6118387E-2,1.4347036E-2,-5.848779E-2,-1.3340435E-2],"split_indices":[10,44,10,0,0,23,0,10,25,0,0,0,0],"split_type":[0,0,0,0,0,0,0,0,0,0,0,0,0],"sum_hessian":[8.781573E1,2.5180876E1,6.2634853E1,7.511298E0,1.7669579E1,5.047049E1,1.2164365E1,3.7355515E1,1.3114973E1,1.6125055E1,2.123046E1,6.4988832E0,6.6160893E0],"tree_param":{"num_deleted":"0","num_feature":"46","num_nodes":"13","size_leaf_vector":"1"}},{"base_weights":[1.8741852E-3,8.270869E-1,-4.2331845E-1,9.388133E-1,1.7414404E-2,-1.8280773E-1,-1.0954142E0,5.267186E-2,2.6699802E-2,-6.3049996E-1,8.245592E-4,-3.3304173E-2,-6.726056E-2,-5.7899762E-2,-4.1117053E-3,1.4410346E-2,-3.0613152E-2],"categories":[],"categories_nodes":[],"categories_segments":[],"categories_sizes":[],"default_left":[0,0,0,0,0,0,0,0,0,0,0,0,0,0,0,0,0],"id":8,"left_children":[1,3,5,7,-1,9,11,-1,-1,13,15,-1,-1,-1,-1,-1,-1],"loss_changes":[3.1388838E1,1.1737556E0,9.190619E0,3.894844E-1,0E0,3.7364075E0,5.339527E-1,0E0,0E0,3.5852165E0,5.8741384E0,0E0,0E0,0E0,0E0,0E0,0E0],"parents":[2147483647,0,0,1,1,2,2,3,3,5,5,6,6,9,9,10,10],"right_children":[2,4,6,8,-1,10,12,-1,-1,14,16,-1,-1,-1,-1,-1,-1],"split_conditions":[-2.866242E-2,-1.7412022E-1,1.3057324E-1,8.888889E-2,1.7414404E-2,-7.024793E-2,2.1268657E-1,5.267186E-2,2.6699802E-2,8.3333336E-2,3.8E1,-3.3304173E-2,-6.726056E-2,-5.7899762E-2,-4.1117053E-3,1.4410346E-2,-3.0613152E-2],"split_indices":[12,11,12,24,0,11,12,0,0,35,19,0,0,0,0,0,0],"split_type":[0,0,0,0,0,0,0,0,0,0,0,0,0,0,0,0,0],"sum_hessian":[8.734598E1,2.9460024E1,5.7885952E1,2.2937904E1,6.5221205E0,4.3676884E1,1.420907E1,1.6435047E1,6.502857E0,1.2154791E1,3.152209E1,6.7222476E0,7.4868226E0,5.534991E0,6.6198006E0,2.193375E1,9.588341E0],"tree_param":{"num_deleted":"0","num_feature":"46","num_nodes":"17","size_leaf_vector":"1"}},{"base_weights":[-2.5035305E-2,7.5984687E-1,-4.1689336E-1,4.1385671E-1,4.9420904E-2,-7.1228915E-1,6.569415E-2,2.9433612E-2,9.575452E-3,-9.3218046E-1,1.2578631E-2,3.7982237E-1,-4.2436507E-2,-2.4933489E-2,-5.3046025E-2,5.8179954E-3,4.057924E-2],"categories":[],"categories_nodes":[],"categories_segments":[],"categories_sizes":[],"default_left":[0,0,0,0,0,0,0,0,0,0,0,0,0,0,0,0,0],"id":9,"left_children":[1,3,5,7,-1,9,11,-1,-1,13,-1,15,-1,-1,-1,-1,-1],"loss_changes":[2.7437067E1,1.7971172E0,8.610493E0,3.4167075E-1,0E0,8.1859455E0,7.0040126E0,0E0,0E0,1.0218353E0,0E0,1.8838913E0,0E0,0E0,0E0,0E0,0E0],"parents":[2147483647,0,0,1,1,2,2,3,3,5,5,6,6,9,9,11,11],"right_children":[2,4,6,8,-1,10,12,-1,-1,14,-1,16,-1,-1,-1,-1,-1],"split_conditions":[-9.710463E-2,3.560037E1,2E1,-2.2243519E-1,4.9420904E-2,3.677712E1,3.8E1,2.9433612E-2,9.575452E-3,2.65E1,1.2578631E-2,3.1E1,-4.2436507E-2,-2.4933489E-2,-5.3046025E-2,5.8179954E-3,4.057924E-2],"split_indices":[10,45,30,10,0,45,19,0,0,44,0,44,0,0,0,0,0],"split_type":[0,0,0,0,0,0,0,0,0,0,0,0,0,0,0,0,0],"sum_hessian":[8.728969E1,2.867003E1,5.8619656E1,1.2697638E1,1.5972394E1,3.6195396E1,2.2424261E1,5.934502E0,6.763135E0,2.958306E1,6.612336E0,1.7207153E1,5.217108E0,8.067454E0,2.1515606E1,1.1618577E1,5.588576E0],"tree_param":{"num_deleted":"0","num_feature":"46","num_nodes":"17","size_leaf_vector":"1"}},{"base_weights":[-8.584382E-3,2.4417062E-1,-9.466156E-1,7.963584E-1,-3.395333E-2,-1.1502411E0,-1.47087695E-2,4.6891596E-2,1.3854838E-2,-2.2518314E-1,3.2571968E-1,-3.4633074E-2,-6.629967E-2,1.3511549E-2,-1.7771974E-2,-1.0141584E-2,3.7133604E-2],"categories":[],"categories_nodes":[],"categories_segments":[],"categories_sizes":[],"default_left":[0,0,0,0,0,0,0,0,0,0,0,0,0,0,0,0,0],"id":10,"left_children":[1,3,5,7,9,11,-1,-1,-1,13,15,-1,-1,-1,-1,-1,-1],"loss_changes":[2.1761656E1,1.1162789E1,2.1080322E0,1.4025116E0,3.414948E0,3.7923813E-2,0E0,0E0,0E0,2.207472E0,3.9824786E0,0E0,0E0,0E0,0E0,0E0,0E0],"parents":[2147483647,0,0,1,1,2,2,3,3,4,4,5,5,9,9,10,10],"right_children":[2,4,6,8,10,12,-1,-1,-1,14,16,-1,-1,-1,-1,-1,-1],"split_conditions":[-5.0810515E-3,-1.4006409E-1,3.645E1,8.888889E-2,0E0,3.406723E1,-1.47087695E-2,4.6891596E-2,1.3854838E-2,-1.4281754E-1,1E0,-3.4633074E-2,-6.629967E-2,1.3511549E-2,-1.7771974E-2,-1.0141584E-2,3.7133604E-2],"split_indices":[11,10,45,24,10,45,0,0,0,11,25,0,0,0,0,0,0],"split_type":[0,0,0,0,0,0,0,0,0,0,0,0,0,0,0,0,0],"sum_hessian":[8.951451E1,7.101297E1,1.8501541E1,2.3283031E1,4.7729942E1,1.3402415E1,5.099126E0,1.751294E1,5.7700915E0,3.1587534E1,1.6142408E1,5.2483053E0,8.15411E0,6.19256E0,2.5394974E1,7.2392483E0,8.903159E0],"tree_param":{"num_deleted":"0","num_feature":"46","num_nodes":"17","size_leaf_vector":"1"}},{"base_weights":[2.9047756E-2,7.6977944E-1,-3.0780545E-1,4.8034787E-2,5.054661E-1,-5.245477E-2,-4.6179067E-2,9.34293E-3,3.6764994E-2,-4.3845975E-1,2.8335145E-1,7.183681E-3,-3.9507408E-2,4.770952E-3,3.8093675E-2],"categories":[],"categories_nodes":[],"categories_segments":[],"categories_sizes":[],"default_left":[0,0,0,0,0,0,0,0,0,0,0,0,0,0,0],"id":11,"left_children":[1,3,5,-1,7,9,-1,-1,-1,11,13,-1,-1,-1,-1],"loss_changes":[2.0918913E1,6.914625E-1,8.890669E0,0E0,7.465749E-1,5.557976E0,0E0,0E0,0E0,4.2681684E0,1.893984E0,0E0,0E0,0E0,0E0],"parents":[2147483647,0,0,1,1,2,2,4,4,5,5,9,9,10,10],"right_children":[2,4,6,-1,8,10,-1,-1,-1,12,14,-1,-1,-1,-1],"split_conditions":[-1.4281754E-1,1E0,1.2698413E-1,4.8034787E-2,2.93E1,1.0300591E-1,-4.6179067E-2,9.34293E-3,3.6764994E-2,2.3874674E0,3.5939765E0,7.183681E-3,-3.9507408E-2,4.770952E-3,3.8093675E-2],"split_indices":[11,25,12,0,44,35,0,0,0,34,34,0,0,0,0],"split_type":[0,0,0,0,0,0,0,0,0,0,0,0,0,0,0],"sum_hessian":[8.17026E1,2.5231289E1,5.647131E1,1.2900268E1,1.233102E1,4.0799927E1,1.5671382E1,6.1096377E0,6.2213826E0,1.8977562E1,2.1822367E1,7.262845E0,1.1714716E1,1.6679947E1,5.1424212E0],"tree_param":{"num_deleted":"0","num_feature":"46","num_nodes":"15","size_leaf_vector":"1"}},{"base_weights":[-1.3280547E-2,7.384868E-1,-3.8656586E-1,1.5626507E-2,4.1646507E-2,-2.2729762E-1,-8.905653E-1,-6.6734475E-1,-1.954276E-2,-6.448687E-2,-1.4117918E-2,-5.52175E-2,-5.7718586E-3,2.3689957E-2,-1.390558E-2],"categories":[],"categories_nodes":[],"categories_segments":[],"categories_sizes":[],"default_left":[0,0,0,0,0,0,0,0,0,0,0,0,0,0,0],"id":12,"left_children":[1,3,5,-1,-1,7,9,11,13,-1,-1,-1,-1,-1,-1],"loss_changes":[2.418248E1,7.737007E-1,4.319951E0,0E0,0E0,4.0653505E0,2.7244291E0,3.2147937E0,4.194033E0,0E0,0E0,0E0,0E0,0E0,0E0],"parents":[2147483647,0,0,1,1,2,2,5,5,6,6,7,7,8,8],"right_children":[2,4,6,-1,-1,8,10,12,14,-1,-1,-1,-1,-1,-1],"split_conditions":[-1.4281754E-1,3.43339E1,5.506654E-2,1.5626507E-2,4.1646507E-2,8.3333336E-2,3.560037E1,1E0,3.6E1,-6.448687E-2,-1.4117918E-2,-5.52175E-2,-5.7718586E-3,2.3689957E-2,-1.390558E-2],"split_indices":[11,45,10,0,0,35,45,25,21,0,0,0,0,0,0],"split_type":[0,0,0,0,0,0,0,0,0,0,0,0,0,0,0],"sum_hessian":[8.4282166E1,2.7550795E1,5.6731373E1,5.974176E0,2.1576618E1,4.4361996E1,1.2369379E1,1.336339E1,3.0998604E1,6.6922297E0,5.67715E0,6.798288E0,6.5651016E0,1.0240635E1,2.075797E1],"tree_param":{"num_deleted":"0","num_feature":"46","num_nodes":"15","size_leaf_vector":"1"}},{"base_weights":[5.673243E-2,-2.3978569E-1,7.9881763E-1,-5.485509E-1,3.132209E-1,1.9202499E-2,5.039065E-2,-7.9216284E-1,6.662346E-3,5.5449075E-1,-1.1273119E-2,-8.85497E-3,-5.5150148E-2,7.738733E-3,4.1808333E-2],"categories":[],"categories_nodes":[],"categories_segments":[],"categories_sizes":[],"default_left":[0,0,0,0,0,0,0,0,0,0,0,0,0,0,0],"id":13,"left_children":[1,3,5,7,9,-1,-1,11,-1,13,-1,-1,-1,-1,-1],"loss_changes":[1.8225988E1,1.0278334E1,1.5241747E0,6.545027E0,2.975379E0,0E0,0E0,5.1299877E0,0E0,1.504199E0,0E0,0E0,0E0,0E0,0E0],"parents":[2147483647,0,0,1,1,2,2,3,3,4,4,7,7,9,9],"right_children":[2,4,6,8,10,-1,-1,12,-1,14,-1,-1,-1,-1,-1],"split_conditions":[7.86E-1,2E1,2.9E1,3.65E1,3.72E1,1.9202499E-2,5.039065E-2,-9.117928E-2,6.662346E-3,1E0,-1.1273119E-2,-8.85497E-3,-5.5150148E-2,7.738733E-3,4.1808333E-2],"split_indices":[33,30,44,45,19,0,0,11,0,25,0,0,0,0,0],"split_type":[0,0,0,0,0,0,0,0,0,0,0,0,0,0,0],"sum_hessian":[8.0705154E1,5.8051422E1,2.265373E1,3.7373318E1,2.06781E1,8.701333E0,1.3952398E1,2.752368E1,9.849639E0,1.4389505E1,6.288596E0,9.875113E0,1.7648567E1,6.7356644E0,7.653841E0],"tree_param":{"num_deleted":"0","num_feature":"46","num_nodes":"15","size_leaf_vector":"1"}},{"base_weights":[-1.2838202E-2,4.74514E-1,-3.6322978E-1,6.728666E-1,-0E0,-8.044158E-2,-8.497923E-1,4.5683693E-2,3.4825748E-1,1.4682542E-2,-1.4756816E-2,-4.0137178E-1,1.7597899E-1,-5.392413E-1,-6.2737904E-2,-0E0,2.9698938E-2,-4.070347E-2,-1.7286371E-3,2.0553892E-2,-7.7165025E-3,-1.2825741E-2,-3.5976846E-2],"categories":[],"categories_nodes":[],"categories_segments":[],"categories_sizes":[],"default_left":[0,0,0,0,0,0,0,0,0,0,0,0,0,0,0,0,0,0,0,0,0,0,0],"id":14,"left_children":[1,3,5,7,9,11,13,-1,15,-1,-1,17,19,21,-1,-1,-1,-1,-1,-1,-1,-1,-1],"loss_changes":[1.4075727E1,3.2279468E0,6.455307E0,1.4500408E0,1.0538511E0,2.6975217E0,1.3374319E0,0E0,9.905194E-1,0E0,0E0,2.087045E0,1.4957364E0,3.1752133E-1,0E0,0E0,0E0,0E0,0E0,0E0,0E0,0E0,0E0],"parents":[2147483647,0,0,1,1,2,2,3,3,4,4,5,5,6,6,8,8,11,11,12,12,13,13],"right_children":[2,4,6,8,10,12,14,-1,16,-1,-1,18,20,22,-1,-1,-1,-1,-1,-1,-1,-1,-1],"split_conditions":[-3.5784632E-2,8.888889E-2,5.633352E-3,1E0,-2.611911E-1,0E0,7.6696165E-2,4.5683693E-2,2E0,1.4682542E-2,-1.4756816E-2,1E0,2.57E1,5.9815086E-2,-6.2737904E-2,-0E0,2.9698938E-2,-4.070347E-2,-1.7286371E-3,2.0553892E-2,-7.7165025E-3,-1.2825741E-2,-3.5976846E-2],"split_indices":[10,24,11,25,11,10,24,0,23,0,0,25,18,11,0,0,0,0,0,0,0,0,0],"split_type":[0,0,0,0,0,0,0,0,0,0,0,0,0,0,0,0,0,0,0,0,0,0,0],"sum_hessian":[8.0483734E1,3.3395294E1,4.7088444E1,2.3235287E1,1.0160008E1,3.064724E1,1.6441202E1,1.212084E1,1.1114446E1,5.119011E0,5.040998E0,1.3533595E1,1.7113644E1,1.0764712E1,5.6764903E0,5.14244E0,5.9720063E0,5.66627E0,7.867325E0,1.0031735E1,7.081908E0,5.351021E0,5.4136915E0],"tree_param":{"num_deleted":"0","num_feature":"46","num_nodes":"23","size_leaf_vector":"1"}},{"base_weights":[5.388601E-2,8.687093E-1,-2.2389722E-1,1.6060306E-2,5.09816E-2,-8.4636176E-1,-2.473902E-3,-5.6706708E-2,-1.6145512E-2,-4.7010562E-1,1.746877E-1,-4.427566E-2,-5.0108E-3,2.4937168E-2,-1.0837134E-2],"categories":[],"categories_nodes":[],"categories_segments":[],"categories_sizes":[],"default_left":[0,0,0,0,0,0,0,0,0,0,0,0,0,0,0],"id":15,"left_children":[1,3,5,-1,-1,7,9,-1,-1,11,13,-1,-1,-1,-1],"loss_changes":[1.9317917E1,1.3318367E0,8.664987E0,0E0,0E0,1.979536E0,4.0849204E0,0E0,0E0,1.9028802E0,4.621058E0,0E0,0E0,0E0,0E0],"parents":[2147483647,0,0,1,1,2,2,5,5,6,6,9,9,10,10],"right_children":[2,4,6,-1,-1,8,10,-1,-1,12,14,-1,-1,-1,-1],"split_conditions":[-1.4006409E-1,3.435787E1,4.29E-1,1.6060306E-2,5.09816E-2,1.4069414E-1,8.3333336E-2,-5.6706708E-2,-1.6145512E-2,-3.0713242E-2,3.72E1,-4.427566E-2,-5.0108E-3,2.4937168E-2,-1.0837134E-2],"split_indices":[10,45,33,0,0,10,35,0,0,10,20,0,0,0,0],"split_type":[0,0,0,0,0,0,0,0,0,0,0,0,0,0,0],"sum_hessian":[8.32033E1,2.070421E1,6.2499092E1,5.2931376E0,1.5411073E1,1.5539763E1,4.6959328E1,9.151148E0,6.388616E0,1.2603179E1,3.435615E1,5.1523957E0,7.4507837E0,1.878545E1,1.5570699E1],"tree_param":{"num_deleted":"0","num_feature":"46","num_nodes":"15","size_leaf_vector":"1"}},{"base_weights":[5.7474777E-2,8.3457696E-1,-2.2124863E-1,4.6502892E-2,2.1775587E-2,-5.4947793E-2,-7.8499204E-1,1.9519811E-2,-1.7019011E-1,-4.924558E-2,-1.9469356E-2,-3.1164167E-2,5.254572E-3],"categories":[],"categories_nodes":[],"categories_segments":[],"categories_sizes":[],"default_left":[0,0,0,0,0,0,0,0,0,0,0,0,0],"id":16,"left_children":[1,3,5,-1,-1,7,9,-1,11,-1,-1,-1,-1],"loss_changes":[1.7118803E1,2.535553E-1,5.3133407E0,0E0,0E0,2.4064903E0,5.077677E-1,0E0,4.7868304E0,0E0,0E0,0E0,0E0],"parents":[2147483647,0,0,1,1,2,2,5,5,6,6,8,8],"right_children":[2,4,6,-1,-1,8,10,-1,12,-1,-1,-1,-1],"split_conditions":[-1.4006409E-1,8.888889E-2,1.3057324E-1,4.6502892E-2,2.1775587E-2,2.75E1,3.4641426E1,1.9519811E-2,3.571174E1,-4.924558E-2,-1.9469356E-2,-3.1164167E-2,5.254572E-3],"split_indices":[10,24,12,0,0,44,45,0,45,0,0,0,0],"split_type":[0,0,0,0,0,0,0,0,0,0,0,0,0],"sum_hessian":[7.6899765E1,1.9868727E1,5.7031036E1,1.4756816E1,5.1119113E0,4.502407E1,1.2006968E1,8.586589E0,3.643748E1,6.8187103E0,5.188257E0,1.3430675E1,2.3006805E1],"tree_param":{"num_deleted":"0","num_feature":"46","num_nodes":"13","size_leaf_vector":"1"}},{"base_weights":[-2.0781862E-2,6.810418E-1,-2.6468736E-1,4.5193348E-2,4.2936096E-1,-3.9937537E-2,-7.5309247E-1,2.7822952E-3,3.7269447E-2,1.1946038E-1,-3.9801997E-1,-5.183673E-2,-9.123787E-3,1.5473348E-2,-2.2642834E-2,-3.31726E-2,-2.9459093E-3],"categories":[],"categories_nodes":[],"categories_segments":[],"categories_sizes":[],"default_left":[0,0,0,0,0,0,0,0,0,0,0,0,0,0,0,0,0],"id":17,"left_children":[1,3,5,-1,7,9,11,-1,-1,13,15,-1,-1,-1,-1,-1,-1],"loss_changes":[1.3783279E1,6.412325E-1,6.474398E0,0E0,1.278074E0,2.488221E0,2.7164707E0,0E0,0E0,3.3693554E0,1.0988545E0,0E0,0E0,0E0,0E0,0E0,0E0],"parents":[2147483647,0,0,1,1,2,2,4,4,5,5,6,6,9,9,10,10],"right_children":[2,4,6,-1,8,10,12,-1,-1,14,16,-1,-1,-1,-1,-1,-1],"split_conditions":[-1.4006409E-1,-2.3739953E-1,-9.205702E-4,4.5193348E-2,-2.1120419E-1,5.85E-1,3.7E1,2.7822952E-3,3.7269447E-2,3.75E1,3.7E1,-5.183673E-2,-9.123787E-3,1.5473348E-2,-2.2642834E-2,-3.31726E-2,-2.9459093E-3],"split_indices":[10,10,11,0,10,33,19,0,0,19,19,0,0,0,0,0,0],"split_type":[0,0,0,0,0,0,0,0,0,0,0,0,0,0,0,0,0],"sum_hessian":[7.871002E1,1.9731516E1,5.8978504E1,8.880515E0,1.0851001E1,4.1272583E1,1.7705921E1,5.6555753E0,5.1954255E0,2.882739E1,1.244519E1,1.116427E1,6.5416517E0,2.211824E1,6.7091503E0,6.2789474E0,6.166243E0],"tree_param":{"num_deleted":"0","num_feature":"46","num_nodes":"17","size_leaf_vector":"1"}},{"base_weights":[-7.1673496E-3,6.341289E-1,-2.761077E-1,3.7470368E-1,4.21915E-2,-9.2863746E-2,-7.4819005E-1,4.0356524E-2,-2.7651908E-3,-4.3442324E-2,6.6258796E-2,-4.5268904E-2,-2.2277163E-2,1.4441351E-2,-8.179532E-3],"categories":[],"categories_nodes":[],"categories_segments":[],"categories_sizes":[],"default_left":[0,0,0,0,0,0,0,0,0,0,0,0,0,0,0],"id":18,"left_children":[1,3,5,7,-1,9,11,-1,-1,-1,13,-1,-1,-1,-1],"loss_changes":[1.4478029E1,9.088068E-1,4.983154E0,2.551732E0,0E0,5.579468E0,2.374134E-1,0E0,0E0,0E0,1.9727073E0,0E0,0E0,0E0,0E0],"parents":[2147483647,0,0,1,1,2,2,3,3,5,5,6,6,10,10],"right_children":[2,4,6,8,-1,10,12,-1,-1,-1,14,-1,-1,-1,-1],"split_conditions":[-1.4281754E-1,2.93E1,1.2698413E-1,2E0,4.21915E-2,-1.11733355E-1,1.4069414E-1,4.0356524E-2,-2.7651908E-3,-4.3442324E-2,2.13E1,-4.5268904E-2,-2.2277163E-2,1.4441351E-2,-8.179532E-3],"split_indices":[11,44,12,26,0,11,10,0,0,0,18,0,0,0,0],"split_type":[0,0,0,0,0,0,0,0,0,0,0,0,0,0,0],"sum_hessian":[8.21374E1,2.3757418E1,5.837998E1,1.2078539E1,1.1678879E1,4.3070305E1,1.5309673E1,5.701002E0,6.3775373E0,6.6770372E0,3.639327E1,8.548053E0,6.76162E0,1.8580164E1,1.7813105E1],"tree_param":{"num_deleted":"0","num_feature":"46","num_nodes":"15","size_leaf_vector":"1"}},{"base_weights":[-2.2900356E-2,5.422784E-1,-2.6257253E-1,3.783766E-2,3.7817532E-1,-1.04111984E-1,-7.094463E-1,-0E0,3.0663392E-2,-4.121E-2,2.6098056E-2,-1.9828217E-2,-4.1046705E-2,1.5596348E-2,-1.6911132E-2],"categories":[],"categories_nodes":[],"categories_segments":[],"categories_sizes":[],"default_left":[0,0,0,0,0,0,0,0,0,0,0,0,0,0,0],"id":19,"left_children":[1,3,5,-1,7,9,11,-1,-1,-1,13,-1,-1,-1,-1],"loss_changes":[1.1084545E1,4.5622635E-1,3.9283187E0,0E0,1.4830871E0,4.218327E0,6.75149E-2,0E0,0E0,0E0,4.063745E0,0E0,0E0,0E0,0E0],"parents":[2147483647,0,0,1,1,2,2,4,4,5,5,6,6,10,10],"right_children":[2,4,6,-1,8,10,12,-1,-1,-1,14,-1,-1,-1,-1],"split_conditions":[-1.4281754E-1,-2.3739953E-1,1.3057324E-1,3.783766E-2,-2.1120419E-1,-1.1758742E-1,3.387292E1,-0E0,3.0663392E-2,-4.121E-2,2.35E1,-1.9828217E-2,-4.1046705E-2,1.5596348E-2,-1.6911132E-2],"split_indices":[11,10,12,0,10,11,45,0,0,0,18,0,0,0,0],"split_type":[0,0,0,0,0,0,0,0,0,0,0,0,0,0,0],"sum_hessian":[7.998569E1,2.3318275E1,5.666741E1,8.27822E0,1.5040055E1,4.2908794E1,1.3758615E1,5.9972315E0,9.042824E0,5.8722544E0,3.703654E1,5.047412E0,8.711203E0,2.0988358E1,1.6048183E1],"tree_param":{"num_deleted":"0","num_feature":"46","num_nodes":"15","size_leaf_vector":"1"}},{"base_weights":[-2.9131228E-2,6.795633E-1,-3.1462556E-1,4.8012067E-2,1.2605953E-2,-1.764645E-1,-8.208488E-1,-3.882263E-2,-8.259327E-2,-5.620539E-2,-2.0691354E-2,-1.9438442E-2,1.0267813E-2],"categories":[],"categories_nodes":[],"categories_segments":[],"categories_sizes":[],"default_left":[0,0,0,0,0,0,0,0,0,0,0,0,0],"id":20,"left_children":[1,3,5,-1,-1,7,9,-1,11,-1,-1,-1,-1],"loss_changes":[1.677351E1,2.4885454E0,3.8997574E0,0E0,0E0,2.5522523E0,8.962555E-1,0E0,3.867295E0,0E0,0E0,0E0,0E0],"parents":[2147483647,0,0,1,1,2,2,5,5,6,6,8,8],"right_children":[2,4,6,-1,-1,8,10,-1,12,-1,-1,-1,-1],"split_conditions":[-1.4281754E-1,2E0,7.620646E-2,4.8012067E-2,1.2605953E-2,-1.1572829E-1,6.5553315E-2,-3.882263E-2,1E0,-5.620539E-2,-2.0691354E-2,-1.9438442E-2,1.0267813E-2],"split_indices":[11,26,10,0,0,11,11,0,25,0,0,0,0],"split_type":[0,0,0,0,0,0,0,0,0,0,0,0,0],"sum_hessian":[8.102609E1,2.2770744E1,5.825535E1,1.2851491E1,9.919253E0,4.6979572E1,1.1275775E1,5.227932E0,4.175164E1,5.31114E0,5.964635E0,2.0234032E1,2.1517609E1],"tree_param":{"num_deleted":"0","num_feature":"46","num_nodes":"13","size_leaf_vector":"1"}},{"base_weights":[-3.638062E-2,5.48913E-1,-2.5967818E-1,2.2325441E-1,4.0194545E-2,-1.3333252E-1,-6.646073E-1,-6.4686434E-3,2.8213743E-2,-3.5460895E-1,2.266914E-1,-4.3466687E-2,-1.8595595E-2,-9.111015E-3,-4.8496023E-2,2.9572671E-2,1.7814422E-3],"categories":[],"categories_nodes":[],"categories_segments":[],"categories_sizes":[],"default_left":[0,0,0,0,0,0,0,0,0,0,0,0,0,0,0,0,0],"id":21,"left_children":[1,3,5,7,-1,9,11,-1,-1,13,15,-1,-1,-1,-1,-1,-1],"loss_changes":[1.0807403E1,1.6104741E0,2.9027567E0,1.5073485E0,0E0,3.8527684E0,3.8169146E-1,0E0,0E0,2.867993E0,1.1987138E0,0E0,0E0,0E0,0E0,0E0,0E0],"parents":[2147483647,0,0,1,1,2,2,3,3,5,5,6,6,9,9,10,10],"right_children":[2,4,6,8,-1,10,12,-1,-1,14,16,-1,-1,-1,-1,-1,-1],"split_conditions":[-1.0758771E-1,3.560037E1,1.3057324E-1,8.57E-1,4.0194545E-2,0E0,1.4069414E-1,-6.4686434E-3,2.8213743E-2,2.6E0,3.58E1,-4.3466687E-2,-1.8595595E-2,-9.111015E-3,-4.8496023E-2,2.9572671E-2,1.7814422E-3],"split_indices":[10,45,12,33,0,10,10,0,0,23,20,0,0,0,0,0,0],"split_type":[0,0,0,0,0,0,0,0,0,0,0,0,0,0,0,0,0],"sum_hessian":[8.082268E1,2.1793327E1,5.902935E1,1.0566075E1,1.1227252E1,4.61926E1,1.283675E1,5.3555937E0,5.2104816E0,2.8790377E1,1.7402225E1,6.1931734E0,6.643577E0,2.3629017E1,5.1613584E0,5.08168E0,1.2320545E1],"tree_param":{"num_deleted":"0","num_feature":"46","num_nodes":"17","size_leaf_vector":"1"}},{"base_weights":[-2.2719717E-2,5.5499E-1,-2.5309008E-1,7.047564E-1,9.80558E-3,-1.1308715E-1,-6.3152546E-1,5.3321492E-2,1.4041818E-2,3.1211106E-2,-3.3309873E-2,-4.9184427E-2,-2.6855771E-3,2.6426652E-2,-7.038778E-3],"categories":[],"categories_nodes":[],"categories_segments":[],"categories_sizes":[],"default_left":[0,0,0,0,0,0,0,0,0,0,0,0,0,0,0],"id":22,"left_children":[1,3,5,7,-1,9,11,-1,-1,13,-1,-1,-1,-1,-1],"loss_changes":[1.0669264E1,9.975672E-1,2.9022446E0,1.9437804E0,0E0,3.548654E0,2.9211593E0,0E0,0E0,3.1270928E0,0E0,0E0,0E0,0E0,0E0],"parents":[2147483647,0,0,1,1,2,2,3,3,5,5,6,6,9,9],"right_children":[2,4,6,8,-1,10,12,-1,-1,14,-1,-1,-1,-1,-1],"split_conditions":[-1.4281754E-1,8.888889E-2,2E0,3.6366943E1,9.80558E-3,2.6E0,3.5533554E1,5.3321492E-2,1.4041818E-2,3.406723E1,-3.3309873E-2,-4.9184427E-2,-2.6855771E-3,2.6426652E-2,-7.038778E-3],"split_indices":[11,24,26,45,0,23,45,0,0,45,0,0,0,0,0],"split_type":[0,0,0,0,0,0,0,0,0,0,0,0,0,0,0],"sum_hessian":[7.833889E1,2.1807665E1,5.6531223E1,1.4509973E1,7.297693E0,4.240608E1,1.4125144E1,6.8846784E0,7.6252947E0,3.4236946E1,8.169134E0,8.23228E0,5.892865E0,8.414282E0,2.5822664E1],"tree_param":{"num_deleted":"0","num_feature":"46","num_nodes":"15","size_leaf_vector":"1"}},{"base_weights":[-6.018026E-2,5.9352493E-1,-2.7485716E-1,1.4570865E-2,3.675435E-2,-3.6226246E-1,2.336894E-2,-1.8513805E-1,-8.589381E-1,-5.3289713E-4,-4.4343263E-2,-5.1117416E-2,-2.5779082E-2],"categories":[],"categories_nodes":[],"categories_segments":[],"categories_sizes":[],"default_left":[0,0,0,0,0,0,0,0,0,0,0,0,0],"id":23,"left_children":[1,3,5,-1,-1,7,-1,9,11,-1,-1,-1,-1],"loss_changes":[1.1696152E1,5.6302214E-1,4.2352347E0,0E0,0E0,4.742156E0,0E0,5.2102733E0,1.3457775E-1,0E0,0E0,0E0,0E0],"parents":[2147483647,0,0,1,1,2,2,5,5,7,7,8,8],"right_children":[2,4,6,-1,-1,8,-1,10,12,-1,-1,-1,-1],"split_conditions":[-1.2131363E-1,8.4E-1,3E0,1.4570865E-2,3.675435E-2,5.633352E-3,2.336894E-2,3.8E1,1.4069414E-1,-5.3289713E-4,-4.4343263E-2,-5.1117416E-2,-2.5779082E-2],"split_indices":[10,33,26,0,0,11,0,19,10,0,0,0,0],"split_type":[0,0,0,0,0,0,0,0,0,0,0,0,0],"sum_hessian":[8.140888E1,1.9574055E1,6.183483E1,7.44681E0,1.2127245E1,5.589887E1,5.9359627E0,4.2364822E1,1.3534046E1,3.485583E1,7.5089917E0,7.632725E0,5.9013214E0],"tree_param":{"num_deleted":"0","num_feature":"46","num_nodes":"13","size_leaf_vector":"1"}},{"base_weights":[1.4018939E-2,6.274133E-1,-2.1532018E-1,4.429669E-2,3.000238E-1,-2.8575586E-2,-6.036934E-1,2.3904532E-2,2.132638E-3,-1.513297E-1,3.1768117E-2,-4.644883E-2,-1.2607469E-2,-1.5736982E-2,1.39324665E-2],"categories":[],"categories_nodes":[],"categories_segments":[],"categories_sizes":[],"default_left":[0,0,0,0,0,0,0,0,0,0,0,0,0,0,0],"id":24,"left_children":[1,3,5,-1,7,9,11,-1,-1,13,-1,-1,-1,-1,-1],"loss_changes":[1.1722119E1,1.537674E0,4.2975616E0,0E0,4.638679E-1,3.4697638E0,1.8634586E0,0E0,0E0,2.646805E0,0E0,0E0,0E0,0E0,0E0],"parents":[2147483647,0,0,1,1,2,2,4,4,5,5,6,6,9,9],"right_children":[2,4,6,-1,8,10,12,-1,-1,14,-1,-1,-1,-1,-1],"split_conditions":[-1.4281754E-1,1E0,-1.8201504E-2,4.429669E-2,3.543295E1,1.20805934E-1,5.3980663E-2,2.3904532E-2,2.132638E-3,8.888889E-2,3.1768117E-2,-4.644883E-2,-1.2607469E-2,-1.5736982E-2,1.39324665E-2],"split_indices":[11,25,11,0,45,35,11,0,0,24,0,0,0,0,0],"split_type":[0,0,0,0,0,0,0,0,0,0,0,0,0,0,0],"sum_hessian":[8.107421E1,2.1709608E1,5.93646E1,1.1006731E1,1.0702877E1,4.0987377E1,1.8377224E1,5.5895247E0,5.1133523E0,3.5370487E1,5.616888E0,8.544236E0,9.832988E0,2.5992744E1,9.377745E0],"tree_param":{"num_deleted":"0","num_feature":"46","num_nodes":"15","size_leaf_vector":"1"}},{"base_weights":[2.3429044E-2,4.763612E-1,-1.09187454E-1,5.955916E-1,7.3090666E-3,-1.9210805E-1,2.3043698E-2,4.2561546E-2,1.4285542E-2,-3.593479E-2,-6.582266E-1,3.0439407E-2,-1.0971017E-2,-0E0,-5.1516563E-2],"categories":[],"categories_nodes":[],"categories_segments":[],"categories_sizes":[],"default_left":[0,0,0,0,0,0,0,0,0,0,0,0,0,0,0],"id":25,"left_children":[1,3,5,7,-1,9,-1,-1,-1,11,13,-1,-1,-1,-1],"loss_changes":[5.002383E0,5.8218956E-1,3.0831242E0,6.9879484E-1,0E0,4.0316143E0,0E0,0E0,0E0,5.2594895E0,3.451692E0,0E0,0E0,0E0,0E0],"parents":[2147483647,0,0,1,1,2,2,3,3,5,5,9,9,10,10],"right_children":[2,4,6,8,-1,10,-1,-1,-1,12,14,-1,-1,-1,-1],"split_conditions":[-1.4006409E-1,8.888889E-2,3E0,1E0,7.3090666E-3,2E0,2.3043698E-2,4.2561546E-2,1.4285542E-2,3.406723E1,-2.967534E-2,3.0439407E-2,-1.0971017E-2,-0E0,-5.1516563E-2],"split_indices":[10,24,26,25,0,26,0,0,0,45,10,0,0,0,0],"split_type":[0,0,0,0,0,0,0,0,0,0,0,0,0,0,0],"sum_hessian":[8.080386E1,1.7884392E1,6.2919476E1,1.2326496E1,5.557895E0,5.5661438E1,7.258037E0,5.620302E0,6.7061944E0,4.2659863E1,1.3001578E1,8.81682E0,3.384304E1,5.0356727E0,7.965905E0],"tree_param":{"num_deleted":"0","num_feature":"46","num_nodes":"15","size_leaf_vector":"1"}},{"base_weights":[2.6458647E-2,5.9718484E-1,-1.2298437E-1,1.1002629E-2,4.230469E-2,-1.9359337E-1,2.228552E-2,-2.7212325E-1,1.2830846E-2,-1.9183083E-2,1.7538568E-2],"categories":[],"categories_nodes":[],"categories_segments":[],"categories_sizes":[],"default_left":[0,0,0,0,0,0,0,0,0,0,0],"id":26,"left_children":[1,3,5,-1,-1,7,-1,9,-1,-1,-1],"loss_changes":[6.7811246E0,1.2573833E0,2.5737617E0,0E0,0E0,2.0695443E0,0E0,3.5281584E0,0E0,0E0,0E0],"parents":[2147483647,0,0,1,1,2,2,5,5,7,7],"right_children":[2,4,6,-1,-1,8,-1,10,-1,-1,-1],"split_conditions":[-1.00294985E-1,3.6E1,3E0,1.1002629E-2,4.230469E-2,3.1E1,2.228552E-2,1.20805934E-1,1.2830846E-2,-1.9183083E-2,1.7538568E-2],"split_indices":[12,20,26,0,0,18,0,35,0,0,0],"split_type":[0,0,0,0,0,0,0,0,0,0,0],"sum_hessian":[7.7088615E1,1.5513873E1,6.1574745E1,7.077015E0,8.436858E0,5.5517174E1,6.057574E0,4.7797558E1,7.7196126E0,4.100044E1,6.797121E0],"tree_param":{"num_deleted":"0","num_feature":"46","num_nodes":"11","size_leaf_vector":"1"}},{"base_weights":[-1.7557204E-2,5.230898E-1,-2.0764206E-1,7.2144717E-1,1.0541032E-2,-4.7065075E-2,-1.0609392E-1,4.5347497E-2,1.8225E-2,-3.5824725E-1,1.446941E-1,-3.013873E-2,-2.0592862E-3,3.8992964E-2,-7.327658E-3],"categories":[],"categories_nodes":[],"categories_segments":[],"categories_sizes":[],"default_left":[0,0,0,0,0,0,0,0,0,0,0,0,0,0,0],"id":27,"left_children":[1,3,5,7,-1,-1,9,-1,-1,11,13,-1,-1,-1,-1],"loss_changes":[8.380383E0,1.0656395E0,4.312532E0,3.5898972E-1,0E0,0E0,3.5200045E0,0E0,0E0,2.0557027E0,5.3278522E0,0E0,0E0,0E0,0E0],"parents":[2147483647,0,0,1,1,2,2,3,3,6,6,9,9,10,10],"right_children":[2,4,6,8,-1,-1,10,-1,-1,12,14,-1,-1,-1,-1],"split_conditions":[-1.4281754E-1,2E0,-1.1572829E-1,2.2E0,1.0541032E-2,-4.7065075E-2,1E0,4.5347497E-2,1.8225E-2,1.0300591E-1,-6.770194E-2,-3.013873E-2,-2.0592862E-3,3.8992964E-2,-7.327658E-3],"split_indices":[11,26,11,23,0,0,25,0,0,35,11,0,0,0,0],"split_type":[0,0,0,0,0,0,0,0,0,0,0,0,0,0,0],"sum_hessian":[7.979603E1,2.0164732E1,5.9631298E1,1.13344E1,8.830331E0,6.1250567E0,5.350624E1,6.26008E0,5.074321E0,2.6665665E1,2.6840576E1,1.4368062E1,1.2297603E1,8.01871E0,1.8821867E1],"tree_param":{"num_deleted":"0","num_feature":"46","num_nodes":"15","size_leaf_vector":"1"}},{"base_weights":[-3.6016416E-2,5.662113E-1,-2.0737961E-1,1.4983902E-2,3.9995883E-2,-5.427239E-1,-2.3097636E-2,-7.5204784E-1,-2.6096958E-3,1.9786026E-2,-1.8470903E-1,-4.681984E-2,-1.5864842E-2,-4.3891888E-2,1.0293805E-3],"categories":[],"categories_nodes":[],"categories_segments":[],"categories_sizes":[],"default_left":[0,0,0,0,0,0,0,0,0,0,0,0,0,0,0],"id":28,"left_children":[1,3,5,-1,-1,7,9,11,-1,-1,13,-1,-1,-1,-1],"loss_changes":[8.056341E0,7.2524595E-1,3.7017221E0,0E0,0E0,2.0779805E0,2.8011074E0,7.623911E-1,0E0,0E0,4.3956265E0,0E0,0E0,0E0,0E0],"parents":[2147483647,0,0,1,1,2,2,5,5,6,6,7,7,10,10],"right_children":[2,4,6,-1,-1,8,10,12,-1,-1,14,-1,-1,-1,-1],"split_conditions":[-1.4006409E-1,3.560037E1,8.3333336E-2,1.4983902E-2,3.9995883E-2,2E1,2.75E1,5.0026458E-2,-2.6096958E-3,1.9786026E-2,3.571174E1,-4.681984E-2,-1.5864842E-2,-4.3891888E-2,1.0293805E-3],"split_indices":[10,45,35,0,0,31,44,10,0,0,45,0,0,0,0],"split_type":[0,0,0,0,0,0,0,0,0,0,0,0,0,0,0],"sum_hessian":[7.62755E1,1.6256609E1,6.0018887E1,8.861068E0,7.3955407E0,2.0403042E1,3.9615845E1,1.3783999E1,6.6190434E0,1.0454779E1,2.9161066E1,8.707741E0,5.0762587E0,6.026241E0,2.3134825E1],"tree_param":{"num_deleted":"0","num_feature":"46","num_nodes":"15","size_leaf_vector":"1"}},{"base_weights":[-3.4596466E-2,1.4437866E-1,-5.5108297E-1,8.426232E-3,6.708777E-1,-6.835998E-1,-7.2340565E-3,-1.15016095E-1,2.679054E-1,1.960422E-2,4.1349705E-2,-1.2310431E-2,-5.159108E-2,-1.8567892E-2,4.385202E-3,2.5126472E-2,-8.92372E-3],"categories":[],"categories_nodes":[],"categories_segments":[],"categories_sizes":[],"default_left":[0,0,0,0,0,0,0,0,0,0,0,0,0,0,0,0,0],"id":29,"left_children":[1,3,5,7,9,11,-1,13,15,-1,-1,-1,-1,-1,-1,-1,-1],"loss_changes":[7.4475307E0,4.186532E0,9.357891E-1,1.5984955E0,7.833576E-2,1.9323497E0,0E0,1.7903693E0,1.8172152E0,0E0,0E0,0E0,0E0,0E0,0E0,0E0,0E0],"parents":[2147483647,0,0,1,1,2,2,3,3,4,4,5,5,7,7,8,8],"right_children":[2,4,6,8,10,12,-1,14,16,-1,-1,-1,-1,-1,-1,-1,-1],"split_conditions":[-1.3768527E-2,8.4E-1,3.629767E1,0E0,3.6E1,2E0,-7.2340565E-3,2.5166116E0,2.6E0,1.960422E-2,4.1349705E-2,-1.2310431E-2,-5.159108E-2,-1.8567892E-2,4.385202E-3,2.5126472E-2,-8.92372E-3],"split_indices":[11,33,45,10,21,26,0,34,23,0,0,0,0,0,0,0,0],"split_type":[0,0,0,0,0,0,0,0,0,0,0,0,0,0,0,0,0],"sum_hessian":[7.826694E1,5.851642E1,1.9750517E1,4.7465763E1,1.1050656E1,1.4194068E1,5.55645E0,3.228035E1,1.5185412E1,5.4571996E0,5.5934567E0,7.1754336E0,7.018634E0,1.4105373E1,1.8174976E1,1.0018023E1,5.16739E0],"tree_param":{"num_deleted":"0","num_feature":"46","num_nodes":"17","size_leaf_vector":"1"}},{"base_weights":[-4.0377933E-3,4.612304E-1,-1.3729277E-1,2.7275325E-3,6.148282E-1,-2.2542246E-1,2.5679424E-2,1.5950916E-2,4.270019E-2,-3.232667E-1,2.4491176E-2,-2.0875962E-2,1.3749254E-2],"categories":[],"categories_nodes":[],"categories_segments":[],"categories_sizes":[],"default_left":[0,0,0,0,0,0,0,0,0,0,0,0,0],"id":30,"left_children":[1,3,5,-1,7,9,-1,-1,-1,11,-1,-1,-1],"loss_changes":[4.940293E0,1.0046463E0,3.6716402E0,0E0,4.9929476E-1,4.0516343E0,0E0,0E0,0E0,2.9412055E0,0E0,0E0,0E0],"parents":[2147483647,0,0,1,1,2,2,4,4,5,5,9,9],"right_children":[2,4,6,-1,8,10,-1,-1,-1,12,-1,-1,-1],"split_conditions":[-1.4006409E-1,3.460704E1,3.1E1,2.7275325E-3,-2.3052089E-1,3.727436E1,2.5679424E-2,1.5950916E-2,4.270019E-2,1.20805934E-1,2.4491176E-2,-2.0875962E-2,1.3749254E-2],"split_indices":[10,45,18,0,10,45,0,0,0,35,0,0,0],"split_type":[0,0,0,0,0,0,0,0,0,0,0,0,0],"sum_hessian":[7.8184166E1,1.6691841E1,6.149233E1,5.125994E0,1.1565847E1,5.487018E1,6.6221504E0,6.4010367E0,5.164811E0,4.887238E1,5.997799E0,4.2626045E1,6.2463326E0],"tree_param":{"num_deleted":"0","num_feature":"46","num_nodes":"13","size_leaf_vector":"1"}},{"base_weights":[7.352079E-2,4.532398E-1,-4.6380606E-2,3.8660463E-2,5.8372873E-3,1.924266E-2,-2.6512066E-2,-2.6827598E-2,9.581863E-2,3.6019236E-2,-0E0],"categories":[],"categories_nodes":[],"categories_segments":[],"categories_sizes":[],"default_left":[0,0,0,0,0,0,0,0,0,0,0],"id":31,"left_children":[1,3,5,-1,-1,7,-1,-1,9,-1,-1],"loss_changes":[3.6985412E0,1.9162672E0,2.0114431E0,0E0,0E0,2.3424213E0,0E0,0E0,2.8834403E0,0E0,0E0],"parents":[2147483647,0,0,1,1,2,2,5,5,8,8],"right_children":[2,4,6,-1,-1,8,-1,-1,10,-1,-1],"split_conditions":[-1.4281754E-1,1E0,2.1268657E-1,3.8660463E-2,5.8372873E-3,-1.18427925E-1,-2.6512066E-2,-2.6827598E-2,-9.334929E-2,3.6019236E-2,-0E0],"split_indices":[11,25,12,0,0,11,0,0,11,0,0],"split_type":[0,0,0,0,0,0,0,0,0,0,0],"sum_hessian":[7.887978E1,1.8462933E1,6.0416855E1,8.646256E0,9.816675E0,5.386501E1,6.551844E0,5.6371846E0,4.8227825E1,5.42718E0,4.2800648E1],"tree_param":{"num_deleted":"0","num_feature":"46","num_nodes":"11","size_leaf_vector":"1"}},{"base_weights":[1.9856991E-2,5.3399664E-1,-1.6338295E-1,1.1374204E-2,3.8518704E-2,-2.4764886E-2,-3.2231405E-2,1.17004745E-1,-3.7346435E-1,-3.5058304E-3,3.5148136E-2,-4.1559365E-2,-0E0],"categories":[],"categories_nodes":[],"categories_segments":[],"categories_sizes":[],"default_left":[0,0,0,0,0,0,0,0,0,0,0,0,0],"id":32,"left_children":[1,3,5,-1,-1,7,-1,9,11,-1,-1,-1,-1],"loss_changes":[7.461431E0,1.2349496E0,3.7888217E0,0E0,0E0,2.3562572E0,0E0,3.7798662E0,2.3827567E0,0E0,0E0,0E0,0E0],"parents":[2147483647,0,0,1,1,2,2,5,5,7,7,8,8],"right_children":[2,4,6,-1,-1,8,-1,10,12,-1,-1,-1,-1],"split_conditions":[-2.866242E-2,3.5706013E1,7.620646E-2,1.1374204E-2,3.8518704E-2,2.6E0,-3.2231405E-2,3.1E1,1E0,-3.5058304E-3,3.5148136E-2,-4.1559365E-2,-0E0],"split_indices":[12,45,10,0,0,23,0,44,25,0,0,0,0],"split_type":[0,0,0,0,0,0,0,0,0,0,0,0,0],"sum_hessian":[7.687975E1,1.9840967E1,5.703879E1,9.6775E0,1.0163466E1,4.5261036E1,1.1777755E1,3.2446884E1,1.2814152E1,2.5131123E1,7.315761E0,5.237757E0,7.5763946E0],"tree_param":{"num_deleted":"0","num_feature":"46","num_nodes":"13","size_leaf_vector":"1"}},{"base_weights":[8.57854E-2,2.3560657E-1,-3.9913696E-1,1.4498235E-1,4.2886402E-2,-3.257482E-2,-6.947008E-3,2.643584E-1,-1.5540475E-1,1.9404763E-2,-1.2795525E-2,-2.8251285E-2,6.2439437E-3],"categories":[],"categories_nodes":[],"categories_segments":[],"categories_sizes":[],"default_left":[0,0,0,0,0,0,0,0,0,0,0,0,0],"id":33,"left_children":[1,3,5,7,-1,-1,-1,9,11,-1,-1,-1,-1],"loss_changes":[5.6638174E0,3.1314697E0,1.0361524E0,1.9633396E0,0E0,0E0,0E0,2.6072526E0,1.8998805E0,0E0,0E0,0E0,0E0],"parents":[2147483647,0,0,1,1,2,2,3,3,7,7,8,8],"right_children":[2,4,6,8,-1,-1,-1,10,12,-1,-1,-1,-1],"split_conditions":[3.140787E-2,3.7366383E1,3.4651787E1,3.72E1,4.2886402E-2,-3.257482E-2,-6.947008E-3,3.35E1,3.02E1,1.9404763E-2,-1.2795525E-2,-2.8251285E-2,6.2439437E-3],"split_indices":[10,45,45,19,0,0,0,44,44,0,0,0,0],"split_type":[0,0,0,0,0,0,0,0,0,0,0,0,0],"sum_hessian":[7.588928E1,5.8527145E1,1.7362139E1,5.23021E1,6.2250423E0,7.855281E0,9.506858E0,3.7752018E1,1.4550086E1,3.0859001E1,6.893016E0,5.6434016E0,8.906685E0],"tree_param":{"num_deleted":"0","num_feature":"46","num_nodes":"13","size_leaf_vector":"1"}},{"base_weights":[-5.299132E-2,3.9620647E-1,-2.180389E-1,3.5305414E-2,1.9060312E-1,-4.312804E-1,-1.2964095E-2,2.8457785E-2,-9.709032E-3,-1.2479498E-3,-5.2861416E-1,2.6094607E-1,-3.646077E-1,-1.2692391E-2,-5.359173E-2,2.564153E-2,-1.2380789E-2,-3.9792042E-2,2.4446882E-3],"categories":[],"categories_nodes":[],"categories_segments":[],"categories_sizes":[],"default_left":[0,0,0,0,0,0,0,0,0,0,0,0,0,0,0,0,0,0,0],"id":34,"left_children":[1,3,5,-1,7,9,11,-1,-1,-1,13,15,17,-1,-1,-1,-1,-1,-1],"loss_changes":[5.490623E0,1.0400853E0,2.3241305E0,0E0,2.113369E0,9.73371E-1,2.8934762E0,0E0,0E0,0E0,2.7306447E0,2.2919917E0,2.4764996E0,0E0,0E0,0E0,0E0,0E0,0E0],"parents":[2147483647,0,0,1,1,2,2,4,4,5,5,6,6,10,10,11,11,12,12],"right_children":[2,4,6,-1,8,10,12,-1,-1,-1,14,16,18,-1,-1,-1,-1,-1,-1],"split_conditions":[-1.3596734E-1,-2.3739953E-1,1E0,3.5305414E-2,2E0,3.4043472E1,3.7E1,2.8457785E-2,-9.709032E-3,-1.2479498E-3,7.017544E-2,-5.0810515E-3,3.6547173E1,-1.2692391E-2,-5.359173E-2,2.564153E-2,-1.2380789E-2,-3.9792042E-2,2.4446882E-3],"split_indices":[11,10,25,0,26,45,19,0,0,0,24,11,45,0,0,0,0,0,0],"split_type":[0,0,0,0,0,0,0,0,0,0,0,0,0,0,0,0,0,0,0],"sum_hessian":[7.213359E1,1.8843147E1,5.3290443E1,6.3504877E0,1.2492659E1,2.5345226E1,2.7945217E1,6.1867886E0,6.30587E0,5.339445E0,2.0005781E1,1.5694022E1,1.2251196E1,1.4382404E1,5.6233764E0,1.062154E1,5.0724816E0,5.662782E0,6.5884132E0],"tree_param":{"num_deleted":"0","num_feature":"46","num_nodes":"19","size_leaf_vector":"1"}},{"base_weights":[-1.0549965E-2,-1.4084831E-1,4.6644458E-1,-2.1809427E-1,2.1229114E-2,3.4332585E-2,3.8123007E-3,-9.718476E-2,-5.5181116E-1,1.694179E-2,-1.195523E-2,-5.9765684E-3,-3.9723597E-2],"categories":[],"categories_nodes":[],"categories_segments":[],"categories_sizes":[],"default_left":[0,0,0,0,0,0,0,0,0,0,0,0,0],"id":35,"left_children":[1,3,5,7,-1,-1,-1,9,11,-1,-1,-1,-1],"loss_changes":[4.8942313E0,2.7958837E0,1.3190489E0,2.1283529E0,0E0,0E0,0E0,2.6891468E0,1.3216395E0,0E0,0E0,0E0,0E0],"parents":[2147483647,0,0,1,1,2,2,3,3,7,7,8,8],"right_children":[2,4,6,8,-1,-1,-1,10,12,-1,-1,-1,-1],"split_conditions":[7.86E-1,3E0,2E0,2E0,2.1229114E-2,3.4332585E-2,3.8123007E-3,3.406723E1,-8.7931655E-2,1.694179E-2,-1.195523E-2,-5.9765684E-3,-3.9723597E-2],"split_indices":[33,26,26,26,0,0,0,45,11,0,0,0,0],"split_type":[0,0,0,0,0,0,0,0,0,0,0,0,0],"sum_hessian":[7.721349E1,6.136505E1,1.5848438E1,5.4685383E1,6.67967E0,9.481539E0,6.3668995E0,4.1309383E1,1.3375998E1,9.63024E0,3.1679146E1,5.4938493E0,7.8821483E0],"tree_param":{"num_deleted":"0","num_feature":"46","num_nodes":"13","size_leaf_vector":"1"}},{"base_weights":[-1.0588209E-2,4.2138278E-1,-1.5797377E-1,3.3611212E-2,6.6874856E-3,-2.2902936E-1,1.8695278E-2,-3.0002692E-1,1.1496257E-2,-9.940445E-3,-3.6963273E-2],"categories":[],"categories_nodes":[],"categories_segments":[],"categories_sizes":[],"default_left":[0,0,0,0,0,0,0,0,0,0,0],"id":36,"left_children":[1,3,5,-1,-1,7,-1,9,-1,-1,-1],"loss_changes":[4.8312025E0,1.2179286E0,2.2256408E0,0E0,0E0,1.7402678E0,0E0,1.7534394E0,0E0,0E0,0E0],"parents":[2147483647,0,0,1,1,2,2,5,5,7,7],"right_children":[2,4,6,-1,-1,8,-1,10,-1,-1,-1],"split_conditions":[-1.4281754E-1,1E0,1.20805934E-1,3.3611212E-2,6.6874856E-3,3.07E1,1.8695278E-2,2.57E1,1.1496257E-2,-9.940445E-3,-3.6963273E-2],"split_indices":[11,25,35,0,0,18,0,18,0,0,0],"split_type":[0,0,0,0,0,0,0,0,0,0,0],"sum_hessian":[7.425139E1,1.8243662E1,5.600773E1,8.845153E0,9.398509E0,5.0075394E1,5.9323363E0,4.385539E1,6.220003E0,3.7007645E1,6.8477445E0],"tree_param":{"num_deleted":"0","num_feature":"46","num_nodes":"11","size_leaf_vector":"1"}},{"base_weights":[-1.9342968E-2,5.56746E-2,-2.4654292E-2,2.7969865E-2,-5.8561345E-3,1.2648469E-1,-2.5866348E-1,-6.054529E-3,1.4799352E-2,-2.5551433E-2,-2.8305913E-3],"categories":[],"categories_nodes":[],"categories_segments":[],"categories_sizes":[],"default_left":[0,0,0,0,0,0,0,0,0,0,0],"id":37,"left_children":[1,3,-1,-1,5,7,9,-1,-1,-1,-1],"loss_changes":[2.7520611E0,2.0992596E0,0E0,0E0,2.0360904E0,1.7091255E0,9.8651505E-1,0E0,0E0,0E0,0E0],"parents":[2147483647,0,0,1,1,4,4,5,5,6,6],"right_children":[2,4,-1,-1,6,8,10,-1,-1,-1,-1],"split_conditions":[1.9485295E-1,-1.7777778E-1,-2.4654292E-2,2.7969865E-2,3.72E1,8.3333336E-2,3.02E1,-6.054529E-3,1.4799352E-2,-2.5551433E-2,-2.8305913E-3],"split_indices":[12,12,0,0,19,35,44,0,0,0,0],"split_type":[0,0,0,0,0,0,0,0,0,0,0],"sum_hessian":[7.443444E1,6.483859E1,9.59585E0,6.3541408E0,5.848445E1,3.8456944E1,2.0027506E1,1.5505398E1,2.2951546E1,8.005016E0,1.20224905E1],"tree_param":{"num_deleted":"0","num_feature":"46","num_nodes":"11","size_leaf_vector":"1"}},{"base_weights":[8.574243E-2,6.4276016E-1,-5.4511454E-2,1.4092149E-2,4.6161592E-2,8.910684E-2,-5.525048E-1,-4.0216304E-2,4.46722E-1,-4.7422614E-2,-5.727035E-3,-8.018117E-3,2.3521166E-2,8.143948E-3,3.550474E-2],"categories":[],"categories_nodes":[],"categories_segments":[],"categories_sizes":[],"default_left":[0,0,0,0,0,0,0,0,0,0,0,0,0,0,0],"id":38,"left_children":[1,3,5,-1,-1,7,9,11,13,-1,-1,-1,-1,-1,-1],"loss_changes":[5.9681177E0,1.1727285E0,4.447293E0,0E0,0E0,2.2753265E0,2.1979656E0,2.247764E0,7.701998E-1,0E0,0E0,0E0,0E0,0E0,0E0],"parents":[2147483647,0,0,1,1,2,2,5,5,6,6,7,7,8,8],"right_children":[2,4,6,-1,-1,8,10,12,14,-1,-1,-1,-1,-1,-1],"split_conditions":[-1.4006409E-1,-2.3052089E-1,2.6E0,1.4092149E-2,4.6161592E-2,3.1E1,3.1847134E-3,3.5071356E0,3.5812702E1,-4.7422614E-2,-5.727035E-3,-8.018117E-3,2.3521166E-2,8.143948E-3,3.550474E-2],"split_indices":[10,10,23,0,0,44,10,34,45,0,0,0,0,0,0],"split_type":[0,0,0,0,0,0,0,0,0,0,0,0,0,0,0],"sum_hessian":[7.419152E1,1.4346121E1,5.98454E1,7.306013E0,7.0401077E0,4.6931034E1,1.2914369E1,3.4913353E1,1.2017683E1,6.050451E0,6.8639174E0,2.8977224E1,5.936127E0,6.7457523E0,5.271931E0],"tree_param":{"num_deleted":"0","num_feature":"46","num_nodes":"15","size_leaf_vector":"1"}},{"base_weights":[-7.657798E-2,3.2643322E-2,-1.5036778E-1,-3.3527517E-1,6.652645E-2,-4.2424944E-1,6.001488E-3,-4.0316546E-1,4.7170812E-1,-8.449676E-3,-3.6948726E-2,8.532024E-3,-3.7843313E-2,3.4185898E-2,4.3206993E-3],"categories":[],"categories_nodes":[],"categories_segments":[],"categories_sizes":[],"default_left":[0,0,0,0,0,0,0,0,0,0,0,0,0,0,0],"id":39,"left_children":[1,-1,3,5,7,9,-1,11,13,-1,-1,-1,-1,-1,-1],"loss_changes":[3.9546669E0,0E0,2.7302678E0,1.5600147E0,6.163297E0,2.2697682E0,0E0,3.2207685E0,1.2857358E0,0E0,0E0,0E0,0E0,0E0,0E0],"parents":[2147483647,0,0,2,2,3,3,4,4,5,5,7,7,8,8],"right_children":[2,-1,4,6,8,10,-1,12,14,-1,-1,-1,-1,-1,-1],"split_conditions":[-2.3739953E-1,3.2643322E-2,3.02E1,1.20805934E-1,3.5706013E1,-6.770194E-2,6.001488E-3,3.15E1,1.5275252E0,-8.449676E-3,-3.6948726E-2,8.532024E-3,-3.7843313E-2,3.4185898E-2,4.3206993E-3],"split_indices":[10,0,44,35,45,11,0,44,22,0,0,0,0,0,0],"split_type":[0,0,0,0,0,0,0,0,0,0,0,0,0,0,0],"sum_hessian":[7.158163E1,5.7304807E0,6.585114E1,3.5500984E1,3.0350163E1,2.9938364E1,5.5626197E0,1.3944124E1,1.6406038E1,1.7555098E1,1.2383265E1,5.407086E0,8.537039E0,9.915766E0,6.4902725E0],"tree_param":{"num_deleted":"0","num_feature":"46","num_nodes":"15","size_leaf_vector":"1"}},{"base_weights":[-3.5557546E-2,3.484645E-1,-1.408598E-1,3.0393614E-2,4.0756273E-3,-5.5006098E-2,-2.5084991E-2,-2.4692473E-1,1.4138196E-1,-2.0568445E-2,-1.8569544E-3,1.3433749E-2,-9.000025E-3],"categories":[],"categories_nodes":[],"categories_segments":[],"categories_sizes":[],"default_left":[0,0,0,0,0,0,0,0,0,0,0,0,0],"id":40,"left_children":[1,3,5,-1,-1,7,-1,9,11,-1,-1,-1,-1],"loss_changes":[3.0077171E0,9.852662E-1,1.7364204E0,0E0,0E0,1.8846159E0,0E0,8.1268847E-1,1.0593377E0,0E0,0E0,0E0,0E0],"parents":[2147483647,0,0,1,1,2,2,5,5,7,7,8,8],"right_children":[2,4,6,-1,-1,8,-1,10,12,-1,-1,-1,-1],"split_conditions":[-8.273381E-2,1E0,3.8E1,3.0393614E-2,4.0756273E-3,2.5166116E0,-2.5084991E-2,1E0,-6.874115E-3,-2.0568445E-2,-1.8569544E-3,1.3433749E-2,-9.000025E-3],"split_indices":[12,25,19,0,0,34,0,25,11,0,0,0,0],"split_type":[0,0,0,0,0,0,0,0,0,0,0,0,0],"sum_hessian":[7.267735E1,1.493882E1,5.7738533E1,6.738788E0,8.200031E0,4.7796104E1,9.9424305E0,2.43005E1,2.3495602E1,1.2816491E1,1.1484011E1,1.7170053E1,6.3255486E0],"tree_param":{"num_deleted":"0","num_feature":"46","num_nodes":"13","size_leaf_vector":"1"}},{"base_weights":[2.6908983E-2,1.8391578E-1,-6.1227226E-1,2.7501497E-1,-3.2612026E-2,-3.957547E-2,-1.2292217E-2,1.1878049E-1,5.527729E-1,1.7083687E-1,-2.4258053E-2,1.6730884E-2,-1.4673146E-2,4.450966E-2,9.767192E-3,-1.0948583E-3,1.8399224E-2],"categories":[],"categories_nodes":[],"categories_segments":[],"categories_sizes":[],"default_left":[0,0,0,0,0,0,0,0,0,0,0,0,0,0,0,0,0],"id":41,"left_children":[1,3,5,7,9,-1,-1,11,13,15,-1,-1,-1,-1,-1,-1,-1],"loss_changes":[7.5260453E0,1.2274208E0,6.708727E-1,1.7351007E0,1.8173813E0,0E0,0E0,2.6873407E0,1.5255828E0,5.49844E-1,0E0,0E0,0E0,0E0,0E0,0E0,0E0],"parents":[2147483647,0,0,1,1,2,2,3,3,4,4,7,7,8,8,9,9],"right_children":[2,4,6,8,10,-1,-1,12,14,16,-1,-1,-1,-1,-1,-1,-1],"split_conditions":[5.633352E-3,2E0,2.93E1,0E0,-4.0089935E-2,-3.957547E-2,-1.2292217E-2,-6.7340066E-3,2.57E1,2.93E1,-2.4258053E-2,1.6730884E-2,-1.4673146E-2,4.450966E-2,9.767192E-3,-1.0948583E-3,1.8399224E-2],"split_indices":[11,26,44,10,10,0,0,12,18,44,0,0,0,0,0,0,0],"split_type":[0,0,0,0,0,0,0,0,0,0,0,0,0,0,0,0,0],"sum_hessian":[7.3298386E1,5.954149E1,1.37569E1,4.20441E1,1.7497385E1,8.27583E0,5.4810705E0,2.805261E1,1.399149E1,1.2347809E1,5.1495767E0,1.869526E1,9.357351E0,6.2865434E0,7.7049475E0,6.4368033E0,5.9110055E0],"tree_param":{"num_deleted":"0","num_feature":"46","num_nodes":"17","size_leaf_vector":"1"}},{"base_weights":[-0E0,2.766002E-1,-1.5939803E-1,1.292142E-1,3.687439E-2,-3.4876826E-1,2.6126701E-2,3.7008488E-1,-1.0862864E-2,-6.6666794E-1,3.630777E-3,-2.0464973E-1,2.42781E-2,4.164902E-3,2.6668001E-2,-1.7042898E-2,-4.2479094E-2,-1.2448668E-2,1.1258013E-2,6.4720805E-3,-4.316276E-2],"categories":[],"categories_nodes":[],"categories_segments":[],"categories_sizes":[],"default_left":[0,0,0,0,0,0,0,0,0,0,0,0,0,0,0,0,0,0,0,0,0],"id":42,"left_children":[1,3,5,7,-1,9,11,13,-1,15,17,19,-1,-1,-1,-1,-1,-1,-1,-1,-1],"loss_changes":[3.3924284E0,1.734565E0,1.7474879E0,1.9946584E0,0E0,2.7986362E0,2.7986465E0,5.477246E-1,0E0,3.6406898E-1,7.477071E-1,3.997989E0,0E0,0E0,0E0,0E0,0E0,0E0,0E0,0E0,0E0],"parents":[2147483647,0,0,1,1,2,2,3,3,5,5,6,6,7,7,9,9,10,10,11,11],"right_children":[2,4,6,8,-1,10,12,14,-1,16,18,20,-1,-1,-1,-1,-1,-1,-1,-1,-1],"split_conditions":[-9.117928E-2,-1.18427925E-1,1E0,-1.8746586E-1,3.687439E-2,1.0300591E-1,3.1E1,2.9E1,-1.0862864E-2,7.6696165E-2,5.882353E-2,3.7E1,2.42781E-2,4.164902E-3,2.6668001E-2,-1.7042898E-2,-4.2479094E-2,-1.2448668E-2,1.1258013E-2,6.4720805E-3,-4.316276E-2],"split_indices":[11,11,25,11,0,35,44,44,0,24,24,19,0,0,0,0,0,0,0,0,0],"split_type":[0,0,0,0,0,0,0,0,0,0,0,0,0,0,0,0,0,0,0,0,0],"sum_hessian":[7.477567E1,2.721397E1,4.7561703E1,2.1754492E1,5.4594793E0,2.3368221E1,2.4193481E1,1.2962967E1,8.791525E0,1.1965815E1,1.1402408E1,1.6328503E1,7.8649774E0,5.472809E0,7.490158E0,5.5285106E0,6.4373035E0,5.0587544E0,6.3436537E0,1.1265479E1,5.063024E0],"tree_param":{"num_deleted":"0","num_feature":"46","num_nodes":"21","size_leaf_vector":"1"}},{"base_weights":[-4.1547962E-4,-8.2041755E-2,2.8570766E-2,-1.7356472E-1,9.220072E-2,-2.486177E-1,1.3744736E-2,4.2027006E-1,-2.3804892E-2,2.3084502E-3,-2.47287E-2,2.8883116E-3,3.6431443E-2],"categories":[],"categories_nodes":[],"categories_segments":[],"categories_sizes":[],"default_left":[0,0,0,0,0,0,0,0,0,0,0,0,0],"id":43,"left_children":[1,3,-1,5,7,9,-1,11,-1,-1,-1,-1,-1],"loss_changes":[3.4391685E0,1.0693702E0,0E0,1.5364122E0,4.4543686E0,2.8334968E0,0E0,1.5703568E0,0E0,0E0,0E0,0E0,0E0],"parents":[2147483647,0,0,1,1,3,3,4,4,5,5,7,7],"right_children":[2,4,-1,6,8,10,-1,12,-1,-1,-1,-1,-1],"split_conditions":[8.4E-1,2E1,2.8570766E-2,3E0,3.72E1,-3.5784632E-2,1.3744736E-2,1E0,-2.3804892E-2,2.3084502E-3,-2.47287E-2,2.8883116E-3,3.6431443E-2],"split_indices":[33,30,0,26,19,10,0,25,0,0,0,0,0],"split_type":[0,0,0,0,0,0,0,0,0,0,0,0,0],"sum_hessian":[7.272514E1,6.454329E1,8.18186E0,4.269502E1,2.1848269E1,3.7146828E1,5.5481906E0,1.4128538E1,7.7197313E0,1.7080729E1,2.00661E1,7.188929E0,6.939609E0],"tree_param":{"num_deleted":"0","num_feature":"46","num_nodes":"13","size_leaf_vector":"1"}},{"base_weights":[4.8739915E-3,-2.054416E-1,2.213214E-1,-8.7758794E-2,-3.4076463E-2,4.381438E-1,-1.8221897E-1,9.683937E-2,-2.3445724E-2,8.9962445E-2,7.491386E-1,8.709117E-3,-3.0321354E-2,2.9814094E-2,-5.100479E-3,2.3110365E-2,-1.3141838E-2,4.5682516E-2,2.1902826E-2],"categories":[],"categories_nodes":[],"categories_segments":[],"categories_sizes":[],"default_left":[0,0,0,0,0,0,0,0,0,0,0,0,0,0,0,0,0,0,0],"id":44,"left_children":[1,3,5,7,-1,9,11,13,-1,15,17,-1,-1,-1,-1,-1,-1,-1,-1],"loss_changes":[3.16176E0,1.8234667E0,3.1183698E0,2.1490116E0,0E0,2.3234453E0,2.0508623E0,2.1400347E0,0E0,1.7266519E0,6.765127E-2,0E0,0E0,0E0,0E0,0E0,0E0,0E0,0E0],"parents":[2147483647,0,0,1,1,2,2,3,3,5,5,6,6,7,7,9,9,10,10],"right_children":[2,4,6,8,-1,10,12,14,-1,16,18,-1,-1,-1,-1,-1,-1,-1,-1],"split_conditions":[3.5736553E1,3.7E1,2E1,2E0,-3.4076463E-2,3.684605E1,3.7333332E1,8E-1,-2.3445724E-2,3.620032E1,3.762353E1,8.709117E-3,-3.0321354E-2,2.9814094E-2,-5.100479E-3,2.3110365E-2,-1.3141838E-2,4.5682516E-2,2.1902826E-2],"split_indices":[45,19,30,26,0,45,19,36,0,45,45,0,0,0,0,0,0,0,0],"split_type":[0,0,0,0,0,0,0,0,0,0,0,0,0,0,0,0,0,0,0],"sum_hessian":[6.742153E1,3.3986595E1,3.3434937E1,2.8368616E1,5.6179814E0,2.1854542E1,1.1580395E1,1.9438093E1,8.930523E0,1.1070799E1,1.0783742E1,6.485347E0,5.0950475E0,5.109344E0,1.4328749E1,5.3739643E0,5.6968346E0,5.5763154E0,5.207427E0],"tree_param":{"num_deleted":"0","num_feature":"46","num_nodes":"19","size_leaf_vector":"1"}},{"base_weights":[8.206583E-2,3.4372428E-1,-6.997979E-2,6.481588E-1,1.843097E-2,-3.0497318E-2,1.9605957E-2,1.3358347E-2,4.6312228E-2,1.3657837E-2,-1.3034197E-2,2.5017366E-2,-1.2029933E-1,-1.2283936E-2,1.7359642E-2],"categories":[],"categories_nodes":[],"categories_segments":[],"categories_sizes":[],"default_left":[0,0,0,0,0,0,0,0,0,0,0,0,0,0,0],"id":45,"left_children":[1,3,5,7,9,-1,11,-1,-1,-1,-1,-1,13,-1,-1],"loss_changes":[2.92441E0,2.5903988E0,2.308894E0,1.0882883E0,1.083278E0,0E0,2.8214755E0,0E0,0E0,0E0,0E0,0E0,1.9512454E0,0E0,0E0],"parents":[2147483647,0,0,1,1,2,2,3,3,4,4,6,6,12,12],"right_children":[2,4,6,8,10,-1,12,-1,-1,-1,-1,-1,14,-1,-1],"split_conditions":[-3.5784632E-2,1E0,-1.675451E-2,3.5533554E1,3.5515156E1,-3.0497318E-2,-6.770194E-2,1.3358347E-2,4.6312228E-2,1.3657837E-2,-1.3034197E-2,2.5017366E-2,3.1E1,-1.2283936E-2,1.7359642E-2],"split_indices":[10,25,10,45,45,0,11,0,0,0,0,0,18,0,0],"split_type":[0,0,0,0,0,0,0,0,0,0,0,0,0,0,0],"sum_hessian":[7.121448E1,2.5951328E1,4.5263145E1,1.2733958E1,1.3217369E1,5.773265E0,3.9489883E1,6.3518853E0,6.382073E0,7.1090927E0,6.1082764E0,8.482123E0,3.100776E1,2.49931E1,6.01466E0],"tree_param":{"num_deleted":"0","num_feature":"46","num_nodes":"15","size_leaf_vector":"1"}},{"base_weights":[2.4721958E-2,8.855323E-2,-2.348308E-2,1.8425517E-1,-2.4146385E-1,2.781636E-2,1.0164886E-1,-2.5351007E-2,3.245805E-3,8.617989E-3,-1.3243275E-2],"categories":[],"categories_nodes":[],"categories_segments":[],"categories_sizes":[],"default_left":[0,0,0,0,0,0,0,0,0,0,0],"id":46,"left_children":[1,3,-1,5,7,-1,9,-1,-1,-1,-1],"loss_changes":[2.3656063E0,2.1647549E0,0E0,1.5061281E0,1.3243951E0,0E0,1.1974887E0,0E0,0E0,0E0,0E0],"parents":[2147483647,0,0,1,1,3,3,4,4,6,6],"right_children":[2,4,-1,6,8,-1,10,-1,-1,-1,-1],"split_conditions":[6.2482048E-2,2.65E1,-2.348308E-2,3.56E1,3.1E1,2.781636E-2,1.2698413E-1,-2.5351007E-2,3.245805E-3,8.617989E-3,-1.3243275E-2],"split_indices":[11,18,0,20,18,0,12,0,0,0,0],"split_type":[0,0,0,0,0,0,0,0,0,0,0],"sum_hessian":[7.385241E1,6.631362E1,7.538788E0,5.198356E1,1.4330063E1,8.182596E0,4.3800964E1,7.5004935E0,6.829569E0,3.738996E1,6.411001E0],"tree_param":{"num_deleted":"0","num_feature":"46","num_nodes":"11","size_leaf_vector":"1"}},{"base_weights":[-1.0501002E-1,2.919499E-2,-1.6443053E-1,1.8078996E-2,-2.1268867E-1,-1.0063497E-1,-4.6101895E-1,-1.4073938E-2,1.2891041E-2,-3.8688004E-2,-7.245139E-3],"categories":[],"categories_nodes":[],"categories_segments":[],"categories_sizes":[],"default_left":[0,0,0,0,0,0,0,0,0,0,0],"id":47,"left_children":[1,-1,3,-1,5,7,9,-1,-1,-1,-1],"loss_changes":[3.1303396E0,0E0,1.8413584E0,0E0,1.7064173E0,3.0797446E0,1.7393155E0,0E0,0E0,0E0,0E0],"parents":[2147483647,0,0,2,2,4,4,5,5,6,6],"right_children":[2,-1,4,-1,6,8,10,-1,-1,-1,-1],"split_conditions":[-2.3803642E-1,2.919499E-2,1E0,1.8078996E-2,3.72E1,2E1,3.02E1,-1.4073938E-2,1.2891041E-2,-3.8688004E-2,-7.245139E-3],"split_indices":[10,0,26,0,19,30,44,0,0,0,0],"split_type":[0,0,0,0,0,0,0,0,0,0,0],"sum_hessian":[7.414956E1,5.053284E0,6.9096275E1,5.0867047E0,6.400957E1,4.535296E1,1.8656609E1,3.0472872E1,1.4880086E1,8.4916115E0,1.0164997E1],"tree_param":{"num_deleted":"0","num_feature":"46","num_nodes":"11","size_leaf_vector":"1"}},{"base_weights":[-1.3937135E-2,2.8988448E-1,-1.081396E-1,-1.04126135E-4,2.3760801E-2,-2.5755125E-1,1.8090826E-1,-8.013512E-2,-5.4558422E-2,5.5589104E-1,-2.114497E-2,1.3606684E-2,-1.717295E-2,7.856829E-3,3.997679E-2],"categories":[],"categories_nodes":[],"categories_segments":[],"categories_sizes":[],"default_left":[0,0,0,0,0,0,0,0,0,0,0,0,0,0,0],"id":48,"left_children":[1,3,5,-1,-1,7,9,11,-1,13,-1,-1,-1,-1,-1],"loss_changes":[2.0530398E0,9.621699E-1,2.4461093E0,0E0,0E0,5.290012E0,4.6028624E0,3.051341E0,0E0,9.832504E-1,0E0,0E0,0E0,0E0,0E0],"parents":[2147483647,0,0,1,1,2,2,5,5,6,6,7,7,9,9],"right_children":[2,4,6,-1,-1,8,10,12,-1,14,-1,-1,-1,-1,-1],"split_conditions":[-1.4281754E-1,2.9E1,3.6419586E1,-1.04126135E-4,2.3760801E-2,6.29E-1,2.13E1,-6.586211E-2,-5.4558422E-2,1.0583189E-1,-2.114497E-2,1.3606684E-2,-1.717295E-2,7.856829E-3,3.997679E-2],"split_indices":[11,44,45,0,0,33,18,11,0,35,0,0,0,0,0],"split_type":[0,0,0,0,0,0,0,0,0,0,0,0,0,0,0],"sum_hessian":[7.027229E1,1.5888841E1,5.4383453E1,6.3439384E0,9.544903E0,3.6151382E1,1.8232073E1,3.0810226E1,5.3411555E0,1.1398335E1,6.833737E0,1.3002523E1,1.7807703E1,5.1026316E0,6.295704E0],"tree_param":{"num_deleted":"0","num_feature":"46","num_nodes":"15","size_leaf_vector":"1"}},{"base_weights":[2.229151E-2,2.786163E-1,-1.22623116E-1,4.7682995E-1,3.8930673E-2,-3.3435207E-2,-3.259551E-2,2.9406283E-2,1.1052697E-2,1.706382E-2,-1.3544582E-2,1.763581E-2,-1.4090623E-1,1.7008104E-3,-1.8442376E-2],"categories":[],"categories_nodes":[],"categories_segments":[],"categories_sizes":[],"default_left":[0,0,0,0,0,0,0,0,0,0,0,0,0,0,0],"id":49,"left_children":[1,3,5,7,9,-1,11,-1,-1,-1,-1,-1,13,-1,-1],"loss_changes":[2.8014421E0,1.2273178E0,2.25652E0,2.055664E-1,1.38084E0,0E0,1.7903748E0,0E0,0E0,0E0,0E0,0E0,1.3965285E0,0E0,0E0],"parents":[2147483647,0,0,1,1,2,2,3,3,4,4,6,6,12,12],"right_children":[2,4,6,8,10,-1,12,-1,-1,-1,-1,-1,14,-1,-1],"split_conditions":[-3.5784632E-2,1E0,-1.675451E-2,-1.3539694E-1,-2.1422356E-1,-3.3435207E-2,-6.770194E-2,2.9406283E-2,1.1052697E-2,1.706382E-2,-1.3544582E-2,1.763581E-2,7.017544E-2,1.7008104E-3,-1.8442376E-2],"split_indices":[10,25,10,11,11,0,11,0,0,0,0,0,24,0,0],"split_type":[0,0,0,0,0,0,0,0,0,0,0,0,0,0,0],"sum_hessian":[7.307894E1,2.6309742E1,4.6769196E1,1.3630812E1,1.267893E1,5.5522633E0,4.1216934E1,8.320132E0,5.31068E0,6.528863E0,6.1500673E0,8.346117E0,3.2870815E1,1.8831532E1,1.4039286E1],"tree_param":{"num_deleted":"0","num_feature":"46","num_nodes":"15","size_leaf_vector":"1"}},{"base_weights":[-5.8843996E-2,1.5889626E-2,-4.4487393E-1,2.160561E-2,-2.8977072E-2,-8.431537E-3,-3.07314E-2,-9.5159374E-2,1.7974038E-2,1.0604369E-2,-8.614908E-3],"categories":[],"categories_nodes":[],"categories_segments":[],"categories_sizes":[],"default_left":[0,0,0,0,0,0,0,0,0,0,0],"id":50,"left_children":[1,3,5,-1,7,-1,-1,9,-1,-1,-1],"loss_changes":[2.121134E0,1.1900476E0,3.7586784E-1,0E0,1.4395411E0,0E0,0E0,1.1842909E0,0E0,0E0,0E0],"parents":[2147483647,0,0,1,1,2,2,4,4,7,7],"right_children":[2,4,6,-1,8,-1,-1,10,-1,-1,-1],"split_conditions":[1.3057324E-1,-2.3739953E-1,3.433142E1,2.160561E-2,1.20805934E-1,-8.431537E-3,-3.07314E-2,3.56E1,1.7974038E-2,1.0604369E-2,-8.614908E-3],"split_indices":[12,10,45,0,35,0,0,19,0,0,0],"split_type":[0,0,0,0,0,0,0,0,0,0,0],"sum_hessian":[7.0792336E1,5.9896446E1,1.0895886E1,5.2053046E0,5.4691143E1,5.1300898E0,5.765796E0,4.7594788E1,7.096354E0,8.940125E0,3.8654663E1],"tree_param":{"num_deleted":"0","num_feature":"46","num_nodes":"11","size_leaf_vector":"1"}},{"base_weights":[-4.6279322E-2,-2.9315723E-2,1.5464236E-3,2.2154596E-2,-6.486006E-2,-1.3759322E-1,2.4536623E-2,-1.1546658E-3,-2.7250795E-2],"categories":[],"categories_nodes":[],"categories_segments":[],"categories_sizes":[],"default_left":[0,0,0,0,0,0,0,0,0],"id":51,"left_children":[1,-1,3,-1,5,7,-1,-1,-1],"loss_changes":[1.9720013E0,0E0,2.0855196E0,0E0,2.4782069E0,2.471294E0,0E0,0E0,0E0],"parents":[2147483647,0,0,2,2,4,4,5,5],"right_children":[2,-1,4,-1,6,8,-1,-1,-1],"split_conditions":[3.2798847E1,-2.9315723E-2,3.3818764E1,2.2154596E-2,3E0,2.6201831E-2,2.4536623E-2,-1.1546658E-3,-2.7250795E-2],"split_indices":[45,0,45,0,26,10,0,0,0],"split_type":[0,0,0,0,0,0,0,0,0],"sum_hessian":[7.30533E1,5.197386E0,6.785591E1,8.326352E0,5.952956E1,5.3463005E1,6.066558E0,4.2750698E1,1.0712304E1],"tree_param":{"num_deleted":"0","num_feature":"46","num_nodes":"9","size_leaf_vector":"1"}},{"base_weights":[1.8360645E-2,6.283592E-2,-2.2997925E-2,1.4352919E-1,-1.8865186E-1,6.476609E-3,4.3953747E-1,-2.2367338E-2,7.138096E-3,-6.410545E-3,1.982668E-2,1.1127717E-2,3.6690727E-2],"categories":[],"categories_nodes":[],"categories_segments":[],"categories_sizes":[],"default_left":[0,0,0,0,0,0,0,0,0,0,0,0,0],"id":52,"left_children":[1,3,-1,5,7,9,11,-1,-1,-1,-1,-1,-1],"loss_changes":[1.5118209E0,1.3732227E0,0E0,2.0320082E0,1.4917132E0,1.9837657E0,7.6115847E-1,0E0,0E0,0E0,0E0,0E0,0E0],"parents":[2147483647,0,0,1,1,3,3,4,4,5,5,6,6],"right_children":[2,4,-1,6,8,10,12,-1,-1,-1,-1,-1,-1],"split_conditions":[2.1268657E-1,3.38E1,-2.2997925E-2,3.1E1,3.52E1,3.1847134E-3,0E0,-2.2367338E-2,7.138096E-3,-6.410545E-3,1.982668E-2,1.1127717E-2,3.6690727E-2],"split_indices":[12,44,0,44,44,10,10,0,0,0,0,0,0],"split_type":[0,0,0,0,0,0,0,0,0,0,0,0,0],"sum_hessian":[7.057451E1,6.5556595E1,5.0179143E0,5.0257656E1,1.5298941E1,3.52818E1,1.4975856E1,8.565112E0,6.733829E0,2.6534359E1,8.747441E0,9.826468E0,5.1493874E0],"tree_param":{"num_deleted":"0","num_feature":"46","num_nodes":"13","size_leaf_vector":"1"}},{"base_weights":[5.5502284E-2,-8.415527E-2,2.5487423E-1,6.3145675E-2,-4.4968373E-1,4.2171508E-1,-7.6679303E-3,1.9933145E-1,-2.1562258E-2,-0E0,-4.0847056E-2,6.24967E-1,-8.3807055E-3,2.044693E-2,-1.1357151E-2,1.3056519E-2,4.7331084E-2],"categories":[],"categories_nodes":[],"categories_segments":[],"categories_sizes":[],"default_left":[0,0,0,0,0,0,0,0,0,0,0,0,0,0,0,0,0],"id":53,"left_children":[1,3,5,7,9,11,-1,13,-1,-1,-1,15,-1,-1,-1,-1,-1],"loss_changes":[2.0548308E0,2.3845294E0,2.160236E0,2.1742485E0,2.1247413E0,2.7859359E0,0E0,2.3843203E0,0E0,0E0,0E0,1.5861216E0,0E0,0E0,0E0,0E0,0E0],"parents":[2147483647,0,0,1,1,2,2,3,3,4,4,5,5,7,7,11,11],"right_children":[2,4,6,8,10,12,-1,14,-1,-1,-1,16,-1,-1,-1,-1,-1],"split_conditions":[3.6023975E1,3.25E1,2.13E1,1.3214472E-1,-7.525092E-2,3.7889324E1,-7.6679303E-3,5.85E-1,-2.1562258E-2,-0E0,-4.0847056E-2,1E0,-8.3807055E-3,2.044693E-2,-1.1357151E-2,1.3056519E-2,4.7331084E-2],"split_indices":[45,44,18,10,10,45,0,33,0,0,0,25,0,0,0,0,0],"split_type":[0,0,0,0,0,0,0,0,0,0,0,0,0,0,0,0,0],"sum_hessian":[7.141505E1,4.204169E1,2.9373356E1,3.0360617E1,1.1681074E1,2.100198E1,8.371375E0,2.4430134E1,5.9304843E0,5.6551495E0,6.025924E0,1.5697373E1,5.304606E0,1.6564484E1,7.865649E0,8.361768E0,7.3356066E0],"tree_param":{"num_deleted":"0","num_feature":"46","num_nodes":"17","size_leaf_vector":"1"}},{"base_weights":[-3.3659488E-2,6.606534E-2,-3.5420743E-1,-5.8320682E-2,2.5563917E-1,-1.1862891E-3,-5.0758964E-1,3.9897375E-2,-2.2369315E-1,8.594539E-2,2.9364327E-2,-3.4154557E-2,-1.2252483E-2,-4.812722E-3,1.0637728E-2,-2.6769299E-2,1.01624E-3,1.8915301E-2,-1.6327985E-2],"categories":[],"categories_nodes":[],"categories_segments":[],"categories_sizes":[],"default_left":[0,0,0,0,0,0,0,0,0,0,0,0,0,0,0,0,0,0,0],"id":54,"left_children":[1,3,5,7,9,-1,11,13,15,17,-1,-1,-1,-1,-1,-1,-1,-1,-1],"loss_changes":[2.373555E0,1.3549367E0,8.283024E-1,5.8449244E-1,1.1590034E0,0E0,2.82717E-1,5.496867E-1,1.0749588E0,2.1040175E0,0E0,0E0,0E0,0E0,0E0,0E0,0E0,0E0,0E0],"parents":[2147483647,0,0,1,1,2,2,3,3,4,4,6,6,7,7,8,8,9,9],"right_children":[2,4,6,8,10,-1,12,14,16,18,-1,-1,-1,-1,-1,-1,-1,-1,-1],"split_conditions":[-1.3768527E-2,1.04379036E-1,8.3333336E-2,3.15E1,-5.3358886E-2,-1.1862891E-3,3.571174E1,3.45E1,3.5625015E1,-9.695467E-2,2.9364327E-2,-3.4154557E-2,-1.2252483E-2,-4.812722E-3,1.0637728E-2,-2.6769299E-2,1.01624E-3,1.8915301E-2,-1.6327985E-2],"split_indices":[11,35,35,44,11,0,45,45,45,11,0,0,0,0,0,0,0,0,0],"split_type":[0,0,0,0,0,0,0,0,0,0,0,0,0,0,0,0,0,0,0],"sum_hessian":[7.161768E1,5.499139E1,1.6626295E1,3.33042E1,2.1687191E1,5.843143E0,1.0783152E1,2.0991167E1,1.2313033E1,1.5378934E1,6.3082576E0,5.274518E0,5.508634E0,1.1666575E1,9.324593E0,5.0624056E0,7.2506275E0,9.190527E0,6.1884065E0],"tree_param":{"num_deleted":"0","num_feature":"46","num_nodes":"19","size_leaf_vector":"1"}},{"base_weights":[3.3704408E-2,4.539136E-1,-8.1794E-2,6.756779E-3,3.3529326E-2,2.7272535E-2,-2.221734E-1,-3.4104994E-1,1.6949946E-2,-9.515447E-3,-3.5039853E-2],"categories":[],"categories_nodes":[],"categories_segments":[],"categories_sizes":[],"default_left":[0,0,0,0,0,0,0,0,0,0,0],"id":55,"left_children":[1,3,5,-1,-1,-1,7,9,-1,-1,-1],"loss_changes":[3.5285316E0,9.121015E-1,5.062702E0,0E0,0E0,0E0,3.2510765E0,1.9156551E0,0E0,0E0,0E0],"parents":[2147483647,0,0,1,1,2,2,6,6,7,7],"right_children":[2,4,6,-1,-1,-1,8,10,-1,-1,-1],"split_conditions":[-1.2131363E-1,3.5355698E1,3.56E1,6.756779E-3,3.3529326E-2,2.7272535E-2,3.7158936E1,5.85E-1,1.6949946E-2,-9.515447E-3,-3.5039853E-2],"split_indices":[10,45,20,0,0,0,45,33,0,0,0],"split_type":[0,0,0,0,0,0,0,0,0,0,0],"sum_hessian":[7.017131E1,1.46838665E1,5.5487442E1,6.785692E0,7.898175E0,9.489308E0,4.599813E1,3.8428123E1,7.5700097E0,2.8354162E1,1.007396E1],"tree_param":{"num_deleted":"0","num_feature":"46","num_nodes":"11","size_leaf_vector":"1"}},{"base_weights":[-1.3549693E-1,7.4108094E-2,-2.5827813E-1,3.166325E-1,-1.8366148E-1,-5.1020946E-2,-1.2269342E-1,3.1364568E-2,-3.7945774E-3,3.9338223E-3,-2.0728625E-2,1.996169E-2,-2.269639E-1,-1.712079E-2,1.0733805E-2],"categories":[],"categories_nodes":[],"categories_segments":[],"categories_sizes":[],"default_left":[0,0,0,0,0,0,0,0,0,0,0,0,0,0,0],"id":56,"left_children":[1,3,5,7,9,-1,11,-1,-1,-1,-1,-1,13,-1,-1],"loss_changes":[1.79217E0,1.6756504E0,4.257372E0,1.7841182E0,8.45979E-1,0E0,2.1519194E0,0E0,0E0,0E0,0E0,0E0,1.7500647E0,0E0,0E0],"parents":[2147483647,0,0,1,1,2,2,3,3,4,4,6,6,12,12],"right_children":[2,4,6,8,10,-1,12,-1,-1,-1,-1,-1,14,-1,-1],"split_conditions":[-3.5784632E-2,1E0,-1.675451E-2,2E0,-2.1674141E-1,-5.1020946E-2,-6.804734E-2,3.1364568E-2,-3.7945774E-3,3.9338223E-3,-2.0728625E-2,1.996169E-2,3.1E1,-1.712079E-2,1.0733805E-2],"split_indices":[10,25,10,26,11,0,11,0,0,0,0,0,18,0,0],"split_type":[0,0,0,0,0,0,0,0,0,0,0,0,0,0,0],"sum_hessian":[6.717854E1,2.4660873E1,4.2517666E1,1.27884E1,1.1872473E1,5.324469E0,3.71932E1,6.946966E0,5.841434E0,5.663914E0,6.208559E0,5.5624433E0,3.1630754E1,2.5433203E1,6.197553E0],"tree_param":{"num_deleted":"0","num_feature":"46","num_nodes":"15","size_leaf_vector":"1"}},{"base_weights":[-1.4602002E-2,-6.876636E-2,2.584914E-2,1.0741887E-2,-4.0480292E-1,1.0854919E-1,-2.2511613E-1,1.2779171E-3,-3.5279434E-2,-5.228976E-3,3.4641955E-2,-2.2629587E-2,3.989441E-3],"categories":[],"categories_nodes":[],"categories_segments":[],"categories_sizes":[],"default_left":[0,0,0,0,0,0,0,0,0,0,0,0,0],"id":57,"left_children":[1,3,-1,5,7,9,11,-1,-1,-1,-1,-1,-1],"loss_changes":[2.093841E0,1.8429669E0,0E0,1.2859453E0,1.7884283E0,5.110793E0,1.197246E0,0E0,0E0,0E0,0E0,0E0,0E0],"parents":[2147483647,0,0,1,1,3,3,4,4,5,5,6,6],"right_children":[2,4,-1,6,8,10,12,-1,-1,-1,-1,-1,-1],"split_conditions":[3.1E1,2.13E1,2.584914E-2,5.633352E-3,-6.770194E-2,-1.7426338E-2,1.4069414E-1,1.2779171E-3,-3.5279434E-2,-5.228976E-3,3.4641955E-2,-2.2629587E-2,3.989441E-3],"split_indices":[18,18,0,11,11,10,10,0,0,0,0,0,0],"split_type":[0,0,0,0,0,0,0,0,0,0,0,0,0],"sum_hessian":[7.204259E1,6.6341644E1,5.700943E0,5.4190334E1,1.215131E1,3.898677E1,1.5203563E1,5.2385755E0,6.9127345E0,2.9042824E1,9.943949E0,8.61781E0,6.5857525E0],"tree_param":{"num_deleted":"0","num_feature":"46","num_nodes":"13","size_leaf_vector":"1"}},{"base_weights":[-2.2979753E-2,1.5641136E-1,-1.4293689E-1,-3.948503E-3,2.9911635E-2,-3.766452E-1,9.385184E-2,1.6006673E-2,-1.8688942E-1,-1.9648887E-1,-3.7567087E-2,-2.2953913E-2,3.333733E-1,5.2742264E-3,-2.91176E-2,-3.0232867E-2,1.0077314E-2,3.9022025E-2,-0E0],"categories":[],"categories_nodes":[],"categories_segments":[],"categories_sizes":[],"default_left":[0,0,0,0,0,0,0,0,0,0,0,0,0,0,0,0,0,0,0],"id":58,"left_children":[1,3,5,7,-1,9,11,-1,13,15,-1,-1,17,-1,-1,-1,-1,-1,-1],"loss_changes":[1.5315434E0,2.0648973E0,2.438922E0,1.325394E0,0E0,1.2435939E0,3.0420165E0,0E0,1.799108E0,2.826665E0,0E0,0E0,2.3379097E0,0E0,0E0,0E0,0E0,0E0,0E0],"parents":[2147483647,0,0,1,1,2,2,3,3,5,5,6,6,8,8,9,9,12,12],"right_children":[2,4,6,8,-1,10,12,-1,14,16,-1,-1,18,-1,-1,-1,-1,-1,-1],"split_conditions":[-3.5784632E-2,3.680489E1,1E0,2.408319E0,2.9911635E-2,2.2E0,2.408319E0,1.6006673E-2,3.5242817E1,5.882353E-2,-3.7567087E-2,-2.2953913E-2,3.7E1,5.2742264E-3,-2.91176E-2,-3.0232867E-2,1.0077314E-2,3.9022025E-2,-0E0],"split_indices":[10,45,25,34,0,23,34,0,45,24,0,0,19,0,0,0,0,0,0],"split_type":[0,0,0,0,0,0,0,0,0,0,0,0,0,0,0,0,0,0,0],"sum_hessian":[6.919456E1,2.7272337E1,4.192222E1,2.0570839E1,6.701497E0,2.1013634E1,2.0908585E1,6.954431E0,1.3616407E1,1.5400336E1,5.6132965E0,5.916447E0,1.4992137E1,8.104771E0,5.5116367E0,7.471131E0,7.929206E0,5.756405E0,9.235732E0],"tree_param":{"num_deleted":"0","num_feature":"46","num_nodes":"19","size_leaf_vector":"1"}},{"base_weights":[5.8236323E-2,-4.400589E-2,3.846582E-1,2.639869E-1,-1.4764039E-1,3.3903863E-2,5.9450653E-5,3.0447131E-2,-2.200917E-3,-2.8325996E-1,1.706737E-2,-4.27363E-3,-2.7309671E-2],"categories":[],"categories_nodes":[],"categories_segments":[],"categories_sizes":[],"default_left":[0,0,0,0,0,0,0,0,0,0,0,0,0],"id":59,"left_children":[1,3,5,7,9,-1,-1,-1,-1,11,-1,-1,-1],"loss_changes":[2.4218392E0,1.7751732E0,1.8755183E0,1.5603883E0,2.866661E0,0E0,0E0,0E0,0E0,1.6310143E0,0E0,0E0,0E0],"parents":[2147483647,0,0,1,1,2,2,3,3,4,4,9,9],"right_children":[2,4,6,8,10,-1,-1,-1,-1,12,-1,-1,-1],"split_conditions":[1.4142135E0,-1.4281754E-1,5.5E0,3.5054787E1,3.629767E1,3.3903863E-2,5.9450653E-5,3.0447131E-2,-2.200917E-3,3.4801315E1,1.706737E-2,-4.27363E-3,-2.7309671E-2],"split_indices":[22,11,37,45,45,0,0,0,0,45,0,0,0],"split_type":[0,0,0,0,0,0,0,0,0,0,0,0,0],"sum_hessian":[7.0038536E1,5.3758938E1,1.6279598E1,1.2902275E1,4.0856663E1,8.639708E0,7.6398907E0,5.7783403E0,7.1239347E0,3.2475018E1,8.381642E0,1.9506771E1,1.2968248E1],"tree_param":{"num_deleted":"0","num_feature":"46","num_nodes":"13","size_leaf_vector":"1"}},{"base_weights":[4.297557E-2,-1.282835E-1,2.2533894E-1,-8.421618E-3,-2.512498E-2,8.596217E-1,-1.1296123E-1,2.0783897E-1,-2.0117244E-2,2.0436248E-2,5.5027433E-2,-4.535659E-1,1.7814732E-1,-1.4828898E-3,3.0168999E-2,-7.242815E-3,-3.407344E-2,2.0338133E-2,-1.057194E-3],"categories":[],"categories_nodes":[],"categories_segments":[],"categories_sizes":[],"default_left":[0,0,0,0,0,0,0,0,0,0,0,0,0,0,0,0,0,0,0],"id":60,"left_children":[1,3,5,7,-1,9,11,13,-1,-1,-1,15,17,-1,-1,-1,-1,-1,-1],"loss_changes":[2.2487328E0,1.5974889E0,7.664292E0,2.5845435E0,0E0,7.424507E-1,2.4436853E0,1.8883404E0,0E0,0E0,0E0,6.13255E-1,6.512501E-1,0E0,0E0,0E0,0E0,0E0,0E0],"parents":[2147483647,0,0,1,1,2,2,3,3,5,5,6,6,7,7,11,11,12,12],"right_children":[2,4,6,8,-1,10,12,14,-1,-1,-1,16,18,-1,-1,-1,-1,-1,-1],"split_conditions":[3.02E1,5.506654E-2,3.25E1,6.29E-1,-2.512498E-2,3.5242817E1,3.571174E1,8.888889E-2,-2.0117244E-2,2.0436248E-2,5.5027433E-2,3.4510857E1,3.72E1,-1.4828898E-3,3.0168999E-2,-7.242815E-3,-3.407344E-2,2.0338133E-2,-1.057194E-3],"split_indices":[44,10,44,33,0,45,45,24,0,0,0,45,19,0,0,0,0,0,0],"split_type":[0,0,0,0,0,0,0,0,0,0,0,0,0,0,0,0,0,0,0],"sum_hessian":[6.976601E1,3.584853E1,3.391748E1,2.8128626E1,7.7199035E0,1.136455E1,2.2552929E1,1.8300392E1,9.828233E0,5.041282E0,6.323268E0,1.0294059E1,1.225887E1,1.1854647E1,6.4457464E0,5.2529626E0,5.0410967E0,5.458232E0,6.8006377E0],"tree_param":{"num_deleted":"0","num_feature":"46","num_nodes":"19","size_leaf_vector":"1"}},{"base_weights":[2.371447E-2,3.1186683E-2,-3.464124E-2,-1.0055165E-1,2.6222868E-2,-1.4972928E-1,1.6246676E-2,-1.1387664E-3,-2.2866001E-2],"categories":[],"categories_nodes":[],"categories_segments":[],"categories_sizes":[],"default_left":[0,0,0,0,0,0,0,0,0],"id":61,"left_children":[1,-1,3,5,-1,7,-1,-1,-1],"loss_changes":[2.6164434E0,0E0,2.471989E0,1.3024036E0,0E0,2.1032276E0,0E0,0E0,0E0],"parents":[2147483647,0,0,2,2,3,3,5,5],"right_children":[2,-1,4,6,-1,8,-1,-1,-1],"split_conditions":[1E0,3.1186683E-2,3.7366383E1,8.4E-1,2.6222868E-2,5.6E-1,1.6246676E-2,-1.1387664E-3,-2.2866001E-2],"split_indices":[26,0,45,33,0,33,0,0,0],"split_type":[0,0,0,0,0,0,0,0,0],"sum_hessian":[7.142496E1,5.6239634E0,6.5800995E1,5.9755604E1,6.045391E0,5.4356228E1,5.399377E0,3.9466225E1,1.4890004E1],"tree_param":{"num_deleted":"0","num_feature":"46","num_nodes":"9","size_leaf_vector":"1"}},{"base_weights":[-3.3923037E-2,9.5764995E-2,-2.665628E-1,-3.722259E-2,2.9973823E-1,-4.5206887E-1,-4.004168E-2,1.8283652E-1,-2.3229152E-1,-2.4697022E-3,3.2778956E-2,-3.1203532E-3,-3.4533754E-2,-1.2286534E-2,5.4897787E-3,-3.278286E-3,1.9394318E-2,-2.8338356E-2,-1.0942562E-4],"categories":[],"categories_nodes":[],"categories_segments":[],"categories_sizes":[],"default_left":[0,0,0,0,0,0,0,0,0,0,0,0,0,0,0,0,0,0,0],"id":62,"left_children":[1,3,5,7,9,11,13,15,17,-1,-1,-1,-1,-1,-1,-1,-1,-1,-1],"loss_changes":[2.1560361E0,1.2699081E0,1.0089744E0,1.253519E0,2.3714123E0,1.1592112E0,4.3727452E-1,7.463732E-1,1.1406076E0,0E0,0E0,0E0,0E0,0E0,0E0,0E0,0E0,0E0,0E0],"parents":[2147483647,0,0,1,1,2,2,3,3,4,4,5,5,6,6,7,7,8,8],"right_children":[2,4,6,8,10,12,14,16,18,-1,-1,-1,-1,-1,-1,-1,-1,-1,-1],"split_conditions":[2.6119404E-2,-1.119403E-2,1E0,-1.4006409E-1,1E0,-6.7340066E-3,4.8368663E-2,-2.3052089E-1,-8.836966E-2,-2.4697022E-3,3.2778956E-2,-3.1203532E-3,-3.4533754E-2,-1.2286534E-2,5.4897787E-3,-3.278286E-3,1.9394318E-2,-2.8338356E-2,-1.0942562E-4],"split_indices":[12,10,25,10,25,10,10,10,10,0,0,0,0,0,0,0,0,0,0],"split_type":[0,0,0,0,0,0,0,0,0,0,0,0,0,0,0,0,0,0,0],"sum_hessian":[6.90493E1,4.4436245E1,2.4613054E1,2.7096786E1,1.733946E1,1.2741462E1,1.1871593E1,1.2521375E1,1.4575412E1,9.045075E0,8.294385E0,5.4772887E0,7.264173E0,5.014858E0,6.856735E0,5.749207E0,6.772167E0,5.167008E0,9.408404E0],"tree_param":{"num_deleted":"0","num_feature":"46","num_nodes":"19","size_leaf_vector":"1"}},{"base_weights":[3.8793493E-2,-1.4076296E-2,2.2738205E-2,1.7646055E-1,-1.22235626E-1,3.3503282E-1,-3.8599328E-3,-2.6967818E-2,-2.2740178E-2,-0E0,2.6081113E-2,2.6028244E-2,-8.7040905E-3],"categories":[],"categories_nodes":[],"categories_segments":[],"categories_sizes":[],"default_left":[0,0,0,0,0,0,0,0,0,0,0,0,0],"id":63,"left_children":[1,3,-1,5,7,9,-1,-1,11,-1,-1,-1,-1],"loss_changes":[1.5876489E0,1.3097527E0,0E0,9.6890473E-1,1.6317163E0,9.4973814E-1,0E0,0E0,2.8774803E0,0E0,0E0,0E0,0E0],"parents":[2147483647,0,0,1,1,3,3,4,4,5,5,8,8],"right_children":[2,4,-1,6,8,10,-1,-1,12,-1,-1,-1,-1],"split_conditions":[3.91578E0,-3.5784632E-2,2.2738205E-2,3.2093613E0,-1.675451E-2,-2.0519957E-1,-3.8599328E-3,-2.6967818E-2,-6.804734E-2,-0E0,2.6081113E-2,2.6028244E-2,-8.7040905E-3],"split_indices":[34,10,0,34,10,10,0,0,11,0,0,0,0],"split_type":[0,0,0,0,0,0,0,0,0,0,0,0,0],"sum_hessian":[6.88963E1,6.1770977E1,7.125321E0,2.1804117E1,3.996686E1,1.3461954E1,8.342163E0,6.6522493E0,3.3314613E1,5.005335E0,8.456619E0,6.58272E0,2.6731892E1],"tree_param":{"num_deleted":"0","num_feature":"46","num_nodes":"13","size_leaf_vector":"1"}},{"base_weights":[1.37841925E-2,3.3557454E-1,-5.751337E-2,-5.2103545E-3,3.157334E-2,-2.5430897E-1,6.220586E-2,-4.6855825E-1,5.932244E-3,2.830326E-1,-1.1894967E-1,-4.451333E-3,-3.5010006E-2,2.1582874E-2,1.4263451E-3,3.6544723E-3,-2.0233482E-2],"categories":[],"categories_nodes":[],"categories_segments":[],"categories_sizes":[],"default_left":[0,0,0,0,0,0,0,0,0,0,0,0,0,0,0,0,0],"id":64,"left_children":[1,3,5,-1,-1,7,9,11,-1,13,15,-1,-1,-1,-1,-1,-1],"loss_changes":[1.6934638E0,1.8643558E0,1.4331589E0,0E0,0E0,1.9250779E0,1.545599E0,1.173434E0,0E0,5.995408E-1,1.2145662E0,0E0,0E0,0E0,0E0,0E0,0E0],"parents":[2147483647,0,0,1,1,2,2,5,5,6,6,7,7,9,9,10,10],"right_children":[2,4,6,-1,-1,8,10,12,-1,14,16,-1,-1,-1,-1,-1,-1],"split_conditions":[3.3818764E1,3.2798847E1,3.560037E1,-5.2103545E-3,3.157334E-2,1E0,3.72E1,2.408319E0,5.932244E-3,5.24E-1,2E1,-4.451333E-3,-3.5010006E-2,2.1582874E-2,1.4263451E-3,3.6544723E-3,-2.0233482E-2],"split_indices":[45,45,45,0,0,36,19,34,0,33,30,0,0,0,0,0,0],"split_type":[0,0,0,0,0,0,0,0,0,0,0,0,0,0,0,0,0],"sum_hessian":[7.075902E1,1.2416227E1,5.8342793E1,5.118505E0,7.297722E0,2.1958418E1,3.6384377E1,1.3954067E1,8.004351E0,1.6392149E1,1.9992226E1,5.977051E0,7.977016E0,9.661246E0,6.7309027E0,1.2191937E1,7.8002887E0],"tree_param":{"num_deleted":"0","num_feature":"46","num_nodes":"17","size_leaf_vector":"1"}},{"base_weights":[-5.3412404E-2,-1.7044316E-1,1.1642827E-1,-4.411963E-2,-2.661027E-2,3.592443E-2,-5.182724E-2,-2.1509634E-1,2.0168237E-1,-1.7055836E-2,1.0708783E-1,1.1858226E-2,-2.3433104E-2,-7.848886E-3,2.338669E-2,1.1402133E-2,-8.8202266E-4],"categories":[],"categories_nodes":[],"categories_segments":[],"categories_sizes":[],"default_left":[0,0,0,0,0,0,0,0,0,0,0,0,0,0,0,0,0],"id":65,"left_children":[1,3,5,7,-1,-1,9,11,13,-1,15,-1,-1,-1,-1,-1,-1],"loss_changes":[1.4181061E0,1.8493179E0,3.024707E0,1.4149776E0,0E0,0E0,1.1328489E0,2.4224606E0,1.4071693E0,0E0,2.6043358E-1,0E0,0E0,0E0,0E0,0E0,0E0],"parents":[2147483647,0,0,1,1,2,2,3,3,6,6,7,7,8,8,10,10],"right_children":[2,4,6,8,-1,-1,10,12,14,-1,16,-1,-1,-1,-1,-1,-1],"split_conditions":[3.1E1,3.7E1,3.2E1,9.5629215E-2,-2.661027E-2,3.592443E-2,2.5166116E0,-3.9094985E-2,-1.01592414E-1,-1.7055836E-2,3.5939765E0,1.1858226E-2,-2.3433104E-2,-7.848886E-3,2.338669E-2,1.1402133E-2,-8.8202266E-4],"split_indices":[44,20,44,35,0,0,34,10,11,0,34,0,0,0,0,0,0],"split_type":[0,0,0,0,0,0,0,0,0,0,0,0,0,0,0,0,0],"sum_hessian":[6.907544E1,4.1242226E1,2.7833212E1,3.160461E1,9.637613E0,5.494964E0,2.2338247E1,1.8952942E1,1.26516695E1,7.7368307E0,1.4601418E1,6.690337E0,1.2262605E1,5.4026027E0,7.249067E0,7.3993497E0,7.2020674E0],"tree_param":{"num_deleted":"0","num_feature":"46","num_nodes":"17","size_leaf_vector":"1"}},{"base_weights":[-4.7672253E-2,-2.7866954E-1,1.8259835E-1,-1.3010208E-1,-3.6736052E-2,-2.9217787E-2,4.0670037E-1,1.5962349E-3,-2.941795E-2,-2.0497534E-1,1.754869E-2,3.0095307E-2,8.929154E-4,-1.20242825E-2,1.3543591E-2,3.997508E-3,-2.2095086E-2],"categories":[],"categories_nodes":[],"categories_segments":[],"categories_sizes":[],"default_left":[0,0,0,0,0,0,0,0,0,0,0,0,0,0,0,0,0],"id":66,"left_children":[1,3,5,7,-1,9,11,13,-1,15,-1,-1,-1,-1,-1,-1,-1],"loss_changes":[3.845882E0,2.2665052E0,1.7597191E0,1.7880552E0,0E0,1.3419284E0,1.2784951E0,1.5722944E0,0E0,1.0137663E0,0E0,0E0,0E0,0E0,0E0,0E0,0E0],"parents":[2147483647,0,0,1,1,2,2,3,3,5,5,6,6,7,7,9,9],"right_children":[2,4,6,8,-1,10,12,14,-1,16,-1,-1,-1,-1,-1,-1,-1],"split_conditions":[3.560037E1,-6.874115E-3,3.07E1,3.35E1,-3.6736052E-2,2E0,1.5275252E0,1E0,-2.941795E-2,1E0,1.754869E-2,3.0095307E-2,8.929154E-4,-1.20242825E-2,1.3543591E-2,3.997508E-3,-2.2095086E-2],"split_indices":[45,11,44,44,0,26,22,25,0,25,0,0,0,0,0,0,0],"split_type":[0,0,0,0,0,0,0,0,0,0,0,0,0,0,0,0,0],"sum_hessian":[7.01648E1,3.5139E1,3.5025803E1,2.7639467E1,7.4995317E0,1.822415E1,1.6801655E1,2.2073942E1,5.565525E0,1.2957812E1,5.2663374E0,1.0650028E1,6.151626E0,1.1484653E1,1.0589289E1,5.992167E0,6.9656453E0],"tree_param":{"num_deleted":"0","num_feature":"46","num_nodes":"17","size_leaf_vector":"1"}},{"base_weights":[7.505148E-2,1.722946E-1,-1.2688416E-1,2.1588454E-2,9.804143E-2,-2.9513928E-1,1.0124212E-2,-1.4044973E-2,2.7279803E-1,3.0570817E-3,-3.737999E-2,-1.3232869E-2,4.814047E-3,2.9543785E-3,2.1315843E-2],"categories":[],"categories_nodes":[],"categories_segments":[],"categories_sizes":[],"default_left":[0,0,0,0,0,0,0,0,0,0,0,0,0,0,0],"id":67,"left_children":[1,3,5,-1,7,9,-1,11,13,-1,-1,-1,-1,-1,-1],"loss_changes":[1.4173975E0,8.4048104E-1,1.3583633E0,0E0,8.006246E-1,2.6947365E0,0E0,7.2194093E-1,4.438796E-1,0E0,0E0,0E0,0E0,0E0,0E0],"parents":[2147483647,0,0,1,1,2,2,4,4,5,5,7,7,8,8],"right_children":[2,4,6,-1,8,10,-1,12,14,-1,-1,-1,-1,-1,-1],"split_conditions":[2E0,3E0,3E0,2.1588454E-2,1.0583189E-1,-9.117928E-2,1.0124212E-2,-1.11733355E-1,-5.6350887E-2,3.0570817E-3,-3.737999E-2,-1.3232869E-2,4.814047E-3,2.9543785E-3,2.1315843E-2],"split_indices":[26,37,26,0,35,11,0,11,11,0,0,0,0,0,0],"split_type":[0,0,0,0,0,0,0,0,0,0,0,0,0,0,0],"sum_hessian":[6.9835945E1,4.7570248E1,2.2265701E1,9.213279E0,3.8356968E1,1.5007022E1,7.258679E0,2.3580303E1,1.4776667E1,8.756079E0,6.2509427E0,7.057125E0,1.6523178E1,7.0285873E0,7.7480793E0],"tree_param":{"num_deleted":"0","num_feature":"46","num_nodes":"15","size_leaf_vector":"1"}},{"base_weights":[2.2126775E-2,-2.5977602E-2,7.799166E-2,1.9191429E-2,7.174792E-3,-9.954779E-2,2.546621E-1,-1.7488025E-2,5.571371E-3,3.130836E-2,-4.098902E-3],"categories":[],"categories_nodes":[],"categories_segments":[],"categories_sizes":[],"default_left":[0,0,0,0,0,0,0,0,0,0,0],"id":68,"left_children":[1,-1,3,-1,5,7,9,-1,-1,-1,-1],"loss_changes":[2.0770724E0,0E0,1.3305874E0,0E0,1.433805E0,2.031023E0,2.163446E0,0E0,0E0,0E0,0E0],"parents":[2147483647,0,0,2,2,4,4,5,5,6,6],"right_children":[2,-1,4,-1,6,8,10,-1,-1,-1,-1],"split_conditions":[3.2766293E1,-2.5977602E-2,3E0,1.9191429E-2,3.680489E1,-1.9288147E-2,-2.967534E-2,-1.7488025E-2,5.571371E-3,3.130836E-2,-4.098902E-3],"split_indices":[45,0,37,0,45,10,10,0,0,0,0],"split_type":[0,0,0,0,0,0,0,0,0,0,0],"sum_hessian":[6.775912E1,5.3915186E0,6.23676E1,1.0629566E1,5.1738033E1,3.6284832E1,1.5453202E1,1.6514774E1,1.9770058E1,7.0785494E0,8.374653E0],"tree_param":{"num_deleted":"0","num_feature":"46","num_nodes":"11","size_leaf_vector":"1"}},{"base_weights":[6.3364565E-2,3.5723156E-1,-3.165037E-2,3.4247145E-2,-8.493035E-3,-1.9483568E-2,4.98179E-2,-6.3396424E-2,2.2360103E-2,4.203825E-3,-2.288444E-2],"categories":[],"categories_nodes":[],"categories_segments":[],"categories_sizes":[],"default_left":[0,0,0,0,0,0,0,0,0,0,0],"id":69,"left_children":[1,3,5,-1,-1,-1,7,9,-1,-1,-1],"loss_changes":[1.9509466E0,3.1088932E0,1.5781076E0,0E0,0E0,0E0,2.0122383E0,2.072344E0,0E0,0E0,0E0],"parents":[2147483647,0,0,1,1,2,2,6,6,7,7],"right_children":[2,4,6,-1,-1,-1,8,10,-1,-1,-1],"split_conditions":[-1.3596734E-1,8.888889E-2,-1.0791367E-2,3.4247145E-2,-8.493035E-3,-1.9483568E-2,3.677712E1,5.633352E-3,2.2360103E-2,4.203825E-3,-2.288444E-2],"split_indices":[11,24,12,0,0,0,45,11,0,0,0],"split_type":[0,0,0,0,0,0,0,0,0,0,0],"sum_hessian":[6.7300934E1,1.60264E1,5.1274536E1,9.814583E0,6.211817E0,9.031039E0,4.2243496E1,3.3335163E1,8.908333E0,2.464908E1,8.686083E0],"tree_param":{"num_deleted":"0","num_feature":"46","num_nodes":"11","size_leaf_vector":"1"}},{"base_weights":[4.037582E-4,2.0738374E-2,-7.467336E-2,-1.4757E-1,2.358183E-2,-6.012112E-2,-3.957958E-1,4.3211356E-3,-1.37833E-2,-4.7339094E-4,-3.381068E-2],"categories":[],"categories_nodes":[],"categories_segments":[],"categories_sizes":[],"default_left":[0,0,0,0,0,0,0,0,0,0,0],"id":70,"left_children":[1,-1,3,5,-1,7,9,-1,-1,-1,-1],"loss_changes":[2.2581284E0,0E0,2.4396803E0,1.1060171E0,0E0,1.3541962E0,1.4015653E0,0E0,0E0,0E0,0E0],"parents":[2147483647,0,0,2,2,3,3,5,5,6,6],"right_children":[2,-1,4,6,-1,8,10,-1,-1,-1,-1],"split_conditions":[-1.8906015E-1,2.0738374E-2,3E0,2E0,2.358183E-2,2.35E1,-2.967534E-2,4.3211356E-3,-1.37833E-2,-4.7339094E-4,-3.381068E-2],"split_indices":[10,0,26,26,0,18,10,0,0,0,0],"split_type":[0,0,0,0,0,0,0,0,0,0,0],"sum_hessian":[6.949826E1,1.0170871E1,5.9327393E1,5.314847E1,6.1789184E0,4.05189E1,1.2629572E1,2.42006E1,1.6318302E1,5.8964634E0,6.733108E0],"tree_param":{"num_deleted":"0","num_feature":"46","num_nodes":"11","size_leaf_vector":"1"}},{"base_weights":[-5.4156974E-2,2.3728019E-2,-1.2070137E-1,-2.9602876E-2,-2.6706636E-2,7.786455E-2,-2.9755047E-1,1.832915E-2,-8.9332176E-4,-2.6961306E-2,1.2506323E-3],"categories":[],"categories_nodes":[],"categories_segments":[],"categories_sizes":[],"default_left":[0,0,0,0,0,0,0,0,0,0,0],"id":71,"left_children":[1,-1,3,-1,5,7,9,-1,-1,-1,-1],"loss_changes":[2.4840047E0,0E0,2.7189293E0,0E0,1.5703433E0,1.1297865E0,1.2711954E0,0E0,0E0,0E0,0E0],"parents":[2147483647,0,0,2,2,4,4,5,5,6,6],"right_children":[2,-1,4,-1,6,8,10,-1,-1,-1,-1],"split_conditions":[-2.6033914E-1,2.3728019E-2,-8.836966E-2,-2.9602876E-2,2.65E1,3.56E1,3.1E1,1.832915E-2,-8.9332176E-4,-2.6961306E-2,1.2506323E-3],"split_indices":[11,0,10,0,18,19,18,0,0,0,0],"split_type":[0,0,0,0,0,0,0,0,0,0,0],"sum_hessian":[6.897977E1,6.8578258E0,6.2121944E1,9.270478E0,5.2851463E1,3.8377453E1,1.447401E1,9.111886E0,2.9265568E1,8.067718E0,6.4062934E0],"tree_param":{"num_deleted":"0","num_feature":"46","num_nodes":"11","size_leaf_vector":"1"}},{"base_weights":[3.7101086E-2,-3.522593E-2,2.6829481E-2,-2.8381503E-1,4.8897944E-2,-3.3200976E-2,-5.373626E-4,2.6855085E-2,-3.529189E-2,-6.1963624E-3,2.1328168E-2],"categories":[],"categories_nodes":[],"categories_segments":[],"categories_sizes":[],"default_left":[0,0,0,0,0,0,0,0,0,0,0],"id":72,"left_children":[1,3,-1,5,7,-1,-1,-1,9,-1,-1],"loss_changes":[2.535889E0,1.3006846E0,0E0,1.5576464E0,1.9470124E0,0E0,0E0,0E0,1.6490978E0,0E0,0E0],"parents":[2147483647,0,0,1,1,3,3,4,4,8,8],"right_children":[2,4,-1,6,8,-1,-1,-1,10,-1,-1],"split_conditions":[8.4E-1,-1.119403E-2,2.6829481E-2,3.5104713E1,-9.117928E-2,-3.3200976E-2,-5.373626E-4,2.6855085E-2,1.20805934E-1,-6.1963624E-3,2.1328168E-2],"split_indices":[33,12,0,45,11,0,0,0,35,0,0],"split_type":[0,0,0,0,0,0,0,0,0,0,0],"sum_hessian":[6.728365E1,5.9410202E1,7.8734546E0,1.4721775E1,4.4688427E1,5.4021745E0,9.3196E0,5.95639E0,3.8732037E1,3.3291252E1,5.440783E0],"tree_param":{"num_deleted":"0","num_feature":"46","num_nodes":"11","size_leaf_vector":"1"}},{"base_weights":[-1.054439E-2,-2.206531E-2,3.7842132E-2,1.0885681E-1,-1.0730267E-1,2.288827E-1,-1.0801215E-1,-1.8514683E-2,8.225046E-3,2.061642E-3,2.063868E-2,1.2334512E-2,-2.1061521E-2],"categories":[],"categories_nodes":[],"categories_segments":[],"categories_sizes":[],"default_left":[0,0,0,0,0,0,0,0,0,0,0,0,0],"id":73,"left_children":[1,-1,3,5,7,9,11,-1,-1,-1,-1,-1,-1],"loss_changes":[1.5094762E0,0E0,6.649074E-1,1.1691878E0,1.5723463E0,9.2522776E-1,1.8857822E0,0E0,0E0,0E0,0E0,0E0,0E0],"parents":[2147483647,0,0,2,2,3,3,4,4,5,5,6,6],"right_children":[2,-1,4,6,8,10,12,-1,-1,-1,-1,-1,-1],"split_conditions":[2.5E1,-2.206531E-2,2E0,2.57E1,3.07E1,-7.024793E-2,3.7E1,-1.8514683E-2,8.225046E-3,2.061642E-3,2.063868E-2,1.2334512E-2,-2.1061521E-2],"split_indices":[44,0,26,18,44,11,19,0,0,0,0,0,0],"split_type":[0,0,0,0,0,0,0,0,0,0,0,0,0],"sum_hessian":[6.868408E1,6.32469E0,6.2359394E1,4.2503017E1,1.9856377E1,2.762159E1,1.4881427E1,1.0094614E1,9.761764E0,1.4546137E1,1.3075453E1,6.928462E0,7.952965E0],"tree_param":{"num_deleted":"0","num_feature":"46","num_nodes":"13","size_leaf_vector":"1"}},{"base_weights":[6.645176E-2,-9.702946E-2,2.2506294E-1,1.1511491E-2,-2.2056636E-1,3.6892298E-1,-0E0,-3.7631947E-1,1.596931E-2,6.2141675E-3,4.5111308E-1,-1.4308347E-2,1.539092E-2,-7.419705E-3,-3.903115E-2,2.8414859E-2,8.213762E-3],"categories":[],"categories_nodes":[],"categories_segments":[],"categories_sizes":[],"default_left":[0,0,0,0,0,0,0,0,0,0,0,0,0,0,0,0,0],"id":74,"left_children":[1,3,5,-1,7,9,11,13,-1,-1,15,-1,-1,-1,-1,-1,-1],"loss_changes":[1.7881383E0,1.411823E0,1.1476209E0,0E0,2.2443066E0,3.173592E-1,1.3645229E0,1.6483757E0,0E0,0E0,3.4958816E-1,0E0,0E0,0E0,0E0,0E0,0E0],"parents":[2147483647,0,0,1,1,2,2,4,4,5,5,6,6,7,7,10,10],"right_children":[2,4,6,-1,8,10,12,14,-1,-1,16,-1,-1,-1,-1,-1,-1],"split_conditions":[1.0300591E-1,-1.4281754E-1,3.72E1,1.1511491E-2,4.5909297E-2,-1.11733355E-1,1.4832397E0,-6.0509555E-2,1.596931E-2,6.2141675E-3,2.35E1,-1.4308347E-2,1.539092E-2,-7.419705E-3,-3.903115E-2,2.8414859E-2,8.213762E-3],"split_indices":[35,11,19,0,10,11,22,11,0,0,18,0,0,0,0,0,0],"split_type":[0,0,0,0,0,0,0,0,0,0,0,0,0,0,0,0,0],"sum_hessian":[6.662439E1,3.2689236E1,3.393515E1,8.499703E0,2.4189533E1,2.0433605E1,1.3501547E1,1.9152975E1,5.036558E0,6.076294E0,1.435731E1,7.1086226E0,6.392925E0,1.3280495E1,5.8724794E0,9.248905E0,5.1084056E0],"tree_param":{"num_deleted":"0","num_feature":"46","num_nodes":"17","size_leaf_vector":"1"}},{"base_weights":[-8.119212E-2,-0E0,-3.1285083E-1,-5.0239418E-2,1.446596E-2,-4.360972E-1,-8.096668E-4,2.5887573E-1,-1.4907287E-1,-5.013506E-3,-3.8281433E-2,2.3947416E-2,-0E0,-8.1100705E-4,-1.9283192E-2],"categories":[],"categories_nodes":[],"categories_segments":[],"categories_sizes":[],"default_left":[0,0,0,0,0,0,0,0,0,0,0,0,0,0,0],"id":75,"left_children":[1,3,5,7,-1,9,-1,11,13,-1,-1,-1,-1,-1,-1],"loss_changes":[1.3830807E0,8.2156724E-1,6.422626E-1,1.4586744E0,0E0,1.291249E0,0E0,6.6569537E-1,1.0968316E0,0E0,0E0,0E0,0E0,0E0,0E0],"parents":[2147483647,0,0,1,1,2,2,3,3,5,5,7,7,8,8],"right_children":[2,4,6,8,-1,10,-1,12,14,-1,-1,-1,-1,-1,-1],"split_conditions":[2.13E1,3E0,2.2E0,-1.4006409E-1,1.446596E-2,1E0,-8.096668E-4,7.017544E-2,2E0,-5.013506E-3,-3.8281433E-2,2.3947416E-2,-0E0,-8.1100705E-4,-1.9283192E-2],"split_indices":[18,26,23,10,0,25,0,24,26,0,0,0,0,0,0],"split_type":[0,0,0,0,0,0,0,0,0,0,0,0,0,0,0],"sum_hessian":[7.124104E1,5.324443E1,1.7996609E1,4.5841908E1,7.402525E0,1.2144183E1,5.8524256E0,1.0468652E1,3.5373257E1,6.8109016E0,5.333281E0,5.252569E0,5.2160826E0,2.3607937E1,1.1765318E1],"tree_param":{"num_deleted":"0","num_feature":"46","num_nodes":"15","size_leaf_vector":"1"}},{"base_weights":[-5.2675817E-2,-1.3054699E-1,1.9569393E-1,1.834053E-1,-2.7648982E-1,2.7792636E-2,-5.1664086E-3,1.809388E-2,-7.4428828E-3,-4.763622E-2,-5.147289E-1,1.3409376E-2,-1.0921692E-2,-4.7350917E-2,-1.0608973E-2],"categories":[],"categories_nodes":[],"categories_segments":[],"categories_sizes":[],"default_left":[0,0,0,0,0,0,0,0,0,0,0,0,0,0,0],"id":76,"left_children":[1,3,5,7,9,-1,-1,-1,-1,11,13,-1,-1,-1,-1],"loss_changes":[1.3145266E0,2.4380522E0,1.8346226E0,1.0745983E0,1.8845756E0,0E0,0E0,0E0,0E0,1.1163462E0,1.9516912E0,0E0,0E0,0E0,0E0],"parents":[2147483647,0,0,1,1,2,2,3,3,4,4,9,9,10,10],"right_children":[2,4,6,8,10,-1,-1,-1,-1,12,14,-1,-1,-1,-1],"split_conditions":[3.680489E1,3.406723E1,-2.4125963E-2,2E0,1.1029412E-2,2.7792636E-2,-5.1664086E-3,1.809388E-2,-7.4428828E-3,3.5054787E1,3.5284863E1,1.3409376E-2,-1.0921692E-2,-4.7350917E-2,-1.0608973E-2],"split_indices":[45,45,10,26,12,0,0,0,0,45,45,0,0,0,0],"split_type":[0,0,0,0,0,0,0,0,0,0,0,0,0,0,0],"sum_hessian":[6.59823E1,5.090051E1,1.5081786E1,1.5853839E1,3.5046673E1,6.6035843E0,8.478202E0,1.0451654E1,5.402184E0,1.870156E1,1.6345112E1,6.158365E0,1.2543195E1,5.71654E0,1.0628572E1],"tree_param":{"num_deleted":"0","num_feature":"46","num_nodes":"15","size_leaf_vector":"1"}},{"base_weights":[8.759058E-3,1.1113002E-1,-1.9529647E-1,1.9111785E-1,-9.553159E-3,-4.2743188E-1,1.0876761E-2,4.783748E-1,5.891344E-2,-7.2348225E-3,-3.320961E-2,9.294793E-3,3.4500685E-2,-3.1308376E-3,2.6359081E-2],"categories":[],"categories_nodes":[],"categories_segments":[],"categories_sizes":[],"default_left":[0,0,0,0,0,0,0,0,0,0,0,0,0,0,0],"id":77,"left_children":[1,3,5,7,-1,9,-1,11,13,-1,-1,-1,-1,-1,-1],"loss_changes":[1.4881184E0,1.1962585E0,2.377836E0,1.3877426E0,0E0,8.6814857E-1,0E0,5.156803E-1,1.6661258E0,0E0,0E0,0E0,0E0,0E0,0E0],"parents":[2147483647,0,0,1,1,2,2,3,3,5,5,7,7,8,8],"right_children":[2,4,6,8,-1,10,-1,12,14,-1,-1,-1,-1,-1,-1],"split_conditions":[2E0,3.38E1,3E0,-8.385139E-2,-9.553159E-3,-9.117928E-2,1.0876761E-2,2.87E1,5.227453E-2,-7.2348225E-3,-3.320961E-2,9.294793E-3,3.4500685E-2,-3.1308376E-3,2.6359081E-2],"split_indices":[26,44,26,11,0,11,0,44,11,0,0,0,0,0,0],"split_type":[0,0,0,0,0,0,0,0,0,0,0,0,0,0,0],"sum_hessian":[6.960205E1,4.6978992E1,2.2623056E1,3.769891E1,9.280085E0,1.4613015E1,8.01004E0,1.081814E1,2.688077E1,7.5866623E0,7.026353E0,5.528615E0,5.2895246E0,2.1860115E1,5.020654E0],"tree_param":{"num_deleted":"0","num_feature":"46","num_nodes":"15","size_leaf_vector":"1"}},{"base_weights":[-5.561432E-2,-1.2737061E-1,2.4847953E-2,-3.1068087E-1,6.545632E-2,-9.108601E-3,-4.5836514E-1,1.670766E-2,-8.11638E-2,-7.194729E-3,5.126356E-3,-3.8954157E-2,-1.2346366E-2,-1.7772924E-2,6.5549784E-3],"categories":[],"categories_nodes":[],"categories_segments":[],"categories_sizes":[],"default_left":[0,0,0,0,0,0,0,0,0,0,0,0,0,0,0],"id":78,"left_children":[1,3,-1,5,7,9,11,-1,13,-1,-1,-1,-1,-1,-1],"loss_changes":[2.6792886E0,2.1718507E0,0E0,1.3425794E0,1.2298222E0,1.9235505E-1,1.1127982E0,0E0,1.2276169E0,0E0,0E0,0E0,0E0,0E0,0E0],"parents":[2147483647,0,0,1,1,3,3,4,4,5,5,6,6,8,8],"right_children":[2,4,-1,6,8,10,12,-1,14,-1,-1,-1,-1,-1,-1],"split_conditions":[1.20805934E-1,3.02E1,2.4847953E-2,-3.5784632E-2,3.25E1,-8.5094176E-2,0E0,1.670766E-2,5.24E-1,-7.194729E-3,5.126356E-3,-3.8954157E-2,-1.2346366E-2,-1.7772924E-2,6.5549784E-3],"split_indices":[35,44,0,10,44,10,10,0,33,0,0,0,0,0,0],"split_type":[0,0,0,0,0,0,0,0,0,0,0,0,0,0,0],"sum_hessian":[6.5908165E1,5.9174347E1,6.7338185E0,3.0288294E1,2.8886053E1,1.0528277E1,1.9760015E1,9.986934E0,1.8899118E1,5.0444946E0,5.483783E0,6.596506E0,1.3163509E1,8.156057E0,1.0743061E1],"tree_param":{"num_deleted":"0","num_feature":"46","num_nodes":"15","size_leaf_vector":"1"}},{"base_weights":[2.8102813E-2,2.5277793E-1,-6.625529E-2,-3.2744675E-3,2.595464E-2,-2.6803827E-1,9.031732E-2,2.873448E-3,-4.6738833E-1,1.6562391E-2,-2.5563719E-2,-3.2405682E-2,-6.150916E-3,-1.4685281E-2,1.0656139E-2],"categories":[],"categories_nodes":[],"categories_segments":[],"categories_sizes":[],"default_left":[0,0,0,0,0,0,0,0,0,0,0,0,0,0,0],"id":79,"left_children":[1,3,5,-1,-1,7,9,-1,11,-1,13,-1,-1,-1,-1],"loss_changes":[1.4868418E0,1.8398367E0,1.5804079E0,0E0,0E0,1.4828743E0,8.1763864E-1,0E0,7.035148E-1,0E0,1.3173268E0,0E0,0E0,0E0,0E0],"parents":[2147483647,0,0,1,1,2,2,5,5,6,6,8,8,10,10],"right_children":[2,4,6,-1,-1,8,10,-1,12,-1,14,-1,-1,-1,-1],"split_conditions":[3.58E1,-1.7426338E-2,3.2093613E0,-3.2744675E-3,2.595464E-2,-4.0089935E-2,8E-1,2.873448E-3,0E0,1.6562391E-2,3.02E1,-3.2405682E-2,-6.150916E-3,-1.4685281E-2,1.0656139E-2],"split_indices":[19,10,34,0,0,10,36,0,10,0,44,0,0,0,0],"split_type":[0,0,0,0,0,0,0,0,0,0,0,0,0,0,0],"sum_hessian":[6.74645E1,1.9770363E1,4.7694138E1,9.17915E0,1.0591213E1,2.0806513E1,2.6887625E1,7.982476E0,1.2824037E1,8.408918E0,1.8478706E1,7.6414127E0,5.1826234E0,8.791139E0,9.687568E0],"tree_param":{"num_deleted":"0","num_feature":"46","num_nodes":"15","size_leaf_vector":"1"}},{"base_weights":[-4.4763647E-2,-1.24859214E-1,1.3713144E-1,1.9319631E-2,-2.0999004E-1,3.0586898E-1,-9.609892E-3,-4.3648088E-1,-3.6887854E-2,2.7754996E-2,1.0158959E-4,-8.855094E-3,-4.27923E-2,-1.6894167E-2,1.2776784E-2],"categories":[],"categories_nodes":[],"categories_segments":[],"categories_sizes":[],"default_left":[0,0,0,0,0,0,0,0,0,0,0,0,0,0,0],"id":80,"left_children":[1,3,5,-1,7,9,-1,11,13,-1,-1,-1,-1,-1,-1],"loss_changes":[9.8837674E-1,2.1199062E0,1.2094369E0,0E0,1.5565379E0,1.0141222E0,0E0,1.6548755E0,2.274137E0,0E0,0E0,0E0,0E0,0E0,0E0],"parents":[2147483647,0,0,1,1,2,2,4,4,5,5,7,7,8,8],"right_children":[2,4,6,-1,8,10,-1,12,14,-1,-1,-1,-1,-1,-1],"split_conditions":[3.65E1,-2.5278687E-1,2E1,1.9319631E-2,-1.7426338E-2,2E0,-9.609892E-3,-1.059403E-1,1E0,2.7754996E-2,1.0158959E-4,-8.855094E-3,-4.27923E-2,-1.6894167E-2,1.2776784E-2],"split_indices":[45,11,31,0,10,26,0,11,25,0,0,0,0,0,0],"split_type":[0,0,0,0,0,0,0,0,0,0,0,0,0,0,0],"sum_hessian":[6.5750114E1,4.6248444E1,1.9501677E1,5.9289227E0,4.031952E1,1.3142681E1,6.3589945E0,1.655689E1,2.3762629E1,6.5850344E0,6.5576468E0,1.1255861E1,5.3010297E0,1.1801596E1,1.1961033E1],"tree_param":{"num_deleted":"0","num_feature":"46","num_nodes":"15","size_leaf_vector":"1"}},{"base_weights":[-3.3736285E-2,9.660699E-2,-1.8154141E-1,-2.4465086E-2,3.5187972E-1,-2.6488006E-2,-0E0,1.8490924E-1,-3.0784672E-1,3.0300507E-2,2.0028856E-3,1.5017831E-1,-1.939865E-2,1.9083641E-2,-7.704988E-3,-2.4745218E-2,-2.2556258E-3,1.8983161E-2,-6.354192E-3],"categories":[],"categories_nodes":[],"categories_segments":[],"categories_sizes":[],"default_left":[0,0,0,0,0,0,0,0,0,0,0,0,0,0,0,0,0,0,0],"id":81,"left_children":[1,3,5,7,9,-1,11,13,15,-1,-1,17,-1,-1,-1,-1,-1,-1,-1],"loss_changes":[1.3385608E0,1.169313E0,2.0844147E0,1.5777185E0,8.677213E-1,0E0,1.3521988E0,1.0850272E0,4.8301423E-1,0E0,0E0,